500 300
的 -0.3893236 0.47726694 -1.5944636 -1.820776 -0.12890992 0.68162245 -0.13673612 1.1322422 1.3870286 0.37948656 1.5782558 -0.23278083 -1.2192136 2.2233236 -0.85248697 1.1719048 -0.2659258 0.68219554 0.5493309 0.08616215 -0.592858 -0.34841657 -0.07124034 1.5841653 0.80164903 -0.9073695 0.6610335 -0.30918908 0.68359625 0.13097504 -0.5133121 0.4692169 -1.8618683 -0.89557487 -0.51503396 -0.2519612 0.41906646 0.55600643 0.13369718 -0.668013 1.7219596 -1.2057781 -0.01833775 -0.46213466 0.18537137 1.2505714 -2.0011795 -2.211329 -0.09584872 0.9123271 2.8830552 0.6002265 -0.6227371 -1.8117334 -0.7187641 -0.81722945 -2.7220752 1.2279185 -2.6469269 1.4274064 -1.7453568 2.470573 2.253926 0.6695011 -2.317705 0.9643258 -1.1154497 -1.7864608 1.4958771 0.9750759 -2.7567575 -0.61572856 -1.9237663 -1.9799641 1.4827924 0.54944205 0.6453301 -0.36251655 0.15434639 -1.1907281 0.12713768 -0.8123996 0.749571 -0.864247 0.73045975 0.9684162 1.1437954 0.6982763 -2.190995 0.21478815 0.43633792 -1.5816096 -1.1585852 -1.2310498 -0.99032974 1.348479 -1.7289617 1.5961088 -3.0671308 0.22547694 0.4285338 -0.12926924 0.15703808 0.8547132 1.5519345 -1.3977443 -1.0574088 0.6014281 -0.7014004 1.584839 1.450966 -1.350606 -0.83457917 -0.2826125 -0.4577103 -1.3066418 -2.052744 1.0261561 -1.946402 -0.0015313557 0.5765446 -1.6433586 -0.1102352 -1.1512694 -1.6826398 -2.484386 1.6951333 -1.8122481 1.4359244 1.7081962 -0.16048832 -0.8946891 1.7311207 -1.2698604 1.7967587 0.87071705 2.896771 0.39032087 1.3317112 -0.8762318 1.1126977 0.053798568 0.4642891 -0.22986577 -2.5347695 -1.3246771 0.49206376 1.3308245 -2.3073845 1.7020221 0.47898638 0.17500821 2.4686356 0.62411624 0.53032136 2.8746443 -1.9491788 -1.5320075 -0.11663436 -1.9217805 2.146066 -1.8723041 3.144565 1.3436409 1.899935 0.47987336 -1.1127462 0.4288016 1.6164583 -2.0516126 0.1127185 1.2003448 -0.1772975 -0.6647281 0.8958149 0.5738825 0.010765328 0.6883606 1.396239 1.2033025 -1.7306557 1.6355479 -2.2929347 1.1457179 -1.2131933 0.3447464 0.44273928 -1.1900969 -3.5152824 0.36693224 0.21611692 -2.0634785 -0.13752873 1.4243433 -0.72874516 -0.25776592 -0.28577596 -0.83362406 -0.28118068 1.0729601 1.4992769 1.9759597 0.7032507 2.231114 -0.78478694 -0.21802251 -1.3175014 0.26472253 0.020831404 0.59453404 -1.8084106 0.30607575 2.4489765 -1.3697863 -0.09760365 -0.42947897 2.588355 0.6294449 -0.25035962 -0.5399022 -0.31637084 -0.5286657 0.080770314 2.7843237 0.77125746 0.9792807 -1.7745396 0.23352793 -0.27416074 0.5519476 -0.78667563 -0.7516194 -2.349848 0.4514175 1.2034134 0.3089824 -2.233971 -1.1509175 3.4392803 -1.4126699 1.6671268 -1.2835944 -1.6900023 -1.4169402 0.7429222 0.009105548 0.50195545 -0.20630728 -1.0614693 0.25078553 0.6925408 1.21362 -0.7911669 0.16499372 -0.8075657 -1.4310141 0.09164102 -0.032691985 -0.1638552 -0.4385479 0.43877056 0.14202693 1.2689838 -1.1290616 1.1284995 0.17062287 0.3634413 -0.85316503 1.0745945 1.2502356 -0.6945619 0.06078176 0.08569819 -3.598066 -1.8532534 0.17166516 -1.4795084 -0.6826626 0.5830925 -1.7719235 -1.7392137 -1.8631314 0.5370923 0.565079 1.1224205 0.47056705 0.90742236 2.0624907 1.7339729 -0.96888626 -0.72650665 -0.5553653 -0.55224353 -1.609771 -1.005596 1.8589331 -2.0391195 -0.45053396 -1.8353976 -0.20025137
1 -0.3298644 -0.19535275 1.7614107 -2.8583524 2.3879168 -1.600862 2.0966022 0.12523372 -1.130381 -2.500772 0.18566523 -2.3806336 -2.6474705 -1.3816434 0.68523175 -0.7345162 1.1544983 -2.6394734 -0.734992 -1.198076 2.4999123 2.511611 2.5998561 -2.38126 1.0873051 0.011424938 5.1138277 2.659201 1.3267586 -0.26470068 -1.894807 -1.6528677 3.299291 2.4120522 0.13088731 -0.48155642 0.13611841 -1.4151425 -2.0714002 2.924816 1.851241 -0.7683838 3.4726691 0.54053015 -0.23271602 -2.3757195 -1.3039728 0.34926215 -0.593068 -2.9946601 -4.241153 0.3823705 -0.50651556 1.4589169 5.2709427 0.20159295 3.2729375 3.6880744 0.72849375 -2.1892307 1.7735388 -1.4226925 -4.118719 -0.8617792 0.38836887 -1.758064 -2.3266711 4.795513 -4.388805 0.12366465 4.068432 -1.0039029 -0.54521954 0.023829538 -2.9930294 0.05231218 -0.21639317 -0.42853314 -1.4653239 2.142707 -0.5742319 0.7023389 -0.6201266 3.3606205 0.04039973 -0.80148625 -2.7310534 3.6315372 2.6040745 -1.7819554 -3.6285415 3.6513035 -3.5796201 0.26397496 -1.0309635 -0.51372427 2.5109258 0.8348762 0.48048687 0.28387344 -2.665005 -0.76772934 0.55468994 0.5344065 -3.4935548 -1.2992641 2.9489367 -0.9886294 -1.1056051 3.0605845 -2.5173302 -2.133177 -1.0412124 0.6617409 2.8344698 -0.18818308 1.2504475 -4.1166916 -0.49676645 3.8124495 0.42981282 0.24115373 -1.8648387 2.0051353 1.222484 2.9599912 -3.8417602 1.5769266 0.53523445 1.9547448 2.7392478 0.6406823 -1.7738438 3.6059191 0.1303355 0.48254052 -1.3436671 -0.5512273 -1.2719172 -2.7774954 -0.86365235 0.93625224 0.63030785 0.87442636 -0.4212802 -0.8000666 -0.5837293 -0.925645 0.17567737 -0.82204276 -1.3896747 -4.545203 -2.7691073 -0.124172695 -3.908119 -1.1876627 -2.2719362 0.21853133 4.568376 -1.7169254 1.159871 2.9900067 -3.5610135 -1.9062243 -0.9506113 0.31238714 3.4519963 -3.5939605 -2.1136997 2.6622467 -1.145779 -2.7787929 -2.8817813 -1.4600381 -0.61137986 -0.957578 -1.588479 -2.3297224 -2.5355785 2.2032135 2.0199077 -0.019964391 1.7901665 -1.8292328 3.2600787 -2.791916 0.7773202 -0.24534921 3.3144996 0.06423173 1.474237 0.31755212 -1.3728129 -3.7103596 -1.2319492 -0.89938444 -1.3725014 0.4687277 -1.8507662 -0.38975555 0.5506853 -1.605742 -0.15312771 -1.9248952 0.98600423 -5.204163 1.7842389 2.252618 0.17820412 -0.3248302 1.4577149 1.3608369 -1.4117271 1.3856319 -2.4797747 -0.08329973 -1.9785944 -1.6508498 -1.8032173 1.4800406 0.88238186 -1.2391781 1.1417574 -2.156265 -0.6077951 -1.8995812 2.4823658 0.5698173 -1.3236203 1.7881517 0.15152663 -3.9965158 -0.16530272 -1.6241522 -0.4313442 0.7494185 1.6815963 -1.1088226 -1.8690768 1.7109696 -1.8640407 -0.2584074 1.0827717 0.68556416 -3.9060593 -0.32603946 -0.11649641 1.7509971 0.3548801 -1.7942649 -0.5935642 3.760912 1.450322 -0.083619565 2.1602333 -0.5041233 0.1861993 -1.988634 -0.27965254 3.4694846 -2.4724932 -0.06433624 -0.58650047 5.618156 -1.9485936 -1.7027504 -0.64518076 -0.26413473 -1.3695518 -2.7989876 3.5303416 0.17625155 -2.341909 -1.3858443 -0.11863687 -1.1312255 -0.07896926 -2.4728448 -2.2039752 -1.2881575 -0.19919713 -0.71045876 -0.92714995 0.66611886 -1.0560925 -2.8226688 -2.1975293 -0.42922643 -0.59071124 0.28097376 2.3166625 -1.426029 2.4169526 2.4166749 -2.2178876 -0.21830666 2.664651 -1.9777514 1.0887302 1.6530845
0 0.2113525 0.5257718 1.0642238 -1.985112 3.1094031 -0.5791775 1.6317182 0.40233886 -1.9890178 -2.295301 0.5496897 -1.0505733 -2.3843634 -1.0169955 2.8169491 -2.2060704 1.6815016 -1.5889568 -0.89146477 -0.8485117 3.10697 3.2347147 2.7932198 -1.3220114 1.5932809 -1.8859515 4.4739065 2.872088 1.5013673 -0.7396089 -2.109661 -2.215011 1.9433789 1.3169339 0.7223242 0.09719287 -0.92876416 0.20752144 -2.5185897 4.0620074 0.30957562 -0.52264667 1.7933791 -0.41759726 -0.0120074395 -2.2815468 -2.289531 1.9138209 -0.53275406 -2.5347562 -2.9318273 -0.29013985 -0.108289145 0.90211356 4.8708873 0.1400259 3.0318263 3.5459828 1.4429672 -2.7151265 2.2510185 -1.7441447 -3.683976 -2.3785222 1.5023992 -3.1256568 -1.1766119 4.610907 -4.2440624 0.13129956 4.125952 -0.23465958 1.9001675 -0.795229 -3.0987086 0.5193057 0.42998037 0.23792939 -2.1389852 2.1468184 -0.5416587 1.03888 -0.5313793 0.99654806 -1.3037473 -2.4180489 -2.3655534 2.6731808 1.8217806 -1.4176018 -2.9211087 2.5105095 -4.7438397 1.6991463 -1.0245885 -1.2094382 1.9420152 2.2397175 1.4956505 0.35448495 -2.6414077 -0.3205522 1.3114864 0.18203735 -2.2419522 -1.3592876 2.8039713 -1.0054666 -1.7145361 3.1642134 -2.3777375 -2.7204425 -0.84024405 -0.43079457 3.0720665 0.14313792 1.7423164 -4.967856 -1.8279506 3.1837275 -0.0026316473 1.5709559 -2.675232 1.9011184 1.0329398 2.9690294 -3.356371 2.4539692 0.26727566 1.5541389 1.7615573 0.1617939 -0.0812335 3.1560109 0.7564024 0.35465074 -2.3065586 -1.3988212 -0.12403827 -2.6628513 -0.00736788 2.5856595 -0.8646862 1.2703972 0.33591938 -1.2483954 -1.4064338 0.0016527447 0.41192114 -1.7434956 -2.3861492 -2.7254477 -2.3071496 -0.66956925 -3.8374295 -1.6592156 -2.967518 1.3797861 3.427242 -2.0675328 1.2834678 1.0225594 -2.608113 -3.4201524 -1.4706286 0.8857713 4.725117 -4.5309205 -1.9902239 1.6845253 -1.7879142 -3.3218746 -1.8211606 -2.4449105 -2.952533 0.66862595 -2.2558548 -2.816464 -3.21472 2.7647178 1.6822681 -1.212121 1.665472 -2.0046396 3.3285985 -3.590753 0.70565563 0.8810803 1.7099319 -1.5237094 2.1749427 1.8420899 -0.6219096 -1.8590178 -0.43564582 -2.6417768 -1.726875 2.4918118 -1.6737282 0.12634873 0.9675072 -0.8576997 1.315951 -2.0104568 0.91128486 -4.924663 1.1629114 2.7176971 0.2791724 -1.3322171 2.137274 0.91135305 -1.1134897 1.0899286 -0.9152933 0.08590933 -2.3641682 0.21486263 -1.2637916 2.1067383 1.1515508 -1.6816906 1.6189593 -2.058928 -1.0622687 -0.32394192 2.2520707 -0.62850744 -1.612517 2.132693 -2.688544 -2.7970946 -0.09838426 -2.1990848 -0.2319937 -0.3592601 2.95746 -0.92737615 -1.4325902 0.91323596 -1.3658972 -0.9352151 1.283869 1.856978 -3.2345257 -2.327996 0.1996732 1.593225 1.1563538 -2.661201 -0.35667023 3.731045 1.8208042 0.018147608 2.8391614 -0.34350166 -0.354054 -1.4272592 0.7548715 2.5437794 -4.084692 0.66066843 -1.7970973 5.3621464 -0.7221851 -1.4372027 0.8456316 0.59156454 0.10524067 -1.8604107 2.6728654 -0.15082113 -3.3407407 -2.8798115 -0.12292021 -0.9760953 -0.6214103 -3.55917 -1.5316662 -0.4874791 0.26235512 -1.2013233 -1.277819 0.5663592 -1.5221299 -1.1614442 -2.130599 0.42256176 -1.313349 0.69956696 3.0056581 -2.323508 1.8807511 1.6815351 -1.7322513 -0.92975146 3.453058 -3.4167585 2.210886 1.6498711
e -0.17207573 2.6184356 1.6082743 0.8823769 -1.7400206 -2.0831997 0.0248705 1.176904 -1.7184856 -0.15050572 -1.4705989 -0.79594177 2.859375 1.2954954 1.6753501 -1.0495268 0.52728003 1.0596986 -1.2938623 -0.558042 -2.520347 0.92743844 -1.6912692 -0.6019204 2.8226717 -1.4363344 1.8935649 -0.745968 1.6271886 -2.473314 -1.3047415 -0.7430019 0.38771823 3.101106 -0.65917844 -2.3172376 0.3814784 0.40550798 -3.5901012 0.8216853 -1.518914 1.621032 0.3144395 -2.170254 -0.3264823 -0.554052 -1.3509802 3.7167373 -1.9238318 -2.6006143 -3.565901 0.54703915 3.8184478 -1.6075348 -0.63521665 1.7468699 2.0317495 -1.3611319 -0.03654823 0.9612304 -1.172991 -1.578162 0.46658218 -2.0370793 -0.35585758 1.5122313 -2.385486 1.475841 -1.2988529 -1.9428903 0.28584665 -0.20628095 2.2769597 -0.42597786 -2.0197897 1.578809 -0.77038497 -1.3164669 2.4367247 -4.556701 0.34123528 0.44607347 0.83363837 1.4507794 -0.093393 1.1849943 2.1614652 0.62150294 1.6173024 -0.58180106 -1.9500685 -0.3136075 -1.3634266 1.4612732 0.05518434 -0.37881944 1.7973293 0.784228 0.46161315 0.8668561 -1.8496912 -2.1856718 -1.7867031 -4.416804 1.2841442 -1.8982137 0.15491603 2.4094956 -1.5739439 -3.6336823 -1.9478474 -0.20057599 1.2608042 -0.8154326 -3.9213893 -1.8698192 -1.9918145 -1.7810999 4.150848 -1.8197321 0.4330382 0.74623615 1.9188144 -0.14111267 0.6025174 0.2225364 0.9510758 -0.54377556 1.5170485 -1.2979356 -0.68205744 -0.16353893 -1.3064258 -0.8047212 -3.0609934 0.37441942 1.583884 0.5498631 -0.81976134 2.1985118 -1.5548029 -3.0183415 -0.6619379 -1.877428 2.5484724 0.6365695 -0.20348522 -2.9593906 -0.41466138 -0.102273315 -1.2794272 -0.88753784 1.1443353 -3.6438854 -2.522217 -2.5856855 2.6973991 -1.3558401 0.8726139 1.4954749 -2.7380068 -1.8705947 0.4313756 0.35759437 -2.8733974 2.1779773 2.6721978 -2.4569201 -0.022742571 0.74658203 1.5487256 -0.54571325 -3.6504917 1.0701704 -0.5617184 1.3348053 -1.9220916 -0.08163995 0.020098468 1.1989176 1.2262462 -1.644298 -1.3382738 -1.467263 0.3399803 -0.104754075 -0.25342575 0.21938282 0.430717 0.18559295 -2.5081642 -0.104317196 -0.14066103 -0.7368661 0.98019177 0.87416387 1.4829464 1.0520113 -0.6503516 1.9375159 -0.18538171 -0.16439427 -0.32162917 3.0256655 0.2502828 -0.81340224 0.61462325 0.8620174 -3.4848344 0.8243348 -1.3368808 0.85604686 -1.1257894 -1.5806222 -1.1470896 -0.4296867 -0.55479723 -0.503248 -0.8799937 -0.54641944 0.36245406 0.48793784 -1.8975756 0.7228229 0.6478052 -1.3571588 -0.65716827 1.290235 3.263052 -1.9453247 -3.3285646 -1.4899331 -2.3499832 -1.3612679 0.35649315 -1.1488919 -0.68348056 1.2063408 -1.0109596 -1.0093935 -4.04493 1.4653313 -0.6243146 2.6642828 -0.880739 -0.23767059 -1.8634727 1.5996124 -2.0015714 -2.2813933 0.47785732 2.805834 1.4130323 -1.6344068 -1.5681155 -3.4680877 0.053503346 0.79883957 1.6918226 2.4290843 -1.4409114 -1.2712771 -2.161832 1.046254 -0.4859057 -1.5344685 0.6906089 0.28039685 -3.556284 2.6642015 0.5174827 -1.9934809 0.67349577 1.6385188 -1.5305854 0.44534397 -0.6343092 -1.8509685 0.45177436 1.5579721 0.27484444 -0.84938157 -1.9076649 -2.627351 -2.819838 -0.07912582 2.46262 1.7049313 -1.0186297 -0.66028214 -0.106574506 -0.9891047 -0.01869015 -1.3391801 -1.5780226 -2.972997 1.6017979 1.0540297 -1.2316068 1.4216943
2 -0.15026326 0.9429706 0.73941517 -2.5215826 2.311523 -0.2142867 1.4334829 -0.61688536 -1.167689 -2.055948 0.9607995 -1.8519757 -2.6262321 -0.63549364 -0.027905695 -1.7808721 0.9006706 -3.1466432 -0.33629888 -1.0039035 2.9592063 3.229536 1.6340892 -0.80110675 0.37450856 -0.522257 5.392494 2.831784 1.0192963 0.48582196 -2.995567 -1.4750643 2.7043595 2.6170974 -0.85263526 -1.3524 -0.07095285 -0.5985737 -2.4510438 3.6416862 0.035702914 -0.57468855 2.4861627 -0.5205779 -0.15802705 -1.289063 -2.6213787 0.27890378 0.52856505 -1.9869324 -2.5814106 0.6894763 -0.77567446 0.9789189 5.361061 -0.7634557 2.9901376 3.1632311 0.913852 -2.2731855 1.0605658 -0.7239468 -3.7107167 -2.770244 0.42048058 -1.8648142 -1.4956837 3.4848375 -4.5690207 1.2898483 3.509628 -1.341594 -0.025402991 -0.0947124 -3.9324944 0.6557274 -0.05919574 0.02443195 -1.2865894 1.2881186 -0.6249924 0.73133093 -0.30646828 3.2046173 -0.68978435 -1.3452566 -2.6559145 2.846359 2.5164454 -1.5935457 -4.000468 2.418631 -2.8385277 0.9408911 -0.39373392 -0.5977054 2.09104 2.2652907 1.9351268 -0.01334935 -3.199991 0.1941415 1.383144 0.3170398 -4.5923586 -2.9478407 2.9274647 -1.546491 -0.9304788 2.613303 -1.825627 -2.4444842 -0.6629621 -0.90721816 2.8351235 -0.6663457 1.2783628 -3.8422203 -0.8101882 2.8391953 -0.6461898 1.1328771 -1.964988 0.9403484 0.6658268 2.339611 -3.2224536 1.6267349 0.64879787 1.8095558 3.3041446 0.13286394 -1.3447096 3.4792268 -0.7302249 -0.71913314 -0.6244468 -1.003479 -1.2413574 -0.65511036 -0.4560015 0.598114 -0.84233946 1.4267633 0.36997417 -0.8090901 -0.6976985 -1.2678893 0.0016091865 -0.06453198 -1.1923419 -3.1994135 -3.093318 0.28115118 -4.206881 -0.7632964 -2.6403685 1.6297289 4.441622 -2.0564034 1.6692091 1.7920941 -2.850615 -2.8214052 -2.135272 0.0845912 4.1658473 -4.7778444 -1.8338503 2.7079968 -3.2566798 -3.9104784 -1.98266 -0.8847569 -0.44052336 -1.0673356 -1.8932574 -3.0802164 -2.5936391 2.4119132 1.6246018 0.21743271 0.9250556 -2.0486968 3.0916896 -3.6978476 -0.038410157 -0.4996973 2.589769 0.66977084 0.8562971 0.27478206 -0.07180021 -3.081716 -0.96928096 -2.686704 -0.7992121 1.125939 -2.7786288 -0.8779023 0.7042306 -1.4974934 -0.8929857 -2.5064082 -0.30844864 -5.3957505 1.4785614 1.7775856 -1.0151125 -0.5635483 1.4674526 1.330089 -1.0081527 1.664641 -2.3282635 -0.01726636 -1.8083068 0.17037724 -0.9579852 1.8045921 1.6008412 -2.2594268 0.8186568 -2.1941042 -0.61451447 -0.65867954 1.2191895 0.9852017 -0.6386042 1.5787243 -1.843688 -3.1749337 -0.18703642 -1.7500921 -0.19022581 0.5664901 1.7675602 -1.2773906 -1.0204401 0.9270481 -1.8143029 -1.5843565 1.2127477 -0.0011217779 -2.7415895 -1.2569432 -0.25879598 1.44735 0.36229295 -0.8425207 -0.4765214 4.582254 1.9395161 -0.7384727 2.2959702 -0.6488053 0.747586 -2.440314 0.45048213 4.0701203 -3.2401836 0.4678576 -1.1588566 5.6812305 -0.52440536 -2.033041 0.11098602 -0.7034518 -0.113022916 -3.5070562 3.020266 -0.074866004 -2.3801477 -1.6260117 -0.8640592 0.41163266 -1.0021129 -3.6718602 -2.4367962 -0.70261073 -0.216815 -1.1821634 -0.96868515 1.5329149 -0.41390523 -0.99044174 -2.8859627 -0.6888574 -0.95797837 0.19639467 2.3749883 -0.74501675 3.0432215 2.909291 -1.4988508 -0.5437681 3.6338325 -2.27487 0.714238 2.1340554
a -1.7774464 1.2769352 1.7124839 0.57344025 -1.8529258 -1.0647321 0.6123103 0.27971983 -0.9898501 -0.21083619 -2.3173935 0.051665127 3.625307 1.6077917 1.6282288 -1.5260874 0.1778592 1.0616032 -0.9940753 -0.7800404 -2.5210154 1.6597915 -1.031236 0.70145345 3.002441 0.6870213 1.210716 -0.31263134 2.1095183 -2.1453564 -0.70287555 -1.0615673 0.05529847 3.0655832 -0.41129643 -1.6214886 0.86207986 1.4948932 -3.3714283 0.5886353 -2.3850148 1.8545417 0.37398982 -1.6514668 -1.76731 -0.342168 -1.2681298 3.2919269 -1.9229394 -1.277452 -3.2297263 0.8641263 3.5952175 -1.2335198 -0.12008674 1.8662002 1.2654101 -2.5418816 0.77494884 0.007625415 -1.400562 -1.0669507 0.5137733 -2.773448 -0.36087936 1.9539812 -2.961924 0.6406288 -1.5262566 -1.7284355 0.023743108 0.040775854 2.5872028 -0.54942244 -1.816242 1.052816 -0.5131476 -1.5897286 2.202299 -3.3520212 0.7456044 0.6336565 0.9787815 0.87203074 -0.54127187 0.6772915 2.017729 -0.2538173 0.9173979 0.010711989 -1.7986364 0.28866452 -1.0098591 2.1783333 0.33612332 0.068003826 1.3123442 0.856618 0.375634 -0.49334335 -1.7388318 -1.7013961 -0.8376429 -4.6853247 1.0937179 -1.9586011 0.03614488 2.636154 -1.1287711 -3.115359 -2.1646407 -0.9932742 1.6918638 -0.48509932 -3.023215 -1.971069 -3.3461394 -1.1203556 3.629179 -1.4059274 1.2099558 0.9606752 1.7799042 -0.45271033 -0.14057322 0.38770786 -0.25424016 -0.9074473 1.2898115 -0.12369867 -1.481555 1.4969654 -1.1052263 -1.0340238 -3.0000002 1.8669692 1.7117916 0.08747792 -0.5067059 2.6552174 -1.690701 -2.7266188 -0.13488738 -2.5620348 2.8511364 0.56511354 -0.32978714 -3.1390567 -0.33907273 -1.6614419 -1.5739803 -0.29881176 1.0370052 -2.9615593 -2.8251405 -1.7694973 2.3549666 -1.2117085 -0.1543451 2.2344627 -2.4601984 -1.3033613 1.1587331 1.241256 -2.6540432 2.2096057 2.3591127 -3.1903956 0.959799 0.28929687 2.1759217 -0.28832385 -2.970817 1.2568959 -0.51521575 2.2319968 -1.8168783 -0.27431926 0.13592717 0.26306805 0.54124004 -1.0047427 -1.8815522 -1.6897115 1.1047434 -0.27956626 -0.66448015 -0.56878567 -0.5289548 -0.09566657 -3.352824 -0.49503264 0.45385247 0.16222683 0.7656717 1.1011988 1.4087406 1.3247182 -1.2445703 1.693176 -0.16684894 -0.76893747 -0.027614336 3.8557286 1.2100544 -1.077976 -0.24199164 0.020455565 -3.259282 0.6663014 -1.5396272 0.22083406 -1.3910216 -1.2852432 -1.5723602 0.067549266 -0.5479693 0.43055454 -1.5577555 0.27245703 -0.39763868 0.30962273 -1.1695495 0.7388263 0.47494024 -1.7102373 -0.98533624 0.8303027 3.4257345 -1.3401008 -2.8758876 -1.7699801 -1.5886797 -0.021563306 0.064267695 -1.674137 0.64087355 0.9578892 -0.82789063 -1.0092933 -4.088565 1.0329074 -1.2847182 2.0739865 0.28080833 -0.91822135 -1.7360075 1.7242656 -1.5319296 -2.8196912 0.314632 3.016605 2.0250275 -1.6557226 -0.6179507 -3.472642 0.6531592 1.2709477 2.649752 2.4983916 -1.2396157 -0.8235872 -1.7354492 0.99714345 0.88151836 -2.8673284 0.75074464 -0.12000724 -3.2317147 2.8088872 -0.106600784 -1.1260592 0.7368423 2.300422 -1.0080324 1.1795768 -0.5288416 -2.0519805 1.1407669 1.4966561 -0.6992536 -0.8513795 -3.2576396 -3.5263805 -2.394562 -0.24625511 2.836796 1.5202192 -1.3365359 -1.618923 -1.319055 0.1021041 1.150877 -1.2561522 -1.5527588 -2.0515742 0.80177593 2.3476937 -0.97472256 1.2993993
年 -0.28174514 -2.7036495 0.45228475 -2.4047637 1.0519267 1.1877509 3.6231356 1.5298437 2.2336183 -0.288627 -2.191134 -1.9891266 -2.4773748 -4.639223 -3.516386 -2.231919 1.1976944 -0.45418847 -0.5455368 -0.41197953 4.1826115 -0.45402652 3.7047398 -3.9178305 1.2706833 0.10728719 2.4751778 2.1577098 -0.71150047 -1.215275 1.2181221 -0.92516327 3.5150566 1.1508341 0.008870477 0.5142691 -2.0321207 -2.680911 0.29653907 1.1368173 -0.25519198 -0.20112558 1.1658639 2.1108468 2.0145252 -2.2997036 2.385245 -3.9653862 1.1142869 -2.015439 -3.3891747 1.54665 -0.33238214 1.31063 4.41926 0.3482145 1.7373294 2.8803382 -0.0760243 -2.0573416 3.5967865 -2.6690285 -3.0089993 1.9181553 1.4337167 -4.0015335 -0.2619473 3.9298384 -3.2396832 0.18265104 4.1236887 -1.6775783 -3.1089303 0.7431603 0.750603 -0.61860573 -3.061212 0.3843378 -1.2217222 2.6091306 -1.3334711 3.0948858 -2.9047072 6.9782515 0.26235503 -0.47381905 -2.5275686 6.854827 4.714726 -0.71109813 -3.8026047 0.9827025 0.589705 -0.69480395 1.104455 -1.065812 0.23252304 -2.810739 1.369538 -1.9018395 -2.23867 -1.0330051 2.4669163 -1.1311004 -4.4435663 0.8934245 3.2991295 -4.9643354 0.076547496 1.260938 -4.1624384 1.9316803 -0.24055962 1.5281792 2.5737443 4.0657387 4.7914824 -0.4275648 -3.3862724 4.500568 3.8797836 -3.7069018 -1.5828501 0.25910166 4.3282514 2.2381325 -3.6375585 -0.2233444 -0.48664674 -2.5274806 2.3788285 -3.7734585 -0.05390823 0.08262311 1.372346 0.7784105 -4.267375 -3.6233392 -1.2247478 -4.7598987 -3.3031468 5.6616273 4.90865 5.311602 -2.825056 -0.6552894 -1.2141994 -2.0732334 1.0812622 -1.3920498 -0.8259077 -5.5532346 -3.968687 0.86530495 -0.6043485 -1.3648648 0.6335921 -0.37687796 2.3260202 -0.16009374 -0.70954084 7.4352727 -4.365116 -3.9967153 0.19977264 -3.934153 0.31841013 0.23639141 -0.29102087 5.015408 2.287337 0.7157678 -4.7201204 2.0226443 -2.7046838 -0.87729126 -0.36471888 -2.4884915 0.3599303 1.4809343 4.869022 0.6378764 3.6331358 -2.5925658 3.2686791 -0.8713179 -1.5501926 -2.4517825 4.004016 -1.6601304 3.9335313 -1.5997821 -2.7510862 -0.2435016 -4.5346527 -5.3365264 -4.2061024 2.971408 -5.3304114 -0.24173295 4.4798784 -1.2377673 1.676648 -3.5737505 -0.9297987 -2.1136887 0.73840475 1.3966488 4.704708 -6.229401 2.8732886 2.918332 -1.6626544 0.059061646 -1.3391577 -0.9575385 -5.1568055 -3.4971213 -0.23133904 1.6998256 3.3977795 1.5904996 2.4330792 -1.3306062 2.188367 -3.7315114 6.6829953 -1.0353788 -2.171846 4.1384144 0.61504674 -3.331118 1.9753785 -0.49343306 3.080679 1.7671094 2.7203825 -0.09593197 -0.15467371 2.8219335 -4.2137146 0.119680464 0.9159629 -0.40083468 -7.4430118 -0.22265844 2.460091 2.1340587 2.764353 1.9668804 1.3258711 0.46901077 -0.9762662 -1.5615816 1.927401 1.0643983 -0.5767111 -0.6497323 0.5835416 5.4613285 -3.6734998 0.07984035 -1.6687325 1.4544864 -3.23781 1.8170377 -0.012519086 2.166321 1.0566207 -1.1782268 1.9237314 2.1518693 2.2221181 0.41985062 -2.9547658 -2.620163 -1.4816037 -1.5374271 -2.1486282 -1.3662869 1.3218274 -0.53456277 3.992198 -0.52463424 -0.6562829 -2.6876526 0.60564 0.29961288 -0.9395298 -0.3503769 0.86056864 1.1177968 1.2527947 -1.2807102 -1.3050991 -0.28608277 2.2295735 -3.37434 0.7550354 2.2963405
i -0.18165289 1.4937718 2.0342083 0.6791175 -1.4696366 -1.6295103 0.37361932 0.25419453 -1.3686372 0.3874072 -1.4662838 0.8551118 3.3463287 2.71865 0.9196769 -1.6830065 0.38909364 1.4939209 -0.41534784 -0.6419544 -2.9610338 0.99176717 -2.3043602 0.6878483 3.9002461 -0.4182441 0.78624445 -0.970854 1.9897454 -1.8541195 -0.7807517 -0.3149313 0.031681262 3.278396 -0.77440614 -1.5380995 0.93365645 0.56472325 -3.8765793 0.8522129 -1.4734341 2.5090396 0.112355776 -1.8226454 -0.61542934 -1.6084266 -1.2102512 4.8822093 -0.8746196 -1.4231219 -4.1226473 1.3304818 3.3550453 -1.5575916 -1.3466896 2.2224321 1.6057907 -2.985736 -0.39733744 -0.22044255 -1.1122495 -1.0364289 -0.18979898 -2.134601 0.67106 1.3113754 -3.6571038 1.1192529 -0.46829852 -0.78780395 0.23503438 -0.1831099 2.3369153 -1.2794092 -2.5905423 0.205868 -0.1777828 -0.72209686 1.8042688 -3.7441597 -0.8239986 -0.35871446 1.3030276 0.9858567 -0.02664935 1.2686045 1.413281 -0.37234747 1.684799 -0.36077562 -2.006677 -0.25119957 -1.2080178 2.3199463 -0.0068263626 -0.08101713 1.1487861 1.2346702 1.9370923 0.51206833 -0.92958546 -2.50803 -2.0680614 -5.071149 1.0293806 -1.7042428 -0.8089236 2.455474 -0.69515526 -3.8996828 -2.48112 -0.9445294 1.7296766 -0.8023965 -2.4876711 -1.2499809 -2.2377198 -2.095968 4.4974713 -0.90087616 0.86515474 0.4520152 1.5842062 -0.60465926 0.5661486 -0.32612157 0.6858602 -1.5943965 2.099798 -1.3530682 -0.29707628 0.7150341 -1.4591413 -1.4831738 -3.6213138 1.556733 1.9896121 0.8767805 -1.3974814 1.3997395 -0.7932523 -2.4771636 -0.6794404 -3.03648 1.9573255 0.5789231 -0.16923629 -2.6363378 -0.11493347 -0.47074878 -0.6991035 0.3664623 0.23347779 -3.5823274 -2.1328027 -2.0156186 4.0138493 -1.9727871 0.98300576 0.5289245 -3.0394735 -2.706577 0.288064 0.69591933 -2.5723302 2.0885537 1.7010902 -1.713834 1.2772642 0.6485983 2.166647 -0.26778704 -2.1410656 1.2888727 -0.60051835 2.0893233 -3.1023173 0.5647535 -0.09579814 0.46952495 -0.29186076 -1.1020226 -1.3795842 0.25647575 1.6321658 1.084464 -0.14695406 -0.25222874 0.45632273 0.8314803 -3.5820463 -0.2904131 0.34277883 -0.83951735 0.21711272 1.0766709 1.6373065 1.484082 0.39345685 1.5730362 0.55367595 -1.755889 -1.2221006 2.933707 0.8763123 -0.72153515 0.37931612 0.7826077 -3.6017852 0.81037414 -1.066729 0.24499191 -1.6143386 -1.3085036 -1.2477325 0.0062922207 -0.25401524 0.49217767 -2.118772 -0.05065872 -0.2683489 0.5658021 -1.4089768 0.52198803 1.0025004 -1.4776531 -0.6932083 1.5835128 3.656411 -0.5088466 -3.2982974 -1.4483002 -1.4232705 -1.5919288 1.022072 -2.0618846 -1.0811533 0.57267815 -0.6151808 -0.71618813 -3.5569873 2.1287942 -1.6173165 3.123493 -0.7599141 0.23415469 -1.6492393 1.8052775 -1.206084 -2.1698 -0.07924535 3.0091915 2.0846684 -1.6243582 -0.6624841 -2.778687 1.016697 0.061350487 1.7408508 2.0604472 -0.8777214 -1.7474368 -1.1513953 0.89245915 0.1537716 -2.1843648 0.75353265 0.773038 -3.434079 3.925923 -0.09096228 -2.1047313 0.24707893 2.377888 -0.7160556 0.11067533 -0.32011113 -2.6528986 -0.22701629 0.54335815 0.031106032 -0.8887604 -1.7475698 -2.1433156 -2.311969 -0.119775884 2.3259878 2.4923916 -0.46224758 -0.47749335 -1.2562859 -0.9847107 0.030142376 -1.2471613 -2.4116628 -2.6604056 1.2228998 1.4488949 -0.4512267 1.4534711
n -1.666404 1.0404482 1.9119747 0.21498613 -1.9324609 -1.204478 0.23373435 1.8510904 -1.2066439 1.6676273 -0.9817093 -0.70897084 2.1018963 1.6183591 0.23126857 -1.2910091 0.6333292 -0.43427464 0.50758946 0.08287677 -1.8605139 1.5059072 -0.8512825 -0.58775353 2.3062024 1.151699 1.9300452 -0.60582113 0.9077707 -1.962682 -0.21639702 -0.12580523 1.5865884 0.84248364 0.61946476 -1.6952085 0.06621422 -0.62223816 -2.2072225 0.33583575 -1.7376074 1.4281026 0.35102415 -3.10861 -1.0825171 -2.204872 -1.534821 4.216293 -1.6831411 -2.2482579 -2.689928 0.00025922785 3.530779 0.04089864 -0.6488131 1.13264 1.907219 -1.4165336 1.1671363 -0.2431469 -0.2674369 -0.50724363 0.9160369 -1.6836995 0.1665705 1.5869933 -2.9746392 2.4600923 -0.8646084 -1.2405812 -0.53779435 -0.45763072 2.1621797 0.43393576 -1.1447875 -0.103204295 -1.7764549 -1.7318128 2.6136997 -2.0432217 0.8144795 1.2906358 0.36365795 0.8515082 -0.8513288 0.12398646 2.7050238 -0.8234658 2.5799277 -1.155843 -1.5102293 -1.023224 -0.43119046 2.4216857 -0.7723389 -0.24297628 1.4512689 1.0477808 0.9996408 -0.7604484 -0.4153171 -2.9616375 -2.3545392 -3.2925394 1.6998837 -2.8495722 0.7001017 1.8065596 -1.0791606 -3.596022 -1.1226659 -1.3088233 2.3179348 -1.0359126 -3.099841 -0.040524863 -4.464847 -0.7548729 3.8063316 -0.819384 -0.11002927 1.0890917 1.371027 0.6939365 0.38250718 0.52684176 1.1112324 -0.66784304 1.5222442 -0.5274766 2.4047773 1.4591703 -1.4831921 -0.8600516 -2.9226937 2.2901688 0.9979029 0.51594 0.11501436 1.2949483 -1.3037797 -2.9851582 -0.03959565 -3.285356 4.37901 0.9760862 0.83698803 -3.9188833 0.32081327 -1.8520623 -1.4787179 0.28027788 1.7095162 -1.2333804 -2.723173 -2.1993475 2.710921 -1.232812 0.18422717 2.763551 -1.4896393 -1.0874605 2.3472962 0.42921042 -1.2281014 2.2112243 1.570817 -2.443532 0.26592582 0.07662042 2.3795273 -0.5593612 -2.441748 3.1536193 -0.64516944 0.6063896 -0.5941482 0.14592469 0.35590342 0.5984564 -0.16359463 -1.0336803 -0.20387135 -1.3129842 1.091719 0.24384676 -0.5264619 1.184132 1.2138597 0.6521687 -3.0559895 -0.38666514 0.47195596 -0.1886897 -0.65635914 0.767989 0.062240947 1.1935042 -0.8111269 1.060549 -0.42567992 -1.8724681 -0.62972665 1.8478507 0.7714717 -0.7865226 0.66411674 2.185572 -3.3085752 -0.19403972 -1.9458644 -0.11984543 -1.5013597 -0.90642965 -0.578624 0.9255381 -1.728431 -0.21649195 -2.5341876 -1.8840455 1.3269411 -0.11367111 -2.2231264 0.94350094 -0.84910554 -1.4230824 -1.4189495 2.1703498 3.448486 -0.8070154 -4.0023093 -0.13945118 -2.7922146 -0.6767046 0.73436075 -2.1873233 -0.84944904 2.9644363 -0.7175683 1.61067 -2.3461583 0.46846297 0.2966677 1.9939727 0.4855298 1.7093604 -0.27690494 0.8879565 -2.4216988 -3.234834 0.081843376 3.6478887 0.65471256 -1.3327203 -2.17221 -2.9185982 0.26730204 1.6148133 2.8925796 2.917107 -0.045052297 -1.2497907 -0.6975986 -0.4449451 -1.2043828 -0.22005807 0.54587334 0.90759736 -4.0190954 2.6096528 -0.9348154 0.02920718 0.1408989 3.1601694 -1.5577774 0.7019143 0.7298113 -1.8054358 -0.40185124 0.11683173 -0.6557294 -0.33152565 -3.1349907 -2.0171084 -2.526118 -0.33807302 2.519834 3.2432985 -0.4236279 -0.21276206 0.5660937 0.3517804 1.3663664 -1.671181 -0.8052764 -1.180366 -0.37061316 1.4734824 -1.5719272 0.5548287
o -0.63814497 2.233675 1.984859 0.26168782 -1.3882557 -1.2584726 0.5399062 0.10023815 -1.613688 -0.7315231 -2.1572564 -0.2556949 3.4187167 1.4713092 2.212156 -1.0947059 0.3242004 0.9232801 -1.7654525 -1.356969 -2.1230319 0.5835056 -1.1047344 0.7085927 3.2608018 0.10223202 0.5754074 -0.48697224 0.9341743 -2.4087017 -1.865698 -0.2987936 -1.0560126 3.5117998 -0.25263888 -2.500636 0.72506016 1.0637425 -4.016093 0.8787596 -2.3947873 2.264552 0.53591156 -1.4978846 -1.5094135 -0.85232913 -1.3205483 4.1721706 -2.1748154 -1.2699463 -3.16616 1.0765244 4.3964868 -1.1444103 -0.72530025 1.9607701 2.1784792 -1.5843121 0.04399494 -0.6302401 -1.3256226 -1.1659161 -0.62785965 -2.2301393 -0.06562323 1.0482423 -2.628816 0.636144 -1.381221 -1.5069827 0.49379727 -0.32245743 3.482434 -0.62557393 -1.7047588 1.0770987 -0.617874 -1.5266935 2.0586998 -3.7604408 0.63223636 0.026453538 0.71889985 0.69094586 -0.89871216 0.9676887 2.3572881 -0.31498867 1.7031311 -0.50003266 -1.7564609 -0.33160624 -0.6833571 1.4783825 1.0365098 -0.6989673 1.8660399 0.7561929 1.0302328 -0.5256566 -1.0484188 -1.8626814 -1.3759339 -5.218621 0.89022475 -1.5856171 -0.0039184447 2.804677 -1.053173 -3.7811809 -2.853326 -0.9867323 1.4681065 -1.0217154 -2.9951394 -1.3731935 -2.277224 -0.97584397 3.7181852 -1.4624233 0.82254034 0.7264643 2.0841527 -0.16189116 0.2216391 0.59495115 0.3381529 -0.47237933 2.521835 -0.6207351 -0.61088693 0.6526791 -1.010582 -0.36508957 -2.1396403 0.9130265 2.1016088 0.17553602 -0.4813253 2.503322 -1.7929955 -2.7466056 0.34479982 -2.494621 2.8652573 0.90729535 0.22872368 -3.0595388 -0.81609815 -0.19708312 -1.2087342 -1.1398182 1.1742092 -2.848608 -2.375228 -2.0335925 3.1584146 -1.015146 0.64874774 1.550806 -2.2056522 -2.0805793 1.0723081 0.6094844 -2.6952486 1.451243 2.3454962 -2.4902632 0.69942707 -0.104394644 1.8664544 -0.36637825 -2.9570882 1.4888406 -0.37174544 2.1673748 -2.017872 -0.11827421 0.66598153 1.2834969 0.59530866 -0.28848588 -1.8649058 -1.1516987 -0.023896825 -0.30208865 -0.087049656 -0.34007278 -0.28734502 -0.14289765 -3.5792043 -0.38978347 -0.18726338 -0.42977163 0.60181 1.9761499 1.6015235 1.8198531 0.21269183 1.6514148 0.6077459 -0.5017903 -0.27356383 3.9820192 0.86346877 -0.6787076 0.5910013 -0.39700264 -2.9993274 -0.14748608 -1.223902 0.6392688 -0.0845155 -0.5864504 -1.0201315 -0.9274653 -0.3007137 0.15803583 -1.1651629 -0.39263597 -0.18293278 0.4697271 -1.6942464 0.90697575 1.1756454 -1.2430233 -0.6390735 0.5882962 3.5612054 -1.7448691 -2.8049207 -0.98604876 -1.0487605 -0.7316407 0.39549834 -1.5178262 -0.5233534 0.56973106 -0.51565146 -1.2562298 -3.1342154 1.0924819 -0.6619537 2.8849192 0.23577254 -1.2899758 -1.5632588 2.0661426 -0.8100067 -2.0953882 0.49377856 2.3691301 2.0660417 -0.9441212 -0.70481294 -2.751582 1.4455166 0.62862664 1.2896179 3.2729304 -1.5406156 -1.4555013 -1.6420747 0.6478815 0.62546194 -2.6298099 0.43703353 -0.31789216 -2.448789 2.8572428 -0.59655887 -2.288946 0.83342284 2.0932333 -1.5406148 0.82056755 -0.105203025 -2.461684 0.9217719 1.6220075 -0.26427457 0.033418592 -3.0572224 -3.2816448 -1.4996616 -0.46901658 1.5553825 2.5499892 -0.8701687 -0.98013186 -0.1433334 -0.89294326 0.6590847 -1.4280621 -1.5630934 -2.103386 0.33160672 1.8098942 -0.8231292 0.94048643
9 -0.22778389 0.77615017 0.7350735 -1.3540194 1.000291 -1.358386 1.5032474 0.50698006 -0.1763678 -1.764745 -0.52591527 -1.9861454 -1.6792829 -1.7907788 0.28963155 0.35787526 0.9018783 -2.2748616 0.15400551 -0.51331854 3.0027583 2.518705 3.773972 -0.3150532 2.13502 -1.4112762 5.2712617 1.6181748 1.5982237 0.19918266 -0.9448585 -0.9007523 1.6346399 3.408634 0.98007584 -0.08121668 0.8639577 -2.0644872 -0.7126936 3.65147 1.5481519 -1.4778478 2.6008909 -0.20698608 -0.91113424 -2.7361987 -0.83428174 0.20359135 0.2036355 -2.6072505 -4.942445 0.18377145 0.09156867 1.3339577 5.297217 0.4331885 2.8074324 4.168609 -0.6352581 -3.1461465 3.4666955 -0.67725194 -3.713494 -1.0087968 0.112817824 -1.7082576 -2.469522 4.098548 -5.2379065 -0.5090581 3.03249 -1.4091436 -0.5079272 0.78593576 -2.3748932 -0.96938413 -1.0397537 -1.4972165 -2.8288524 2.7579386 -0.036943227 1.6155199 -1.9121956 3.2719357 0.31838343 -1.6672485 -2.6342692 3.6300097 3.6810803 -1.5789536 -3.1042569 3.1852615 -2.4931273 -1.2284945 -0.43279186 0.2880138 1.0948173 -0.7836036 -0.13087295 -0.12767383 -1.4243487 0.67993355 0.5482225 -0.92921597 -3.4374208 -1.8023396 2.6817336 -0.7794877 -1.3498818 1.4407207 -2.728077 -1.6014183 -1.1281322 -2.2100358 3.3244562 0.27822033 2.605934 -4.074759 -0.5296675 3.2032773 -0.58050126 0.11905512 -1.5327808 3.3861237 1.6327655 2.5701418 -3.482635 0.14001884 -0.016416557 0.5898085 3.2733326 -0.76486397 -1.0437083 1.8550918 0.2766064 0.7132757 -1.7038416 0.097108334 -1.5756576 -2.366131 -1.1883222 0.2155867 1.6235765 1.5415286 -0.87078047 -1.1613109 -0.25825864 -0.053535488 0.27584326 -2.2571847 -1.7900003 -4.5023065 -3.7078779 0.6839891 -4.2157855 -1.95471 -2.3234081 1.1687683 4.7775145 -2.050808 2.5253086 3.2841265 -4.774623 -1.3117219 -1.8185741 0.65552616 3.9187427 -4.5157366 -0.9542287 3.675196 -2.5726502 -3.187481 -1.8531259 -3.4126894 -1.4573327 -0.7409771 -1.9514331 -2.682568 -3.4556446 1.1900166 0.83584714 -0.32731545 1.769258 -2.8188257 2.0364108 -2.7915778 -0.1184348 -0.60721624 2.9398472 0.65505624 0.6408742 -1.7337356 -2.0354598 -2.7928555 -1.306468 -1.9179417 -1.0603307 0.9637445 -1.6528704 -1.3634702 0.66827136 -1.270274 1.4122736 -1.3218586 -0.032264028 -4.894453 1.0092058 2.3637717 0.95150137 -0.014492184 1.0582362 1.941315 -0.07693014 1.3585682 -2.778244 -0.7310765 -2.6383226 -2.6376584 -1.1010941 0.21449614 1.5757267 -1.8491702 0.34684968 -3.3451974 -0.6110301 -1.905058 2.111385 -1.5444492 -2.2822657 1.8591499 0.15139082 -4.1824865 0.13669746 -1.7672606 1.4083481 1.1482819 3.646775 -0.11536024 -0.7565228 1.1167552 -3.1959858 0.034605667 0.4908705 0.8960035 -4.006839 -0.030033538 -1.4918975 1.9083706 0.9199723 0.37668675 0.31039196 2.9795742 0.9721784 -1.1254935 1.8504509 -0.4531757 1.3736959 -0.5423928 -0.9010546 4.279099 -2.536781 0.7941567 -2.4191463 4.337032 -0.96126735 -0.9116028 0.12492797 0.7815968 -0.87763244 -2.611747 2.645114 1.585305 -1.7883066 -1.2262374 0.39452684 0.6904654 0.97621715 -1.8754294 -1.2722212 -0.43607688 1.3120165 -0.018977718 0.44136667 1.1510324 -1.3299905 -4.7781167 -2.724894 0.8625732 0.27241766 -2.1416314 2.9210978 1.1093022 3.6714551 3.1329746 -2.4555001 0.17635228 2.5747137 -3.0833294 -0.17315613 2.2568512
r 0.27837628 0.95589685 2.863061 0.0757014 -2.0302193 -0.74349236 0.20583457 0.32936162 -1.1836193 0.75890493 -1.1506212 -0.81383383 3.4610329 0.7905586 0.24180333 -1.3993136 0.38007835 -0.9859651 -0.14693318 -0.51268387 -2.6431067 1.801584 -2.211346 0.7507081 3.4760442 0.89487803 0.33557525 0.13626792 1.7612301 -1.8776911 -0.7872015 -1.2126424 1.4732064 2.2781336 0.6207208 -1.8856605 0.36313248 0.9229155 -4.9764857 0.7041855 -1.140106 1.1878293 0.26634237 -0.22762528 -0.025657287 -2.906261 -0.97573745 4.5879703 -0.84932566 -1.8977107 -3.6957717 0.13701509 2.0167994 0.8265116 -1.2000133 1.7486413 1.6596917 -1.3228331 0.50773954 0.020914247 0.011465019 0.8427956 -0.2209592 -1.5031805 -0.37211785 1.0066447 -3.4378314 1.5384542 -0.10846746 -1.6958625 -0.5087693 -1.0589336 1.9340638 -0.47261602 -2.8798764 0.22029495 -0.52320546 -1.8712575 2.8453422 -3.2261739 0.74346995 1.1459496 -0.85665256 0.03197891 -0.2297654 0.9932432 2.098442 -0.04340601 1.821726 -0.66156197 -2.1318593 -0.99235445 -0.039231554 1.5197921 0.71625537 0.107507154 1.1994052 0.72844553 0.9278678 -0.44951686 -1.2708881 -2.5255363 -3.0776722 -4.6543093 1.8328228 -0.43428147 -0.056092527 2.1528554 -1.1390605 -3.1569903 -1.202064 -0.9646165 2.6144612 -0.75711334 -4.004622 -0.6882689 -2.6916442 -1.805128 2.936701 -0.2588479 0.5348038 2.2642527 1.2656878 -0.06560886 1.3482025 0.26854455 0.22248745 -0.21348874 1.3000185 -0.6917457 3.373415 1.066334 -0.35269603 -1.2125491 -2.352991 2.0620148 1.2137476 1.214088 -1.2432052 1.7753222 -1.0774597 -2.6122856 -1.324938 -2.589857 3.5308895 1.3026313 0.3828228 -3.945738 -0.80008274 -1.9431576 -1.580614 -0.8147836 0.7631062 -2.5669322 -3.722336 -1.8491386 2.3184667 -1.5137355 0.00894084 1.181439 -2.077949 -2.5523412 1.5100083 0.25372776 -1.6081532 1.2184036 2.5400395 -2.6644895 0.9075612 -0.48750982 2.769544 -0.6455299 -3.1124208 2.476235 -0.597846 1.2862048 -1.4018466 -0.7753764 -0.48182705 2.719725 -0.41561657 -2.039998 -1.4415244 -0.98453826 1.2611041 0.63683957 0.19937272 0.59340537 1.5923522 0.96513647 -2.930957 -0.36665577 0.15483896 -0.15576912 -0.8432635 1.1884995 1.5149506 2.1080503 0.21314986 1.4194306 -0.5369108 -1.7367783 -1.809548 2.0380259 1.7644948 -1.0895652 1.1309253 0.8411492 -2.6133149 -0.33820537 -1.0225455 -0.98749334 -1.6627403 -2.2350364 -0.6275895 0.017015668 -0.24989653 0.33406308 -2.083286 -0.45323327 -0.11207949 -0.9609843 -2.411771 0.38909864 -0.9652132 -1.5560684 -1.7616104 1.145997 2.3455298 0.59753454 -3.5389364 -1.0767701 -1.8285846 -0.31650868 1.0374992 -2.5754805 -1.864425 2.7957618 -0.38266563 0.816975 -1.9956436 0.735617 -0.24973723 2.299266 -1.4122177 0.554097 -0.7669104 2.1913564 -1.133593 -2.274827 -0.05764385 3.2616103 1.0017232 -1.3284118 -0.4829014 -2.7840593 0.24376968 0.73900306 2.245368 1.8933626 -0.49886987 -2.4671664 -0.010055548 -0.08956391 -0.67352873 -1.4420156 1.4716434 0.44385397 -3.2823966 2.7113075 -1.0839766 -0.69648814 0.037332024 3.3107839 -2.8384645 -0.41098547 1.0614054 -2.329999 -0.9788405 0.68853915 -1.0087681 -0.042391766 -4.215907 -1.6878211 -0.5104563 -0.89236325 3.118908 2.9415686 -0.80773187 -1.3825431 0.8156339 0.5750407 0.55288094 -1.6219425 -2.1845777 -1.0643482 0.94624674 2.1639566 -1.2783478 0.9091542
t -0.74367803 1.9125907 1.9266975 1.213945 -2.2088068 -0.25582507 0.31767476 0.87439543 -1.0959955 1.2702869 -2.2665625 -0.9252373 1.5421062 1.4735461 0.81919473 -0.7137034 -0.4191289 1.1148239 -0.17607781 -0.12617072 -3.4315012 0.7747939 -1.5060441 1.1096454 2.9135625 0.3522391 1.3306799 -0.2083048 2.1122203 -1.2208143 -1.4894831 -0.6980235 0.26472074 1.4305059 0.7739135 -2.9145274 -0.33968627 1.4045413 -3.7638853 -1.0111005 -2.542552 2.3907378 1.2023528 -3.4375284 -0.110697515 -1.7495646 -0.7373857 3.4489696 -0.49137682 -3.03541 -3.2305999 0.54762757 3.9838772 0.6994087 -1.2395297 1.7488952 2.175793 -0.5867433 0.12594435 -0.3227111 -0.3479695 -0.07410879 0.5889027 -1.6880642 1.2485873 2.4061568 -2.2883518 1.0493693 -1.635363 0.4107509 -0.09690692 0.1404271 1.7978469 -1.2943105 -2.1302907 0.78757834 -2.793977 -1.381633 1.3049963 -2.209468 0.75685114 0.6288142 0.279965 0.6961376 -1.3238652 0.60621 0.60978156 -0.03788826 2.6056843 -1.8256897 -2.3526587 -1.7557739 0.23459895 2.9001176 -0.73164904 -1.4222139 1.4324667 1.0117977 0.052038215 -0.926746 -1.5416645 -2.3828683 -2.8633416 -2.7481694 0.7652841 -1.3566303 0.6270433 2.0255983 -0.68774796 -4.5998816 -2.1001825 -1.0525247 2.4488988 -1.403333 -3.25913 -0.7211703 -1.9317081 -0.9358351 1.9097072 -1.0332733 1.4440303 1.737562 1.8469175 1.2212862 1.7408228 0.4769945 0.27846456 -1.661665 0.9753807 -0.5418855 1.8253903 0.3907739 -0.771107 -1.202244 -3.351617 0.9666866 1.3281428 2.2581184 -0.022504052 2.1927197 -0.46689397 -2.170513 -0.021753116 -3.3885195 2.5471969 1.121749 0.16782427 -2.2908688 -0.5936259 -2.0567625 -2.762162 -0.17163731 0.32663953 -1.3785986 -1.50259 -2.731744 2.7307258 -1.3983845 0.8670729 2.0499341 -0.73664016 -1.6300695 0.6823307 0.4233112 -1.5936755 2.4335203 1.3249284 -2.6709425 0.5699598 0.058808662 2.0438693 0.2519802 -3.5621376 2.4929388 -1.3849555 0.9604673 -2.5675077 -0.11277711 -0.8624071 1.0639633 -1.0717269 -2.2039328 -0.86472857 -1.7233411 1.1757283 -0.2958454 -0.16057 1.0585856 0.8409245 1.8455889 -3.8204837 -0.5464046 0.46963787 0.14095722 -0.5317291 0.9770773 -0.35159478 2.1233375 -0.6804164 1.8538127 -0.6756691 -1.1032485 -0.46311584 1.7049005 1.9024347 -1.0254945 -0.56591135 1.8713846 -3.4171312 -0.27204376 -1.1677033 0.96474284 -0.11248575 -2.8500638 -2.2541084 1.514726 -1.7150383 0.5981124 -0.9032942 -0.92861944 -0.41220596 0.3787745 -1.1429262 -0.14905095 -0.084957115 0.032959826 -0.7081563 -0.2750617 2.098954 -0.9658139 -4.3509216 -0.9859154 -2.682872 -0.7749045 -0.27997386 -2.9417083 -1.6813598 2.6281264 -0.5481207 -0.5281969 -3.2251868 1.1971102 -0.21304764 2.823649 -0.8186959 1.7406929 -0.66823363 0.9405066 -1.7173554 -2.9893138 -1.4861304 2.1577485 1.2219217 -0.24372804 -0.8769993 -1.5237747 1.2073973 1.0319574 1.258101 3.1808672 0.4176667 -1.5561742 -0.5569509 1.4171354 -0.7776696 -1.4993831 1.1534634 1.1523179 -1.8543046 2.0482917 0.719899 0.3012863 -0.9089751 2.2441447 -2.6588483 0.71949553 0.35971057 -1.8381182 0.3430257 -0.94913614 -0.5017927 0.44696307 -3.727627 -1.5137355 -3.5501385 -0.7648894 3.224792 2.3743017 -0.22533397 -0.3903455 0.15742838 -0.6664065 -1.3253462 -1.2544904 -1.2820379 -1.0385009 0.41018853 1.4025762 -1.1001234 -0.049120232
s -0.13095334 1.2424902 2.111944 0.32243538 -1.6731793 -0.32309487 0.89128155 1.5521965 -0.49694836 0.41391507 -1.7352824 -0.99271107 1.0897201 0.9565366 1.6925493 -0.8185169 0.22582929 -0.70025945 -0.8613072 -1.0685285 -2.7251148 0.8357501 -1.8338743 1.157914 2.410629 0.26066348 1.3645006 0.25898203 1.8597378 -1.9778985 -1.2755089 -0.88397515 -0.2942907 2.2605002 0.38715863 -1.8557005 -0.18953688 0.5703367 -3.3172777 0.38475016 -2.6823623 2.0495424 0.28766495 -1.3772883 -1.2328663 -1.8620261 -1.6091622 3.9360662 -1.2263302 -2.922631 -3.4247894 -0.2752989 3.1947203 0.8085919 -1.3321593 0.46175238 1.4814569 -0.5225315 0.43260816 0.48596433 -0.5172463 -0.6233679 1.1682451 -1.854207 0.68520665 2.3672247 -2.9035432 1.9281031 -0.86142844 -0.96099037 0.4339262 -0.62965435 1.8622065 -1.1358836 -1.7763278 0.875851 -2.0940294 -2.7456694 2.1042783 -2.4792824 0.97816825 0.9870785 0.4119064 0.8981129 -0.6447422 0.8442546 1.8170131 0.75227094 2.039483 -1.2472306 -1.7429564 -1.4930261 -0.93382275 1.695035 -0.99317753 0.17842919 2.007141 0.8721256 0.80429333 -1.51397 -1.5169842 -2.5664039 -2.9637113 -3.3050628 1.554287 -1.6779447 0.19141401 0.6822855 -0.18814349 -3.2769394 -2.169149 -1.660585 2.3487606 -0.0926261 -3.4562945 -0.66910547 -2.5163996 -1.7482665 2.9512508 -1.2232078 -0.16850811 2.0643544 1.6970111 -0.22472198 1.3573078 0.9658435 1.1732112 -0.7694546 0.7855034 -0.5743167 1.4727722 0.22570547 -1.1864885 -0.85918385 -2.5598862 1.4590412 1.2487799 1.6843898 -0.76439315 2.707351 -0.7112859 -2.845862 -0.040892113 -2.5471032 3.8074286 0.46588337 0.79011416 -3.5797074 0.30443776 -1.2443036 -1.7592766 -0.879308 0.7790336 -2.3466034 -2.3365746 -1.5894227 1.6962078 -0.89287275 -0.3412113 2.3126168 -1.1807396 -1.5094749 0.7537633 0.9880593 -2.10413 1.3696729 1.0346863 -3.2525046 0.23186916 0.5898672 2.9137359 -0.38625437 -3.2714822 2.807064 -0.43290508 1.4589407 -1.0461144 -0.14565 0.21163818 1.2021568 0.2342852 -2.0862372 -0.39001375 -1.564569 1.780054 0.22996382 -0.3472394 0.61959124 1.0026737 0.78049713 -2.958796 -1.5173206 0.120718576 0.12434447 -0.06128806 0.7737907 1.6724523 1.9538006 -0.39581218 1.1023581 -0.44054458 -0.98864233 -1.6536847 2.223031 0.58321154 -0.18756783 -0.35553443 0.6672564 -3.1613474 0.18555912 -1.2355663 0.37120366 -1.3031946 -1.3695617 -1.6079075 0.16951151 -1.3244823 0.39810175 -0.94180095 0.11714497 0.27834472 0.29192522 -2.8424735 0.2356647 -0.24671206 -1.9591992 -0.57877886 0.63201743 1.3857772 -0.07214373 -3.8837564 -1.2124543 -2.138916 -0.72324526 0.89718014 -1.8045119 -0.8876043 2.2525682 -0.23226595 0.83274627 -2.703995 1.3570122 -0.13166346 3.0573742 -0.7018578 1.5967276 -0.4120194 1.4198273 -1.5450784 -2.6418524 -0.084774844 3.5174446 2.2189574 -1.2962639 -1.6507233 -2.062739 0.7299932 0.80067384 2.3703005 2.788213 -0.5587267 -1.3118188 -0.09828036 1.1431147 -0.41805905 -0.72525096 1.0395162 0.8759861 -2.328011 2.414993 -0.73481375 -0.96861464 -0.09406766 2.765325 -0.7858637 0.27214605 0.62880266 -2.0158508 -0.06868099 0.8967798 -0.44048053 -0.6533431 -3.0079262 -2.106689 -2.8726764 -1.145198 2.856675 1.5495995 -0.8771595 -0.16748367 0.71219635 -0.44184223 0.56996804 -1.692222 -0.9017892 -1.7558055 0.7911324 1.5226909 -0.88440144 0.24252047
一 2.1518147 0.14257301 -1.1009905 -1.3974153 3.3673058 -1.4670901 0.69013613 0.9344092 -3.326022 -2.0773444 -2.354508 -2.4443018 -4.5257215 -1.283188 -4.012425 -0.18031977 -0.68595773 2.0601728 -4.191246 -2.1365197 -2.274832 1.2353175 0.52682835 -0.76973504 0.8880947 -1.5856608 -2.9114604 3.8484514 -1.0980101 -2.3147285 -4.5066195 1.255328 -3.4460964 -2.5250432 -2.0590165 -0.5179035 1.2732247 0.1426578 1.4558513 -1.6146164 -3.0740218 -0.94910216 -4.546194 -0.06602514 -1.7393341 -0.24962156 2.3663528 -0.05389826 0.8826095 -3.3369565 3.874516 0.9074752 -4.2288184 -1.7676712 -1.2243416 -3.6965826 -0.9697632 -3.1520665 0.7982666 2.4381726 -2.8276608 0.14250115 -0.09560998 1.2244207 1.8669025 1.289155 4.5602093 0.18531518 1.0558178 0.21576454 0.384829 -1.0026911 0.24914153 -2.3465762 1.3731669 -0.8273803 0.5385542 -0.35290644 2.6392272 -1.4085867 -1.0326517 -6.3962026 -0.8114115 -1.0661873 1.522946 0.11069949 -1.626683 0.09038042 -1.316314 1.3682336 0.6820167 -0.7482721 -1.0733722 3.2828338 0.19617109 2.3264928 2.1130095 -0.5864082 -1.0099334 3.919822 -0.3593197 3.3282828 -2.636869 0.9279362 0.93440884 1.4807677 -2.0480473 0.24406233 -1.0667579 2.1810865 -1.6907955 2.9393568 1.354535 4.170126 -3.3363566 0.6595727 1.8166144 1.8420652 0.20178013 -4.3050094 -5.3518615 -0.6228922 0.2678254 -1.7013596 1.9165384 -2.257526 -2.6628058 0.049920335 7.0217752 -1.6155748 0.47978762 -3.7686698 0.7558692 -0.24167469 -7.1975985 1.6315893 4.4246387 1.9127929 0.19848001 1.6630448 2.175032 -0.37480125 -2.773487 -0.7554778 -0.031186374 -4.8264356 0.68201715 -1.2679358 0.9094761 -2.25981 -1.2489837 0.89044195 5.0535374 1.9831371 -2.4549956 5.3240113 -3.4842925 -2.8389332 6.5210133 -0.103650495 2.107641 -3.3202093 -0.87827694 1.5664774 2.3900332 1.3714528 -0.8780193 2.430859 0.026018938 -0.06679648 0.6663562 1.2101837 0.6617556 1.2481298 2.5490537 0.19084908 0.21441604 -0.7036375 2.044782 1.9300687 -3.928743 2.7943015 -0.85432965 2.2153292 1.2294217 -0.40166262 2.5445168 0.17453466 -1.2982154 0.41927 -3.9237626 -1.4324067 -3.049643 2.8206966 1.5924852 3.175927 -1.5229439 -0.93609035 2.3075414 0.20802477 -1.0560555 -1.1090962 -1.758359 1.1584994 0.29825297 0.92242086 1.4688087 -0.88512635 -1.0109136 3.265783 0.1488946 -3.0203428 0.7187583 0.92110324 0.79217535 0.33622095 4.2372284 -2.9230947 -0.7867207 0.916238 -1.4905044 1.536941 3.0101047 4.5589895 -1.0530851 -3.3470156 -3.7942295 -2.270644 -0.19853531 -0.6545456 -1.3620855 0.14265896 -0.8770008 3.8018994 -4.6958942 -2.6227844 1.0279671 1.957701 -3.2879877 1.8057253 6.4432783 0.5017014 -3.8578355 -4.0908427 -0.62271917 1.9881363 -1.4082147 -0.504379 0.6756575 1.2052698 4.066968 -2.5870433 1.7768508 4.429216 -1.1010402 -2.1831863 -0.26185244 3.8240669 3.1668293 -2.484378 2.6045725 0.37937194 4.6254 -0.6522186 -0.8997221 -1.5012829 -0.66729 -3.7655337 -3.1444721 -0.78106403 2.8987916 0.7958653 -0.9466493 -1.7565453 3.484963 0.6995179 2.6155634 -0.016807085 2.0265756 2.584344 -1.1212885 -2.7725446 -1.6094358 0.29627073 2.2767272 -1.3946159 -3.0391989 -2.4721744 -2.13682 2.032423 -1.8461323 -0.9917506 -1.7699938 2.3669527 2.3855214 2.5756402 1.2526854 0.7702266 -5.1934347 0.11050709
l -0.11129835 1.2091258 1.4872105 0.37812394 -2.2082965 -0.6507048 0.29717898 1.3496047 -1.4809251 1.1642525 -0.060681112 -0.83847636 2.77499 1.4581062 0.8941775 -1.5608516 -0.32204536 -0.33929268 0.027021835 -0.24999356 -2.136091 0.8471761 -2.0787046 0.48987243 3.0635645 0.7383304 -0.24872673 0.094249435 0.86219734 -1.494833 -1.2556025 -1.4918164 0.6724698 2.284906 0.1603059 -2.617259 -0.3231077 1.4423584 -5.031251 -0.22049364 -2.224859 2.279653 0.45490584 -1.46051 -0.88035685 -2.4605737 -1.4210095 4.108398 -1.2097741 -2.3891253 -3.5625975 -0.5209442 3.0997498 0.4126239 -1.183741 1.8616637 1.9734346 -1.4253782 0.632024 0.22338527 0.06773609 0.0912921 0.30573568 -1.6834506 -0.40463856 1.8774786 -3.1251678 1.9884843 -1.3125675 -0.5780967 0.20424736 -0.944503 2.0477962 -0.77345395 -1.5558864 -0.17612262 -1.5821799 -2.4799454 2.4065933 -3.0033233 1.1484146 0.85240275 -0.9598804 0.9425517 0.033232488 0.38917693 1.9977129 -0.11101938 1.7493623 -0.43769976 -1.6996254 -2.0281944 -0.028641878 2.1069338 0.43934715 -0.5924448 0.5598845 0.46481854 1.380928 -1.5066738 -0.6958439 -3.1454754 -2.9934425 -3.8076706 1.5157727 -1.4794294 -0.3647752 2.0994413 -1.3193738 -4.1172066 -1.8500142 -0.9368894 2.9883595 -1.4595903 -2.936116 -0.623687 -2.2479854 -1.2873065 2.8476658 -1.1834521 0.4400484 1.7812008 2.1397336 0.57426053 0.81121486 0.8258892 0.37129065 -0.19604105 0.4275889 -0.34754622 3.6569867 -0.055994302 -1.2896472 -1.3884084 -2.6784136 1.8506385 0.83113706 1.1647476 -1.4757655 2.3423312 -2.6958704 -3.597983 -0.6926381 -2.3792913 3.154399 1.2866688 1.1042737 -3.7691386 -0.5705477 -1.7871704 -1.5332961 -0.71149546 0.80075914 -2.1518874 -2.5815885 -1.8370179 2.3874698 -2.0465126 -0.41556194 2.2381847 -2.1756058 -2.272343 1.0906146 0.4478822 -1.4700621 0.9195681 2.1335166 -2.7084618 -0.2133938 -0.24716824 2.22604 0.5674068 -3.361788 2.1923006 -0.28793994 1.1385189 -2.7207906 -0.081005454 -0.9096163 1.6082025 0.10109244 -1.3851883 -1.3785077 -1.1645137 0.98412865 0.4259179 0.36905718 0.32038492 2.0387366 0.86901206 -2.7649183 -0.6726381 0.42785046 0.2628252 0.38686058 1.20691 0.84638125 2.4673655 -0.59116024 1.1422279 -0.90211004 -1.4926149 -2.231465 2.88389 1.5404991 -0.2863884 1.0788472 0.92485476 -2.4457073 -1.5640662 -0.89501923 -0.3040882 -0.70245534 -1.8631426 -0.6562049 1.2837832 -1.5169098 0.5107042 -1.4252293 -0.5097536 0.37022704 -0.33341628 -1.6655279 0.22760107 -1.1792138 -1.5976801 -1.9213973 0.14665352 2.753068 -0.12863317 -3.5807037 -0.54476 -2.034262 -0.2189945 1.2113569 -3.3789198 -1.9523922 2.1471176 0.39345816 -0.20118289 -2.0457742 0.099592134 -0.45061588 1.9749475 -0.92610586 0.69951165 -1.5239322 1.9913025 -1.0028872 -1.8079369 -0.719766 3.1199505 1.3103533 -0.63991886 -1.5872196 -2.963976 0.28217563 1.1005213 2.8336992 1.5777947 0.1269946 -1.909919 -0.4934128 0.18880704 -0.6133397 -1.0002106 1.266951 0.7156009 -3.66716 2.1051767 -1.2035401 -1.5673512 0.40794381 1.9060857 -2.0510204 0.85796976 0.6672142 -2.0699673 -0.08694166 0.090898894 -0.897211 -0.50672936 -3.6398485 -2.675682 -2.0733914 -0.4380736 2.3284926 3.188783 -0.68897027 -0.081452176 0.861177 0.28690663 0.6703659 -1.3239682 -1.6374383 -0.78165036 0.7761078 1.5843334 -1.2455835 0.32667777
3 -0.024544392 -0.009759124 1.506304 -3.1983418 1.7958636 -1.4238625 2.0906475 -1.2428869 -1.5123409 -2.6836362 0.50143373 -2.9152243 -2.1796267 -0.6755219 0.3345154 -0.7576919 -0.25520507 -2.1170094 -1.7400439 -1.7340184 2.9612768 2.929151 2.2948842 -2.3203375 1.3234309 -0.19297309 4.9282484 2.3646884 0.21287106 0.6865844 -2.6577172 -1.5455348 3.2382817 1.7591938 -0.60386413 -0.11397882 0.76411986 -0.4362444 -2.618956 3.1240244 0.934653 -0.2462043 1.644809 0.2082623 -0.7237217 -0.9783236 -0.68858373 0.5555665 -0.32768354 -2.7646158 -3.2093892 0.15875256 -0.57667345 0.41237727 4.0340223 -0.3781627 2.371837 3.6161478 1.199669 -2.2901652 1.1416357 -0.5996523 -3.3242147 -2.2050865 1.2737435 -2.1217585 -1.7373703 3.3110902 -3.9107373 0.73260117 3.291145 -0.093544 0.055066496 -0.7396873 -2.9074936 1.0621645 1.3073015 -0.19671547 -1.8611504 0.90569454 -0.50373054 0.07215751 -0.8621818 2.2557573 -1.0836447 -0.3497521 -1.9569662 2.5546253 1.403881 -1.1327034 -2.9959776 1.4279169 -2.6002455 1.4551785 -1.0773207 -0.6196159 1.323786 1.5292053 0.17173027 0.40823692 -2.8686903 0.30995777 1.0423012 0.3621416 -3.8568516 -1.4487411 2.6663823 -0.9056984 -1.0785545 3.1057913 -1.7162775 -1.4783651 -0.48244223 0.5334203 1.5923846 -1.0115889 1.1874411 -3.9342608 -0.7338561 3.425438 -0.5943458 1.2935529 -1.0308614 0.37415588 1.2622598 2.2489874 -4.085802 2.4171233 0.82951385 2.530856 2.9959884 -0.116500184 -0.7367867 2.3180952 -0.30572507 -0.018471418 -0.6889641 0.44293663 -1.1432887 -1.7034056 -0.38511473 1.0175655 -0.44789863 0.86356986 -0.3139681 -1.4746649 -0.6437672 -0.7696499 0.604854 -0.12769966 -1.3022493 -3.5646455 -1.9241647 -0.3636029 -3.8614511 0.041089073 -3.0303407 0.83988494 3.9161777 -1.7563682 1.2642648 1.9570832 -3.343985 -1.9380345 -0.6590655 0.6088032 3.3223329 -3.782901 -1.7424322 1.9292957 -2.629051 -2.9687386 -2.0533109 -0.57238954 -0.07532164 -0.64992017 -2.403073 -2.007076 -2.3868384 1.6266038 1.2178913 0.06619126 2.2300763 -2.0745656 3.2404132 -3.2789714 0.6798651 -0.11849134 1.6988453 -1.2639395 -0.18909226 -0.43709826 -0.90794724 -2.167647 -1.0499787 -1.588371 -1.2167431 0.16593888 -1.2709852 0.49653357 -0.3952745 -1.2345204 -0.12261274 -2.4139178 0.54798865 -4.6816735 1.8278652 1.858582 -0.551401 0.6755302 2.0816715 0.6246118 -1.797534 1.1165493 -2.2664602 0.6557257 -1.5965676 -1.3933072 -1.626386 2.4033654 0.22892931 -1.2118032 1.2451947 -1.2601113 -0.8160571 -0.959768 2.0290468 0.40136153 -1.165331 1.948551 -0.52371657 -3.3195224 1.2396249 -1.0599598 -0.96994656 0.46168232 2.0666635 -0.28059623 -1.7386289 0.24427903 -2.0173366 -0.40458557 0.88763016 -0.044175375 -2.9006238 -0.87392384 -1.187637 1.5190531 -0.2459339 -0.8892692 0.024124546 4.3183436 1.6270281 -0.4789437 1.8389752 -0.22358118 -0.27971074 -1.4403784 -0.51125187 2.6579232 -3.6123247 0.82100224 -0.53688484 5.6428185 -0.7068352 -1.7998788 -0.07364287 -1.104185 -0.85153687 -3.043101 2.4306505 0.64085394 -1.9372513 -3.1736622 -0.080737025 -0.99123985 -0.62088805 -2.3672183 -1.0730579 -1.2675107 -0.29141304 -1.5308744 -0.12168758 1.8465188 -0.4675094 -1.5007577 -3.040525 -0.01305011 -1.1408015 0.4079848 1.3031881 -2.3716888 1.2786266 2.304858 -2.500527 -0.322693 3.639565 -1.5440662 0.5191068 1.2002991
中 0.92232126 1.0788614 -0.8061555 1.6074336 0.23928533 -1.8322163 -0.58189857 2.184958 -0.90399843 -2.2554154 -1.2013035 -0.6777443 -1.9174831 -0.42808557 -2.2171402 3.2222807 -0.62396866 -0.42169183 -0.77503836 0.8837526 1.2376239 -1.842767 -0.1914607 0.49990436 0.9519759 -1.1042286 -3.246511 -0.04079688 0.9848044 1.0656741 -0.3089164 0.13730927 1.8739235 -0.22232038 -3.6870763 6.7845826 0.40401915 -1.294961 1.5449287 -2.312553 -1.9562806 -1.8801785 1.3511217 -0.43056342 -0.08526972 1.018777 -0.066235684 -0.65332645 1.6048996 -0.095907554 1.5101776 -1.9529402 0.8688757 -3.0638082 1.5174097 0.17255737 -0.16799796 1.1873145 0.1230637 -0.885436 3.5700126 -1.2873683 1.11016 2.2994294 -1.5956094 -1.124761 1.467779 -1.1211298 1.4972999 1.1532526 4.690833 1.3863602 1.177727 -2.9658127 -3.2879705 -3.6512582 4.550602 1.1583965 0.6447 1.2034335 -0.72766894 0.15241322 -1.2164931 2.248072 -0.29039922 1.744094 -2.0399346 1.1449877 2.827742 0.9437816 1.8600426 0.085553624 1.8406762 1.1914035 2.1067917 -1.5464681 0.2156326 -0.49784938 -1.8911172 -1.2699325 2.1667905 -2.0317702 2.8087564 -0.9124676 -2.4994216 -2.167175 -0.3600613 1.899194 -4.6180153 -0.24518925 -0.63923323 3.2268116 0.41549012 -0.9148266 1.4029227 0.37650025 -1.8513174 -1.0239732 -2.828679 -2.6070552 2.3007805 0.9569071 0.57191485 0.39443985 -3.537339 -0.1833208 0.7303562 0.10128324 -3.5813982 -0.48982623 -3.9059532 -2.2427516 -1.0138451 -0.8756298 -2.0548775 -0.5513754 -1.4918094 -1.6355022 1.3571353 2.4199057 -0.9697423 1.3444117 -0.638264 -0.6408419 0.6038089 0.27852744 1.9096233 1.302624 0.8249729 -2.4912786 0.97509706 -0.2265326 -0.24618235 -0.40496892 3.350903 3.7087543 2.910458 -1.3998064 -2.9298167 -1.0270032 2.0098095 -1.1342587 0.43763608 2.265927 3.3823893 0.22431594 0.07033592 1.8198162 -0.0901307 2.375781 -1.5484641 -0.30280402 0.5431714 -1.3448405 1.4336374 -0.92934173 0.9500932 3.305307 1.7944965 1.4429061 -2.1002204 -0.6028124 0.6927173 0.47595993 -1.7229776 -3.9927175 -1.0600638 1.0735614 0.23469639 0.87913704 2.1562312 -0.77655256 -1.3005404 2.1213171 -0.49824145 2.6889431 4.0872464 2.355107 -2.0385675 0.025119266 0.42479518 -1.0635085 -1.3148139 -3.2512772 1.5171359 0.31247097 0.41967073 -1.351631 0.6752898 0.049459748 -1.2448695 -0.007778439 -0.08082381 -0.38082692 -0.6659527 0.6755379 -0.12817854 -1.2001908 3.542456 5.168162 -0.22677892 -3.0431201 -1.283467 1.059865 0.9924581 -0.079592675 -4.1204333 2.4947464 -4.0860934 1.4856414 4.585946 -0.1489542 1.5313073 3.0043957 -3.5060308 2.0209303 -1.9818033 1.8058281 -5.719132 -0.8344155 0.9827463 0.83924997 2.3894687 -1.1100341 -1.8590131 2.0688562 -4.832652 -1.7370499 -1.0124638 1.2885771 -3.1947649 -1.0853994 1.7480545 -0.061010182 -0.26539102 -1.8508223 0.18558766 -0.4578242 -1.9081128 -0.5961983 3.4705625 3.001707 2.130995 0.068513796 1.5899589 0.28063142 -2.766795 0.26150712 -0.2882396 0.7031484 1.3474807 2.5391116 0.46390453 2.5663753 -1.6608357 -2.0605793 -3.681174 -0.7421445 -0.91787875 0.52060866 -0.39688015 0.911779 -1.3436553 0.5437716 -1.4417775 0.09391235 -0.74825895 2.8213215 1.40131 -1.0149726 4.8153706 -1.6000835 -1.3046491 2.3216922 2.3124356 -0.12827575 -0.33357722 0.6284578 -0.14892425 2.8005447
在 -1.4637532 1.6770384 -0.90926915 -2.5251403 1.4124361 0.3225114 -0.33152428 1.0708789 2.019572 0.32796395 1.4793583 0.51226586 -4.5485873 -3.1047647 -0.25906888 1.3867514 0.42871514 -1.5052091 -0.4579394 -2.2354362 0.39201707 1.2011122 0.5676724 0.53393495 -0.36534527 0.44273323 1.7978512 1.7230948 1.1817156 0.22818196 0.37502715 -1.9012662 -0.85235775 -2.537454 0.52086484 -0.7693877 -2.9740863 -1.7831795 1.1443218 0.7214887 3.0584264 -1.1252617 2.5777025 -1.0955431 -1.2571102 -1.7860013 -2.051541 -0.770965 -0.12990136 0.53666985 0.03828217 1.359145 -3.1607604 1.1535054 -0.45860627 0.51204735 -2.1385221 -0.26453525 0.30323806 -0.008599086 -1.2310853 -2.9630046 0.17206106 -2.219647 -1.7982851 -2.2660604 -0.89947516 0.22069861 -2.0120347 -0.91201025 -3.018141 -1.4733217 -3.011909 -3.7047517 3.1960628 -0.14316417 0.55561215 0.5306166 0.8891754 -0.5727449 -1.2583133 -0.03475088 -0.31540912 1.797428 -1.8142804 1.2973179 0.39123896 2.0886025 0.7970576 -1.160246 -1.999637 -0.9874666 0.36633998 1.4254408 -0.6461029 0.15805489 -2.9209874 1.3024867 -2.4329333 -0.46058416 -1.5764266 2.3150425 1.247212 0.4007734 -1.2234497 -1.4956207 -0.5353188 -0.54511267 1.6500717 1.5193292 -0.018560495 -1.1422703 -1.2750291 -1.4544653 0.5499926 -0.8914591 0.3246044 -0.61371815 -0.69435143 0.36744052 2.2703667 2.652924 1.0049485 1.3817968 -0.0155006 -0.59713256 0.7135753 0.32388696 -0.36241767 -0.8069231 0.9284107 0.03559047 0.80964386 2.788097 1.8846697 1.4541711 0.38109154 -0.20626776 0.078797564 -1.2414137 -1.1088958 0.59661114 -0.7913995 1.1672659 -3.0816486 1.1608642 -0.17499673 2.0786524 -1.9188217 2.6327918 1.5219355 -1.6706544 0.8611921 -2.4397652 -2.5150712 -2.2590344 -1.6947607 0.7623819 1.3520333 0.2938389 1.7789291 -0.3538526 -0.31876585 -0.38567644 0.69642854 -0.9538295 1.2689964 -1.2611237 -0.64912045 -0.8858146 0.86105204 -0.24506247 -0.19460809 -1.1312491 1.7090449 -1.2181382 -0.010257319 -1.0853306 1.2720435 0.75965786 -1.0857204 -1.0647068 0.53805786 -0.25946918 -0.6549139 -3.2070649 0.4599997 -0.5772567 1.1056713 -4.669437 -0.18498535 -1.6926686 -0.88341486 -0.8697839 -1.6823488 -0.53589803 -1.1361423 -0.12099245 0.25380993 -0.27257326 3.3225408 -0.25175524 -0.62032354 0.94790393 1.9911815 -1.3081242 -1.0028863 2.1410706 1.9538127 -0.027498057 -2.112566 -2.4019918 1.7332634 1.7755654 1.5318235 -0.3730486 -0.075823605 1.7132993 -0.34949586 -0.25381595 0.038120583 -0.23290733 0.7711536 1.58617 -1.588198 -0.71413684 -0.4497403 0.027238637 1.3149346 -1.0065212 -0.638607 1.6845566 0.23349805 0.47153202 1.6766509 0.11847755 -0.7711008 0.8996014 0.4938366 2.595901 1.1461715 -0.11667652 -0.63966596 -2.3333 -0.298676 0.4169819 -1.2261974 0.47742504 -0.77450967 2.0444949 2.2042725 0.83870834 -0.10508188 -0.022067685 -1.2374727 0.05426384 0.34823465 0.85627794 -2.6170766 -3.4840837 -1.0500042 -2.3799088 0.1575793 -1.0569407 -0.8908894 -1.1229216 0.2754859 0.34688354 -0.22511792 -0.3521193 1.5764736 -0.42604125 -0.91853774 -0.8764538 -0.5632315 -0.03936228 -0.9574365 1.6106598 -1.6855272 -3.412794 -1.372442 -1.4432176 1.9168899 1.0591264 1.5906981 -2.5968878 -0.7634753 -0.17059156 -2.0824804 0.93145704 -0.5252537 0.22017673 -1.3129665 -1.9427297 0.22802995 1.5556132 -0.17428465 -0.5693557 0.8610434 -2.7045624
为 -0.28621903 -1.2913252 0.06546231 -1.6402963 -4.320956 -1.5497109 -2.3947058 2.4327457 0.4208563 -4.471361 0.7811355 -0.33950484 -2.0161848 1.2613798 -0.9908694 4.2308564 -0.54058105 0.79050106 1.8833629 0.1002446 1.0301245 -1.0936626 1.6077 -1.2638806 2.6660266 2.1204383 2.2476704 3.6891336 0.83154786 2.8081055 1.1157036 -0.39460602 -4.2060895 0.74013245 0.96196556 0.43100685 -2.303003 -0.37857392 -2.6650636 0.6998664 1.8216696 -1.2342962 3.2712972 1.4034656 -0.97301203 -0.8469503 3.4612882 2.8564608 1.6844617 1.6002749 0.11807307 -0.28322905 -1.9737523 -3.083488 0.027780345 -0.7265611 -1.918316 -1.0377666 0.27387926 2.292466 2.1943598 -1.7137265 -0.29968032 -0.29807904 -1.505483 0.49602276 -1.4080031 0.14515705 -0.9563217 -0.45036757 -2.2102592 1.5767663 -0.65946656 0.80033255 -1.515685 0.964258 -3.1363406 0.6631905 -0.40397936 -2.666854 2.1711648 -1.5923159 -1.3520112 3.6679783 1.0218822 0.30229396 1.1695613 2.118334 -3.2567582 1.7098057 1.4313881 -0.28293133 2.3180044 -0.07135772 0.8883513 2.852915 -4.398723 0.76502043 -0.49121642 0.3724885 -1.0706793 3.8700948 4.4440665 0.0047805994 1.7518471 -0.4429014 -0.7032195 -2.7971349 0.70772207 -2.790462 1.3050593 -3.323556 -0.22512352 0.15877679 -6.142731 2.4885557 -1.0811554 -3.619862 0.22657913 0.9835258 2.601845 -2.665556 -0.06796193 -0.17488171 0.8780349 1.196514 1.8508794 -1.9371225 -4.3249354 -4.166947 -0.45589888 1.0707805 5.408575 1.2140626 -0.16390595 2.0993223 5.1700788 -0.7912617 2.435116 -3.648772 0.8754502 4.2610583 1.3428007 1.1478137 1.7300414 -2.2840886 4.3751636 3.023609 -0.14800166 0.49456954 0.83121115 -5.6172724 3.1237848 -0.55551434 -0.67661583 0.99231386 -3.0468163 3.0292652 -3.7807338 -0.3368463 -0.28110123 -0.34776732 3.9250793 4.046894 1.032434 0.22148058 -1.2373785 2.825513 0.6077482 1.1300125 0.7298263 -3.9122415 -1.8802253 1.5433254 1.8094144 -2.1145575 -0.32438493 -1.1507376 0.41173646 -0.9986503 -3.5164807 -0.4802973 1.343964 1.2900769 3.8546262 -0.6586815 -0.3192774 -1.993859 0.49768674 0.17879441 -0.9116954 0.105751626 -1.2177936 2.5909836 0.50835806 -3.5224457 0.7826173 -1.8447974 5.065182 1.5274601 4.37814 1.0655149 -3.0089579 -0.11350687 2.0756989 1.271227 -1.4204383 -1.328304 -0.72545177 0.44538763 -1.1102241 1.6775458 1.1799643 -1.0098256 1.7418408 -0.08818725 0.15973125 0.061141845 1.4202405 7.2396164 -2.2493877 0.7471091 1.8002075 -1.4831798 1.5952702 1.7749703 -1.226624 -1.0005401 1.4394302 -1.2331228 -1.1343988 -0.0843775 -2.1907392 0.5377687 -1.3768066 -1.3081548 -2.1022704 -1.9083061 -0.3860234 -4.4507046 1.1599097 -4.663906 -2.4522383 -2.4624727 2.3325872 -0.22631654 1.270267 0.39016658 -4.0988936 1.7305981 -0.6503542 -4.1094003 -0.79981893 2.7752798 -0.7642667 -1.2633085 -1.082516 -2.4765663 1.8616621 -1.4618908 -2.8336549 2.0044446 2.2337022 -0.84336185 -1.0171098 1.3048257 -2.7013123 1.3595258 0.22421464 5.8771787 -2.7829573 0.62017626 -1.8167505 -2.37377 -2.454874 -1.9990779 -3.1867402 -3.4390078 -2.879076 -2.252185 -0.038534626 2.1150513 0.857966 1.5441097 -1.0270863 0.13552676 0.24173892 -1.8081535 2.3693779 -1.9546268 -4.0108447 1.9000272 3.9335148 0.9172603 0.6634391 -0.045034524 1.6076574 -1.6526176 -1.6496181 -2.1077676
国 -3.297562 -0.87879044 -4.1947293 2.068778 -1.5443643 4.2852087 -5.9279733 0.23161718 4.478492 1.2930949 1.5280765 1.433569 -0.15589333 -0.7155645 1.6357086 -1.1704216 -3.811254 -0.9357584 2.1510768 -2.1348076 -2.4557843 6.639101 -0.27196833 3.4538367 -3.4236658 0.63776654 -2.0883777 -2.3686748 -6.0020785 -1.7466128 -5.6359024 1.3098805 -0.59707016 2.8371303 -0.44065166 -3.2034068 2.1953309 4.337573 -0.5431725 2.2039976 0.07045885 1.4422944 2.1215003 5.264264 -0.5222893 0.7748027 3.1758096 2.2781584 -0.7862955 -1.805564 -4.450185 -2.4112844 -6.0626802 -1.4854016 -0.533054 -3.2048373 -0.9050567 2.7103634 2.9062986 -1.3537893 1.2049091 -2.2659185 3.5631063 2.4462829 -0.9858232 3.391565 -1.2038324 0.38524762 -1.3675703 -0.42165148 -0.9396423 0.05343216 -6.1030135 1.059505 3.1030986 0.7524242 -2.5802128 -0.24601877 -1.7510817 3.1093543 -1.808937 2.0445776 1.3749989 -4.846778 1.1176496 -3.673126 2.5646412 -0.58980846 0.98251295 1.1369017 -1.6368073 -0.81412166 0.8973628 -2.2063584 -4.0495505 -2.6584597 -2.7556918 0.22130062 -1.8058484 1.8510373 0.5868179 1.7611313 -1.1068432 -2.2134435 -0.027711272 1.949028 2.1572156 -2.0110424 -0.11303311 -7.3938766 -1.6166589 -0.030664876 0.41713154 2.5238533 -4.4868827 -2.2941227 -2.018832 -1.8680304 1.2365295 1.0178089 -3.1293015 -1.677775 -0.948349 0.23722172 3.5857043 3.3155947 -2.876361 -4.4335847 0.57137007 -1.5146822 -5.0483947 1.1875015 0.122446 0.1252867 1.6017642 3.6505342 1.1604221 -1.3549231 -1.6739404 -4.1908193 -0.70100355 -1.9661165 -0.9879772 -1.6413211 -0.48692477 -0.09059257 2.8698018 0.24107218 -0.27241683 0.6312415 1.4916579 0.67586195 -3.4701984 0.0040139803 -2.0441377 2.311661 0.07547752 -6.9004073 4.694031 -0.0106184 3.445063 -0.570021 -2.4361591 -1.9362181 -2.5159526 0.96215516 -0.84438884 1.1133744 2.280861 0.9900768 1.5006797 -0.09626412 -0.9705005 -2.2215488 0.80936587 1.7690266 0.45631352 0.03560518 -1.0586491 3.2560666 6.8030453 0.65543455 -1.0801996 -1.3780975 -3.053562 -3.492135 1.0450871 3.364357 2.02014 0.035927106 3.8050234 0.75892735 -2.8127747 0.0069245407 -3.9012206 -0.21884196 -2.4979854 -4.0083137 -3.6036625 -0.47115234 -1.6652659 0.7931822 0.79140794 -0.43411332 -0.31969044 1.2374535 0.14904557 0.18694863 -3.7615447 -1.4380236 -1.0054474 0.19188449 -0.18335229 -1.547077 -0.8383091 -2.4136126 0.1409901 -2.1765 -1.8935698 -3.7114255 2.1691296 4.225675 0.044405546 -2.1944525 -3.0495842 5.141568 4.520631 -3.9702785 -0.9285135 5.082144 -1.5820452 2.0719485 0.91654307 -1.7213721 -2.911914 1.3698837 3.851733 0.58974963 -1.9465282 2.9888332 -3.5787585 -2.0494173 2.1902883 -3.05923 1.6418712 -2.8658006 4.3036785 0.44514367 -0.2640337 5.237684 2.8422463 -1.8699808 -1.0250806 2.970074 -0.73834234 0.095325194 -0.87695706 1.9383799 3.534207 -4.238297 3.8149 1.1334511 -1.5046266 1.3444033 -2.1618698 2.290997 0.4359671 1.945988 -2.1813014 -4.166645 1.9107429 -1.6954726 1.7348655 -1.9646866 -0.5043442 2.38979 0.8858833 4.7509975 -0.13737176 -1.9620072 1.6771004 -2.337695 2.8981018 -2.977616 2.2996185 0.46565285 -0.7898268 -0.41157395 1.7109311 -6.33983 4.8249803 -5.0955663 2.8403666 -0.83117723 -0.6105003 -0.23406485 -3.5033393 2.687191 2.2417502 3.0442662
人 3.6735945 -1.4605193 -1.4613142 0.029595874 0.22916093 3.4282162 -1.521771 -0.13582388 -0.20370124 -0.818334 -1.7796947 -1.4105145 -3.0355225 -3.4265666 -0.61064774 0.059186906 0.72756517 -2.8625102 -2.6262598 -2.709842 1.0535986 -3.5060391 1.9851812 -1.7662627 -3.212038 -1.9747963 1.1469504 1.5092698 -2.2446156 -0.79980916 -0.38179895 2.5843716 -1.6125419 1.7909111 -0.45347756 0.51538426 0.016921854 2.755964 1.9574665 -0.9242519 -0.5461151 1.8047968 2.4155824 -0.7529511 1.2038944 1.2727162 2.4523773 -4.3551073 0.4876242 1.478714 -0.33104208 -0.41693738 2.057581 -1.6861753 0.1349712 0.8649291 -3.4341762 2.251229 -3.8586345 -0.5075599 1.0548161 1.5763004 2.1202629 0.89663666 0.9703379 1.7540367 1.1539875 -3.0951867 2.8726318 0.7814919 -1.9514487 -0.97248816 -1.0572172 0.53840077 -1.6015774 -1.4778799 -1.5411121 -1.2554572 -4.287593 -0.3831378 -0.64206415 -2.694426 0.11908897 -0.4946666 0.1682677 0.46116093 -2.7880075 4.209918 -2.7106576 1.025398 -3.6658323 1.0447143 -2.7730322 0.0954238 4.7124023 1.286472 -1.2222053 -2.959886 0.6539911 0.012721313 0.64660394 0.92276555 1.814405 0.5949011 -0.82617116 0.43717706 1.5682448 -2.8493254 0.32350317 3.9670687 2.2309937 -2.9763157 -3.8259819 0.8585725 -1.1493682 1.4892918 -0.046336822 -0.37394518 -1.6512237 -1.3502678 -1.0672585 1.4635484 -1.3135118 1.2167376 1.2408589 2.8373058 -4.88698 0.62600297 -2.8516963 1.7919668 0.38308036 -0.61307853 -3.1197174 0.29163688 0.08152732 1.0181895 2.414225 -2.2728417 1.575482 -4.48367 -2.419615 4.734917 -6.034383 -0.84474903 0.96827525 -2.665605 -4.0097656 -0.6343767 2.3686576 -0.05108115 -0.10822001 -0.20483118 0.6013842 -1.3539789 1.1661437 -1.4389149 -2.8643227 -4.8469033 0.3669287 -0.79176855 0.41679338 0.27553198 1.0757551 -2.0322309 1.2142678 2.243229 -0.16887812 3.2852955 -1.0215801 -1.4289073 0.33795184 0.44561788 0.59006715 -0.79020715 -2.067985 -0.97169787 -0.07976062 -1.0025796 -1.5899869 1.5825452 -1.9470321 2.3072548 0.6080179 -0.62270725 -0.7701005 -0.028920924 -1.5496174 1.7652113 -0.18553892 -0.20720349 2.4566066 0.5652935 2.8065226 1.7739552 -3.3045826 -1.8504338 3.6694515 -0.4344064 1.4740865 -0.19209442 -0.6808248 3.615857 -2.1773186 -2.8313317 -0.62366694 -1.2784401 2.0490894 -2.2128801 0.61962926 -1.8318942 2.2748053 2.8477507 -4.408317 -3.8364804 0.51906186 1.2426983 0.4535582 0.4469052 -1.7664902 -0.08125595 2.0110817 1.436502 -3.1530902 0.4156555 1.347556 1.2127484 4.4469748 -1.4790652 -1.3363065 3.5926077 2.0968354 2.3197026 -1.729493 0.3975361 0.26091406 -1.7523293 -0.55207014 -2.3404868 3.6458426 -0.62220806 -2.209007 -1.7345842 0.16350119 -2.1808178 -0.90210533 -2.086271 -1.6364822 -0.83179003 -1.0407484 0.9832874 0.32469833 -0.04679323 1.0894423 -0.02852615 -0.45088878 2.2841864 -1.5456 -0.07305703 -0.09146974 3.4228578 -4.9041953 0.4723841 3.5292485 -0.8201679 -0.7259542 0.5187271 1.370962 0.04940073 -0.52054065 3.212627 0.14976713 2.0161772 -1.1274428 -0.32505688 0.78274095 2.980731 0.95889074 0.27448434 0.10944397 -1.0252764 -1.1817545 1.6786696 2.6203 1.8008139 -0.52789557 -3.3579464 -0.8449106 0.052032664 -1.8514494 -4.6325054 4.5580006 1.6283877 -1.5271847 0.5831691 2.636881 -0.88882196 -0.20682462 -1.2457187 0.44168407 1.0246382
8 -0.25954247 0.013023241 1.6180575 -2.4457362 1.1346833 -1.3315332 2.005408 -0.9276522 -0.4666624 -2.3772779 -0.15893234 -2.5704973 -1.1542292 -1.0505437 0.7574639 -0.30833468 -0.25758526 -2.2887568 -0.87052006 -1.2125384 2.7992373 2.3053756 2.8920803 -1.6920351 1.5294013 -0.2499335 5.5315843 2.124056 0.7707152 0.33560863 -1.5805341 -1.0837406 2.4681807 2.9599073 0.52537704 -0.21272027 0.7809404 -0.89603406 -2.1103563 2.8199868 1.4457092 -1.17985 2.0147328 0.81083924 -0.8256213 -2.161878 -0.6891231 -0.17450298 -0.18563232 -2.6700711 -4.546867 1.0811282 -0.29780215 0.80305827 4.1352954 0.7726455 3.042162 3.7729456 0.6031455 -3.1047564 2.4058762 -0.73764926 -3.4773166 -1.2674177 1.138947 -2.1406097 -2.2121067 3.5935142 -4.7002025 0.22974734 2.5057576 -1.0046493 -0.63913786 0.042883743 -2.8392432 0.29584676 -0.24392502 -0.7942007 -2.45411 1.7126307 -0.18316232 1.0298414 -1.0279427 3.1993525 -0.6757447 -0.75475734 -1.4020302 3.462152 2.5137708 -1.4480934 -2.9744122 2.243533 -2.8594313 -0.19897786 -0.4574784 -0.496784 1.5122434 0.16491807 0.030412493 0.33831817 -2.2895226 0.22390223 0.45955175 -0.47999227 -3.3439393 -1.5684073 3.2101943 -0.98719084 -1.4310218 1.8871903 -2.5640674 -1.0805575 -0.9863468 -0.28412664 2.1534925 -0.13010317 1.627422 -3.4472492 -0.59390247 3.8221445 -0.46137318 0.7281655 -2.1627254 2.157073 1.1661978 2.4860039 -3.7824504 1.142437 0.95678675 1.9015529 3.706509 -0.75653744 -0.5167464 2.0477173 0.22711636 0.39409548 -1.0890847 0.6665844 -0.9438153 -2.5061657 -1.4970142 1.0271523 0.711138 1.0758661 -0.630594 -1.569848 -1.047525 -0.81459796 -0.043129306 -1.0350742 -1.86335 -4.364667 -2.350885 0.14973181 -4.2177577 -1.2175603 -2.5313866 1.0934722 4.365789 -1.9704814 1.8190084 2.7948902 -3.667662 -1.5852972 -1.648611 0.5541011 3.3309846 -4.171177 -1.5821762 2.2605577 -2.318141 -2.6594343 -2.421543 -1.2983351 -0.28080192 -0.8467716 -2.0831952 -2.3404758 -3.5750535 1.1504153 1.2120404 0.24741071 2.0896795 -2.5640602 2.502764 -3.2054 0.57807887 -0.7210836 2.6244807 -0.6843497 0.58484393 -1.0491797 -0.8282189 -3.5457516 -1.5120677 -1.8198783 -1.2863853 0.3537921 -1.2276628 -0.05478935 -0.24214672 -1.1923819 0.837679 -1.9928445 0.33557487 -4.928673 1.2857794 1.9218467 0.39061153 0.21455255 1.3400347 1.1231861 -0.70354044 1.4079442 -2.284519 -0.42186803 -2.3799875 -1.8955551 -1.5722647 1.9867841 0.71705985 -1.103382 1.1066729 -2.0530946 -0.6402117 -1.4955795 2.190459 -0.46858358 -1.184587 1.7083523 -0.021343464 -3.878392 1.0643344 -1.2436417 0.56056917 0.73442465 2.7470534 -0.1634514 -1.3387027 1.1165111 -1.7961568 -0.3293566 0.5883935 0.14142792 -3.7780614 -0.5337597 -1.4210439 0.9220467 0.096009836 -0.83128035 0.059332684 3.5013463 0.872208 -0.632883 2.0175467 -0.47597098 -0.33509684 -1.0777209 -0.5607118 2.9289675 -2.8115246 0.757237 -0.7990409 4.937469 -0.80748165 -1.4451362 -0.26445565 -0.5689431 -1.4605813 -2.7258441 2.7244058 1.1491983 -1.3932296 -2.3264086 0.54279745 -0.22822015 0.14691733 -1.6412649 -1.1525397 -1.3423272 0.27486342 -0.5147472 -0.15343018 1.5176413 -1.0079267 -3.183809 -2.378226 0.30311123 -0.7878341 -0.39167768 2.111316 -0.63501364 2.3308656 2.858432 -2.774494 0.23382564 2.9961581 -2.7451804 -0.0076726754 1.6418203
5 -0.23293632 -0.21698326 1.8320653 -2.6925344 1.7403258 -1.1840321 2.207438 -1.2034538 -1.0968002 -2.330521 0.39331803 -2.702551 -1.5445582 -0.69978327 0.9512349 -0.87738645 -0.17631292 -1.925844 -1.272862 -1.4217831 3.4761488 2.098431 2.095483 -2.239913 1.502011 -0.46522245 4.955273 2.3431852 0.18327808 0.61075705 -2.9649212 -1.5956849 3.2587066 2.3811173 0.0930367 0.011800727 1.0463455 -0.551098 -2.7030523 3.0079434 1.3511684 -0.28297383 1.7290874 0.70161384 -0.7298974 -1.9095094 -0.3794043 0.5753744 -0.19162385 -2.7386568 -3.826631 0.43625006 -0.8121166 0.65251803 4.3166766 0.050989926 2.6948 3.5138483 0.89299524 -2.908175 2.0197737 -0.8104428 -3.6953108 -2.118334 1.6586207 -2.0876074 -1.8553035 3.1646938 -4.4850864 0.8689888 3.0916076 -0.33577517 -0.10655002 -0.20600036 -2.91838 0.7270167 0.76596797 0.2715325 -2.0712433 1.0066808 -0.9975119 0.7779677 -1.2064563 2.0038855 -1.8719788 -0.46654585 -1.0805163 2.6874352 1.4219218 -1.2395612 -2.3206165 2.078839 -2.6371212 0.8393274 -1.2473649 -1.0303375 1.3506845 1.2338047 0.21553214 0.6893351 -2.7599576 -0.0074193254 1.0710382 0.18975459 -3.607314 -1.1845245 2.6970406 -1.4945627 -0.582729 2.6096675 -2.010407 -1.2051064 -0.84686893 0.27058098 2.164349 -0.62284815 1.112794 -3.708545 -0.8531154 4.017003 -0.44445208 1.3093826 -1.5452691 1.075055 1.1553044 2.4081297 -3.8068182 2.0269475 1.0995113 2.5219817 3.3581026 -0.3023662 -0.37791827 2.5127394 -0.03708424 0.32495582 -1.098155 0.37053445 -0.8301679 -2.2271278 -0.67466396 1.4517577 -0.07595417 0.93070424 0.05385047 -1.9102969 -0.79152185 -0.42283687 0.34163848 -0.30433726 -1.7082726 -3.7594838 -1.940079 -0.35170063 -3.908476 -0.5454387 -3.0424905 0.9427172 4.0433736 -2.585412 1.5426836 1.8987728 -2.8089259 -1.954343 -1.0438411 0.37270975 3.3800418 -4.122039 -1.6652744 1.54645 -2.8690214 -2.7597487 -2.3055665 -0.6481704 -0.3788716 -0.29985145 -2.3119543 -2.6549852 -3.4084835 1.1741792 1.3290709 -0.006138816 2.3583686 -2.0974782 3.3702776 -3.0091622 0.7810996 0.20126314 1.4432602 -1.2808337 0.20865901 -0.274233 -0.5683965 -2.8049424 -1.2250785 -2.177322 -1.4681767 0.37726706 -1.0661438 0.35772857 0.18146732 -0.81737405 0.54628986 -2.740539 0.4727531 -4.8777742 1.7379646 1.9437073 0.34486276 0.29350752 1.358722 0.9951072 -0.914681 1.4543176 -1.8434831 0.05535182 -1.7461683 -1.5814632 -1.8469833 2.355674 0.25287932 -1.2084461 1.6474615 -1.4405454 -0.83591366 -0.814299 1.8795065 0.08986519 -0.9733933 1.7637379 -0.776172 -3.4338691 1.2221447 -1.3210187 -0.5755698 0.19280511 2.4497068 -0.49503967 -1.9161956 0.46552068 -1.7555423 -0.30057612 0.8901419 0.04362449 -3.375098 -1.1136198 -1.0127076 0.71722275 0.26221433 -1.0392078 -0.16443226 3.8072867 1.4729638 -0.49896115 2.1458728 -0.35681054 -0.58672947 -1.5722134 -0.5909379 2.6444676 -3.6174493 0.8640452 -0.40824905 5.2207494 -0.79780626 -1.8380595 0.0578457 -0.6782137 -0.24415068 -3.0707316 2.5260353 0.27559027 -2.008243 -3.738877 0.59356844 -0.9113323 -0.76237184 -1.9448193 -0.8472056 -1.3830862 0.19387712 -1.0611846 -0.46841362 1.7961984 -0.67106247 -2.0074768 -3.0620022 -0.18093212 -1.345814 0.13442805 1.6308223 -2.3871207 1.4732106 2.8536723 -2.4792306 0.3731827 2.830747 -2.1246085 0.46992692 1.8628558
4 0.37952012 -0.19400392 1.2444558 -2.9717708 1.661843 -1.5250664 2.0518847 -1.3773348 -1.4880408 -2.5259705 0.64503783 -2.6883233 -1.3365309 -0.9690787 0.40365648 -0.97412163 0.12820977 -2.2580328 -1.7406068 -2.06458 3.3762853 2.8649566 2.009009 -2.3798797 1.5344193 -0.40720904 4.924442 2.3757875 0.30426553 0.74633414 -2.4409134 -1.4980263 3.232176 2.3127484 -0.13058233 -0.37263468 0.5566908 -0.42776847 -2.3699214 2.816181 1.1950097 -0.4079477 1.7250878 0.28810498 -0.82131547 -1.1642569 -0.3170121 0.5046311 -0.20646715 -2.813834 -4.0454907 0.4077309 -0.8315927 0.26551902 4.634342 0.03776669 2.5541363 3.5436828 0.75804824 -2.4099026 1.5371556 -0.769233 -3.2195175 -1.7557677 1.2485218 -1.6113547 -1.8372535 3.210019 -4.542717 0.6383752 3.2282534 -0.4132753 -0.17700233 -0.10529951 -2.5534086 0.9782528 0.87906027 -0.37210014 -1.8312215 1.2480454 -0.21713684 0.29481867 -0.7085079 2.335998 -1.1526766 -0.62374157 -1.3198525 3.1430051 0.8933537 -1.3967584 -2.8107872 1.8838519 -2.5293226 0.7896453 -0.5044419 -0.40547633 1.7471155 1.2099365 0.38875794 0.20698534 -2.6160512 0.05580481 0.79114217 -0.0079566715 -3.4703064 -1.5540749 2.5432677 -1.1550448 -0.9262255 2.64303 -1.786923 -1.4388698 -0.94054246 0.21024008 1.716049 -0.9238199 1.1711919 -3.4744968 -0.46389392 3.7181678 -0.3539736 1.4863417 -1.5329083 1.2802004 1.2199817 2.8743904 -3.9470704 1.834308 1.1885036 2.6839685 3.417143 -0.3208071 -0.658792 2.4186435 -0.3628483 0.48665813 -0.7918139 0.57864666 -0.5702021 -2.0065238 -0.7735093 1.2440698 -0.191139 0.98981065 -0.19859958 -1.5086033 -0.9642112 -0.24288708 0.60059184 -0.39914083 -1.3761742 -3.6253455 -2.0900033 -0.1194369 -4.275698 -0.7523464 -3.057793 0.99533194 4.119765 -2.1338181 1.4343379 1.9672234 -3.4357266 -1.8957928 -0.68833447 0.6561684 3.5453036 -4.2152405 -1.6691524 1.5512459 -2.756712 -2.8479667 -2.3798664 -0.9169932 0.09090483 -0.6542992 -2.5351589 -2.2153878 -3.0973494 1.351454 1.3074653 -0.0030613625 2.4475586 -2.0689034 3.3667 -3.04894 0.5184368 0.09391715 1.7831798 -0.97647154 0.09157304 -0.63133353 -0.67879045 -2.7663186 -1.4133127 -1.6254728 -1.6560735 0.29024762 -1.1755722 0.089185365 -0.23865388 -0.53507364 0.3640141 -2.7515638 0.26133275 -4.8764653 1.9161212 1.8651508 -0.06722138 0.66796213 1.8702556 0.20091175 -1.0481495 1.2762437 -2.1862798 0.17598148 -1.7832009 -2.2046666 -1.4906946 2.430146 0.41150528 -1.457607 1.8120848 -1.6926273 -0.7185063 -0.9005913 1.9880921 0.31468403 -0.7874574 1.6180934 -0.2935079 -3.6203167 1.2790716 -1.033235 -0.68901885 0.2989985 1.7370493 -0.32744527 -2.021465 0.51121867 -1.5208328 -0.30249152 0.914184 -0.19959489 -3.3962965 -1.2802689 -1.3735209 1.3089164 -0.064206444 -0.9462397 -0.068228684 3.5676312 1.3063022 -0.50134265 1.2930245 -0.22355564 -0.6737111 -1.1986287 -0.47559413 2.715233 -3.0126758 1.1029665 -0.39856562 5.422393 -0.69344777 -1.5969106 -0.4388638 -1.0573896 -0.7308316 -2.6690876 2.3718321 0.8053217 -1.7773645 -2.7643023 0.23557188 -0.95200247 -0.61666316 -1.6748902 -1.0864521 -0.85962933 0.27571273 -1.4067864 -0.2202529 2.0401673 -0.28480947 -2.1570477 -3.171996 0.23964785 -1.4293709 0.46797514 1.1845405 -1.6817874 1.4081923 2.9033945 -2.592849 0.2267047 2.873702 -1.8700334 0.11213036 1.6460117
是 -1.6020069 0.06963877 2.6686969 0.88353485 -4.328053 -1.3134658 3.7093124 5.308119 4.1468015 -1.3172503 -0.6677961 0.84806955 -1.6628057 3.0563734 -0.020906836 0.019817004 1.0340147 1.3365971 -1.2562004 -0.24117841 0.51234543 2.4425642 -1.7453898 -1.1628944 3.457748 2.8118527 0.17590284 1.9148092 -0.9968731 -0.2659587 -0.9270096 -1.1360072 -4.360393 0.8057764 1.3942913 -0.84740955 -0.84896535 -0.9566264 -0.73670536 0.73162377 2.6731546 0.82265455 0.7519083 1.1062483 -1.548957 0.25199133 -1.0372376 -0.1278578 -0.11800619 -0.54839456 -0.12156807 0.26626706 2.3577921 -0.58068657 -2.9478414 2.5096626 1.9950042 -3.806688 1.1908115 1.4406054 -1.7799127 -2.4222548 2.3469105 1.7775096 -1.5078737 0.8487509 3.1406026 -7.4789042 -1.9218475 2.05489 -3.164039 -1.5952488 -3.3180645 -3.2356527 -1.8375251 -2.7699997 -4.0295925 -1.9077919 3.5490847 -1.5996087 -1.6524158 -2.5672073 -0.34598652 -0.35264087 1.3339444 -1.1388195 0.79727525 -1.8626189 1.4957234 1.1363034 -2.863415 -3.6673596 4.219957 3.84165 -0.25521144 0.9773781 2.0179284 3.7957468 0.2842893 1.9510709 -2.1412053 1.0848004 -0.15290686 3.1376364 2.346291 -4.483595 -0.5172713 -0.7901365 0.036659103 1.2640336 -3.222315 -0.8931284 1.4783632 -0.5571259 0.34545782 -0.11113748 -0.12084871 -0.7877431 -2.033477 2.123181 1.4832815 2.0841 -0.9426277 1.1445423 0.87006336 -1.0400869 1.1520767 -0.6229154 1.731638 1.7725687 1.4626892 -2.60472 2.255507 1.7771392 -0.91824436 1.0770386 3.6771886 -2.4655232 2.2752316 0.36561823 -2.8689148 -0.16655336 -0.9608356 -3.0179572 0.1267967 1.4354093 -1.072712 0.100978024 -0.65813994 0.86743355 2.0760865 1.2993561 1.6650643 -1.9610265 0.3078825 0.91910183 -2.525478 -1.6266878 -3.5167472 1.5222155 -0.7247682 -1.3919041 3.0300207 -3.0345838 -0.8525086 -0.833584 -2.5331862 0.502557 -2.6012764 -2.314227 0.030125987 -0.79606926 -1.0319958 -1.1536678 0.038756583 -0.98372746 -1.2540351 -0.5622592 1.700292 -0.5264024 -0.19831108 -1.6984286 -3.220737 1.7576723 -2.5708184 0.032195933 1.4509735 -1.6903207 0.9386336 -1.8573031 0.88340753 -1.4293816 2.4780655 0.9043896 3.2951038 -0.675016 0.607983 -0.79991925 2.831602 -0.7978503 0.278948 0.6941312 -0.24687116 0.6800488 2.1052666 0.5661523 -4.8210807 -2.88962 2.251748 1.8870568 -2.0351288 -0.53356355 3.4300892 2.5629494 -0.9748813 -1.7245505 1.6381342 -1.9449129 0.3752467 1.6158108 3.1014018 1.508606 0.3263481 -2.2866645 0.40369558 -0.03233726 -4.4513125 1.156958 2.5484219 -1.9624686 -1.0614581 2.9469938 -2.2655287 -1.433478 0.7700275 0.39427787 -1.4009936 0.22151597 -4.8075614 1.0988498 -1.7287514 0.3510287 -0.6333373 -0.6879473 0.649966 1.3583062 -2.100421 -0.87461305 -0.7715269 -1.4632218 1.2156403 -0.9686249 -1.746947 1.2403972 -0.7234813 -1.9507307 -1.0791414 -1.2920907 4.1284614 -3.9279172 1.37287 -4.2255697 -0.8326171 -2.0489428 -0.47589383 -2.4008038 -0.61026543 0.19795357 -3.955157 2.5715413 -2.4838133 -3.0283868 0.03734631 2.5158522 0.32852584 -1.8024225 2.0372522 1.9827533 0.95311654 -1.7831428 -2.4867153 0.28278923 -5.142288 -0.36585748 1.9694464 -4.475828 -0.289714 1.8359913 -2.367699 -0.3189656 0.9597576 -0.556803 -0.8703764 -2.527437 -1.6515167 -0.932561 1.0236312 1.1694129 -1.7627666 -0.9327684
6 -0.241439 -0.13462861 1.5313574 -2.8213928 1.6189803 -1.1747136 1.8590578 -1.1954579 -0.4491992 -2.2077103 0.06604072 -2.5929067 -1.4098502 -1.1330382 0.61924416 -1.0177318 -0.08467271 -2.451904 -1.4720904 -1.4184844 3.1967483 2.4674613 2.5238438 -2.2769208 1.4109997 -0.2862553 5.247211 2.0277941 0.63162667 0.5758465 -2.2287436 -1.5671167 3.0589082 2.8366303 0.08452995 -0.22937058 0.93348986 -0.8042608 -2.346131 3.0947711 1.2879035 -1.048224 2.0949547 0.59398305 -0.6970261 -1.8095549 -0.39428946 0.0060256873 -0.020114528 -2.441644 -4.063166 0.76719576 -0.63682324 0.38360897 4.4676204 0.045505546 3.2262516 3.4693947 0.7067407 -2.5787458 1.9723245 -0.7515665 -3.460483 -1.6314535 1.3336568 -2.0767958 -1.8725015 3.5026312 -4.5114098 1.0454258 2.9982948 -0.5519835 -0.27996993 -0.250721 -2.8651564 0.5010529 0.5761941 -0.122040704 -2.1796608 1.4315046 -0.5816998 0.7136089 -1.1801467 2.4800735 -1.674291 -0.804581 -1.4338734 2.932727 1.7662181 -1.298809 -2.8284729 2.0764408 -2.71142 0.59367526 -0.8296631 -0.23460749 1.5013983 0.7671136 0.122709624 0.19912423 -2.7186725 0.01111503 0.6706153 0.005690731 -3.6249838 -1.5244377 2.5606186 -1.1288294 -0.87712574 2.228981 -2.1786957 -1.1872121 -0.93366224 -0.047179665 2.3819876 -0.49825907 1.3208905 -3.5895588 -0.7276355 4.1268973 -0.17612836 0.94689465 -1.9313703 1.4295372 1.4155526 2.502073 -4.0884833 1.5072489 1.0587239 2.5861688 3.466181 -0.25149408 -0.7170895 2.2750635 0.37124968 0.15190592 -1.0311292 0.42400587 -1.0764523 -2.5836415 -1.1338896 1.2571498 0.10922887 0.9112738 -0.6399778 -1.6764725 -1.0027292 -0.5709359 0.23677856 -0.5852034 -1.5240663 -4.183511 -2.042133 -0.097042546 -3.9831996 -0.6583503 -3.08759 1.1198475 4.1439366 -2.167639 1.759839 2.1907835 -3.2001836 -1.8280079 -1.1376784 0.4727798 3.8459692 -4.05901 -1.5615158 2.095579 -2.672818 -2.8187647 -2.3561828 -1.0949111 -0.26519233 -0.6180475 -2.0759504 -2.3970456 -3.4314592 1.2735325 0.95414966 0.32754242 2.1616104 -2.1212535 2.9545362 -3.2622943 0.72205234 -0.08950054 1.9725809 -1.0608907 0.051018175 -0.8673104 -0.6885 -3.0658834 -1.1842806 -1.7170835 -1.5424317 0.50668263 -1.1779367 0.24131843 -0.24973595 -1.2020447 0.53477454 -2.4177947 0.57531023 -4.7772245 1.4880822 1.8982645 0.113543905 -0.082324244 1.3563713 0.85357225 -1.0346714 1.3735548 -2.0171654 -0.10444238 -2.3858702 -1.9227641 -1.3034153 2.222388 0.39394668 -1.3217654 1.3520384 -1.9598607 -0.67186296 -0.97293586 1.977911 -0.19424443 -1.038009 1.4832014 -0.28210875 -3.8348606 1.0057713 -0.8722933 -0.41620696 0.6078748 2.3908913 -0.38903886 -1.4356463 0.73214567 -1.7621013 -0.5193167 0.81720376 0.055441856 -3.1065915 -0.620844 -1.083823 0.93544734 0.23825765 -1.1185641 -0.031339798 3.6834097 1.6381807 -0.71308476 1.8917253 -0.46878943 -0.63770825 -1.3064698 -0.5491885 2.70571 -2.9874244 0.73255306 -0.38566712 5.265709 -0.6657952 -1.2571492 -0.27988964 -0.7757885 -0.76068896 -2.9620535 2.7958007 0.38775182 -2.008332 -3.2142658 0.2696963 -0.7844153 -0.62353605 -2.086512 -1.2971847 -1.3953987 0.23434307 -1.003788 -0.16371605 1.5874858 -0.8604011 -2.4032311 -2.668084 0.19964895 -1.2250892 0.24667528 1.5954267 -1.894266 1.8831959 2.455056 -2.612945 -0.03616577 3.062702 -2.1170964 0.19575016 1.6797993
7 -0.0057612285 -0.23412628 1.5448261 -2.6801236 1.6798 -1.1927146 1.8874799 -0.99757874 -0.39594644 -2.31292 -0.012663087 -2.4276512 -1.344547 -1.0867231 0.87523454 -0.9317323 0.05175601 -2.314094 -1.571708 -1.6491317 2.7733884 2.6587293 2.4737086 -1.7149942 1.375297 -0.24323618 5.3245378 2.0811512 1.0281073 0.26367694 -1.823127 -1.0060984 2.9442184 2.838629 0.13984957 -0.28990692 0.69807076 -1.1333351 -2.0813885 2.8919153 1.6063474 -1.1929351 2.0732646 0.44271338 -0.5919868 -2.216234 -0.54846704 -0.28143483 -0.19506124 -2.3037808 -4.1040955 1.0245256 -0.21980515 0.544846 4.4332414 0.19883284 3.228826 4.0569873 0.8464824 -2.5463426 1.9111507 -0.59712225 -3.6390996 -1.3102893 1.1077759 -2.1261368 -1.9734993 3.1056836 -4.7545047 0.62745833 2.6886322 -0.7719852 -0.26018912 0.08318267 -2.7786176 0.47298002 0.13350077 -0.37131983 -2.3935776 1.4498278 -0.32198152 0.91690624 -0.9805196 3.0850646 -1.2911165 -0.38758874 -1.5734701 3.12827 2.038684 -1.4778147 -2.7584293 1.8757677 -2.703566 0.086308405 -0.78823227 -0.20623179 1.2337346 0.31470144 -0.036023058 0.11136686 -2.1552708 0.023768201 0.6779426 0.11046688 -3.4887843 -1.6306773 3.0617085 -0.965021 -0.7337863 2.0688522 -2.2443333 -1.3404727 -0.93711007 -0.15277587 2.5110683 -0.37424687 1.251253 -3.3690958 -0.5833522 4.039354 0.069307245 1.0804558 -1.9910567 1.8691001 1.6112875 2.518055 -3.8720713 1.4594411 1.0080745 2.3436968 3.3358052 -0.74569637 -0.82670474 2.14553 0.09200995 0.69181436 -1.1943429 0.54624844 -0.8231724 -2.0198374 -0.95275414 0.98417026 0.66241145 1.2197578 -0.5732972 -1.2467947 -0.8480776 -0.42396724 0.059986457 -0.65007323 -1.6929395 -4.288341 -2.060064 -0.26771578 -3.8824463 -1.2110984 -2.7242424 0.8619912 4.3548455 -2.0783477 2.118625 2.6109667 -3.3192606 -1.5397816 -1.4019964 0.7267017 3.4483721 -4.3181767 -1.8168666 2.0267148 -2.3819785 -2.5079854 -2.6438134 -1.3150036 0.05865987 -0.687466 -1.970516 -2.1388686 -3.051552 1.2232639 1.4369633 0.12107882 2.2514803 -2.4928231 2.702057 -2.9184775 0.7556905 -0.5331854 2.5250428 -0.8099997 0.10369657 -1.1251773 -0.7552741 -3.1568613 -1.1387484 -1.8341786 -1.4968096 0.24724686 -1.3804703 0.3343525 -0.18972982 -1.3533311 0.82667893 -1.8754746 0.44731998 -4.80832 1.3012786 1.8856124 0.4716229 0.18574728 1.7056171 0.9873017 -0.7881382 1.065682 -2.0565276 -0.30060065 -2.1795757 -1.9601357 -1.6793996 2.243636 0.6111511 -1.0603218 1.2189423 -2.399501 -0.3573881 -1.2366749 2.2281606 -0.1868773 -1.3779131 1.7307906 -0.08642204 -3.964239 0.86493933 -1.2531539 -0.085379794 1.1128522 2.3894117 -0.47299004 -1.5377483 0.98722506 -1.8507262 -0.6407344 1.0638211 -0.06259176 -3.535941 -0.68594056 -1.1933534 0.84634256 -0.012266166 -0.94007576 -0.13131051 3.1256144 1.3556715 -0.8355807 2.0961316 -0.69214964 -0.35792336 -1.4167346 -0.59653425 2.9651773 -3.027213 0.79168487 -0.7558453 4.9964247 -0.83459723 -1.1602472 -0.17853221 -0.58195484 -1.2449927 -2.8404424 2.7107642 0.8148513 -1.7234324 -2.7709148 0.17765132 -0.35577178 -0.17534547 -1.7044647 -1.0448538 -1.7123566 0.19282398 -0.68443185 -0.26563567 1.5128623 -0.73556644 -2.9580646 -2.3985496 0.463478 -0.88855004 0.17442237 1.8546674 -1.0980808 1.9655304 3.0194266 -2.5132906 -0.018523607 2.8865838 -2.3804169 0.5070008 1.461556
大 -0.40767738 0.1616565 -0.06828809 2.8330402 -1.8796761 4.0741205 -2.5979714 -0.19465865 0.061013073 -0.19739395 0.13239488 -1.3541207 3.5412607 -1.4853466 -2.6171153 5.3291864 -0.18706179 2.644612 -0.63789743 3.904978 1.2463782 4.538498 0.1814294 1.960587 -2.0193775 -1.1932489 -2.5940037 -0.89473206 -0.082957394 5.541651 0.8947527 2.361272 -2.6141417 -1.5723398 -1.5900569 0.5082829 -0.2515587 -1.8080239 -3.3708384 -1.6079634 1.2832123 2.1312332 -3.0576131 0.024230912 -5.7263384 3.455581 0.08008208 0.6078056 -0.27910864 -0.6137819 0.7039208 2.1375968 -1.8009528 -2.6454885 -1.4324918 -2.1406512 1.3594575 1.4978204 1.9309579 -0.76422614 0.94733804 2.4158998 -1.8984839 3.514489 4.19056 3.3353305 -0.7957036 3.518957 2.4527433 3.9067984 5.5456996 -1.2642751 0.4885703 -3.3720796 -0.8302854 -4.536718 4.5447025 -0.24530555 1.8125011 2.0423806 -2.6332006 1.0779374 1.995312 -0.46755546 -2.6401212 2.1648598 2.8076665 -3.1391087 -4.052843 1.1553875 0.36942253 0.53937536 -1.396136 -1.0548761 -0.21187001 -1.3693408 -1.6714245 -1.7529541 -2.2983756 3.069344 2.5679166 -0.49551868 0.9361802 -2.986062 -1.243295 4.8339586 0.47119167 -0.7218393 -1.799215 -0.35352504 -2.3015783 -0.14441039 -1.5584962 -1.1494255 1.1077108 -0.76391834 1.1705737 1.5951377 -3.8342583 -0.9011588 3.7775803 1.838339 2.7535632 1.7351521 -4.7093263 0.8765578 -1.4202992 0.18575856 -0.6004718 -0.53573877 -3.7267706 -0.028203271 1.2303078 -0.74066854 0.95960754 1.4399801 -1.9845731 -2.0708785 1.7993014 -1.0735873 0.08165819 1.344674 -1.171522 1.86332 -2.492514 -1.7068803 0.21700726 -0.053226348 -1.8685043 1.6788718 -2.7124887 -1.4111636 0.40896004 0.39310363 2.7303739 0.12868069 2.2912238 -0.72655815 1.1264374 1.7014444 -0.5123021 0.17554453 0.71875834 -1.1606945 1.0001224 0.6841394 0.16691434 2.0437286 -3.4166937 0.3294637 -1.527618 -0.2957836 -0.001165495 0.48165622 -0.9863006 -3.3969998 1.8794224 0.29676703 -1.4750772 4.5596967 0.22157188 -0.45081672 -0.7243284 -1.7176167 -1.1741511 0.256651 1.4413321 -2.6817176 -0.92695576 2.6900373 -0.62988144 1.823043 -0.50853485 0.30813077 0.15670897 3.1957128 1.3382285 -3.2744715 0.57327497 1.7333544 3.1325598 -1.661923 0.7424083 -1.3120979 -1.6662643 1.7645125 -0.8808494 -0.93313783 3.0438056 0.7700422 -1.2310914 -1.3907882 0.9011356 0.578076 -1.1556656 -0.9050335 -2.2115958 1.7618911 0.94764346 -1.2813286 -0.7786282 2.1308174 0.84977514 3.5051956 -0.67575526 5.738201 -1.4358134 -2.699123 0.073573224 3.4785974 1.13303 3.6702414 -1.5782694 0.92558885 0.4595491 1.001414 -1.9768926 -0.41106543 -0.16244924 1.9295604 2.3187797 1.0811994 -0.9433097 -1.1575676 -0.76804596 2.073008 1.4057616 1.7221906 1.0241281 1.6223505 -2.3880517 -0.8053684 -2.40882 1.1875839 -0.46670336 1.3709836 0.889308 -1.7566587 2.1308167 -0.9003927 -0.91100407 2.0924494 -2.4430087 -1.7210896 -0.010580955 0.23700725 -4.80371 1.070306 -1.3049716 1.1023772 1.2717696 -0.9451637 -3.0667913 -0.7470382 0.5466418 2.1266308 -5.2997866 1.7440218 -1.6968096 0.6309202 -1.6909833 1.1501771 -0.28211915 -0.61077183 1.9597759 -0.86910576 1.2062894 -2.2789035 -1.2333269 -1.58469 0.7988454 -1.5463098 -0.827032 -0.108200595 -1.0524852 1.9001169 -2.4422417 1.9896535 1.3149469 -3.3217492
月 -1.719017 -0.83043087 -1.6624035 1.5444399 3.708433 -0.1762602 2.4386852 1.1570785 -1.5042585 -1.3353504 -2.918718 -2.7083936 -2.301489 -2.3968394 0.25237828 1.0391394 -3.1428065 -2.240781 -0.55672646 -0.3438181 1.9619727 4.4868894 3.064835 0.8336992 0.6828892 -0.7790229 5.8951006 1.5335636 -1.6397469 -0.47545758 -1.2735611 -1.4855695 -1.8123343 -1.0759389 -0.72983605 -1.6998161 -2.458085 -2.3324165 1.7038039 4.813758 2.916095 0.8152326 4.99218 1.8182132 2.8895748 -1.0438195 -3.8917003 -3.9309962 0.06785392 -5.362851 -2.445297 3.3057554 0.06170251 2.0189402 4.3535104 2.2018268 3.3754 3.8730664 0.08992998 0.023415476 2.2523344 -1.1461474 -4.5927396 -0.49414253 -0.96621275 -3.63854 2.3411376 3.896084 -1.8173242 -1.2517945 3.816885 -4.005191 0.7480282 2.206473 -0.3327713 0.026678255 -4.02411 2.141781 -0.9554449 3.3259704 -0.35451335 0.91482466 1.963086 3.6275492 2.198438 -5.3183074 -1.7265487 2.7000272 4.318805 -1.7032762 -0.34589678 3.698969 -3.230843 -2.9574966 -0.52324295 -1.4864076 2.3173487 -2.513218 2.455008 -3.0795014 -5.2167187 1.7568552 3.577688 -0.31615344 -2.0945547 -1.369518 6.6825852 -1.5558546 1.9376686 0.34680697 -2.2619193 -3.0786214 -1.6853377 0.8763654 3.1116738 5.000198 1.6202455 -3.2083545 0.025475223 3.5052242 1.9162018 -0.8313765 -2.678834 5.116699 1.3626409 4.5538807 0.06173578 -0.17146872 -2.9550328 1.0405945 0.0877183 -2.2578063 -2.1037228 1.7779185 -1.2575774 -3.6804435 0.6372132 -1.8934501 -3.9570198 -4.617681 -1.9099652 -0.12990882 0.4802078 6.1112366 0.4117652 -2.0601602 -4.62411 0.95345724 1.5312937 -0.6751956 2.6496387 -2.6067646 -5.388355 -2.8686478 1.2925332 -3.506437 -3.2787905 5.5390396 7.076041 2.1283262 2.144411 2.5469716 -3.3015761 -1.8432248 -0.9027841 -0.18971024 3.0506551 0.7202768 -0.48119718 4.7844467 -3.862933 -1.9106076 -0.54403275 -3.0559316 -3.1809177 -5.0233746 -0.69536114 -2.296519 1.1728035 1.9542445 1.0427943 1.4677938 -0.12764041 -2.0951371 3.1389713 -2.3707626 1.9194751 1.9615873 4.8844166 0.945283 1.807461 -5.65773 -1.9992062 -2.1795907 -2.5713315 1.4143054 -2.7077968 0.8914538 -0.8735307 1.2911651 2.091392 -2.8799818 -1.1233115 -3.617841 3.0735774 -3.8354824 3.5338125 2.611652 -1.6747911 -3.6281786 2.3133345 1.4851713 -2.1387172 3.29509 -1.8644192 2.1136336 -3.1254644 -0.12784852 0.0026919458 -0.84547585 3.0935137 -0.416952 5.4275846 -2.630091 -3.3395789 -3.340099 1.1008562 0.038952705 -2.3586297 1.7975041 2.9586928 -4.0007653 -1.6560217 -3.4697068 0.07306407 2.3636057 1.1672004 -2.2767575 -0.91857535 0.47367913 -0.46862727 1.7344364 1.0642585 -0.09143807 -2.5918846 4.467425 -5.0275 -1.4616002 1.0932467 0.75796044 -1.8380888 1.210782 -1.6697335 -0.5309228 -0.39263344 4.3922324 0.78434086 -1.7923602 1.3183779 5.764248 -1.5377835 -0.43595362 -0.46694076 3.465808 -0.8449489 0.46355394 3.7083545 0.37373072 1.5504277 -4.0207953 2.2823281 1.9992137 -1.2134496 -2.202785 -1.648896 -3.1882563 1.5326214 -5.719785 -3.3927038 -1.4968013 0.7951122 1.6757084 1.2555565 -0.41580924 -0.9239935 -2.6548295 -0.87315434 -0.6845862 -1.4788862 -1.4543542 1.1536506 2.2834835 2.5970025 -2.3693523 -0.6617159 1.9490492 4.5139003 -2.5329616 2.3578076 2.2024112
日 2.000361 -3.42231 -3.9770668 -1.1763679 2.0963135 0.5484459 -1.4950211 -1.2500774 0.34969616 -0.74144864 1.9043081 -1.2932384 -2.4761896 -5.344529 -3.5333862 -4.505802 4.8056636 -2.8551116 1.697051 -1.4716661 2.3572514 1.1980585 0.78804386 -1.0288635 1.2624363 -3.9884067 0.78894705 1.7924483 1.0493163 -1.8376215 1.2214205 0.89054435 0.8499776 -0.22425999 1.6900063 3.0484273 0.8960145 -0.49453995 -0.39299968 1.9467096 2.6417074 0.7417223 2.0927246 -1.0367281 3.2145574 -4.632309 -0.8011269 -0.06905989 1.6827567 -1.2583495 -3.5835705 -1.1639476 0.07916258 -0.9582691 4.819852 -0.7305724 0.9750444 3.838308 -0.3247096 -0.89579993 3.838994 -4.575806 -2.4700487 2.1050737 1.0403192 -0.95684105 0.23066215 2.5440476 -5.365568 -1.6359568 1.7107899 1.6569748 1.0068662 -1.8526398 -0.16434632 1.5441701 -3.5127404 -0.77219385 -0.47663468 2.7393951 0.6437311 4.0590615 0.62710345 2.1560438 -1.5848354 -2.096306 -4.4402986 2.5671864 4.3164225 -1.0636595 -2.6471295 2.028475 -3.1541982 -0.63091654 0.23927227 0.21657531 1.3257303 4.025597 0.61173 -2.55627 -0.92036074 -1.054455 2.006324 -1.0100836 -4.798851 -1.25116 -2.667189 -2.0924978 -2.1599689 -0.17792186 -0.5171092 -0.46744168 -1.2782171 -2.9858696 1.0981396 1.9710732 3.4628665 -1.1190858 -0.77974486 1.3352757 4.0843434 -0.36822766 2.0848365 0.3367054 1.0139769 2.3547192 -3.1983027 -1.8633726 0.427337 -4.338144 2.6835785 0.35248446 1.4953988 4.217199 2.6614456 -0.15436928 -5.0166793 -0.96204984 1.7524134 -1.6124929 -4.1645427 2.7927284 3.560558 0.16519158 -1.2632613 4.9986515 -1.2339381 -0.49850973 1.9913719 -0.37530616 -1.530549 0.7855452 -0.8662838 2.4162023 -1.7880965 1.8077391 1.4190253 2.0833163 -1.0279918 0.4386377 2.3241172 5.9819093 -3.0264022 -3.0043812 0.6997432 -2.5693755 2.0749676 -1.5432171 0.04230378 1.1627545 1.3239943 -5.3556957 -0.8664715 0.08808858 0.38365108 1.1722811 0.5145587 -3.5586574 0.46697333 1.9596729 3.015434 0.53206336 2.5881448 -3.1377716 2.4214437 -1.7983725 -2.755568 -3.156782 0.29884818 -2.05956 3.1447325 2.9764583 -2.566061 -0.0483415 -0.43575564 -0.81493235 -1.9481564 -3.3094826 -1.3022677 -2.045861 -0.061583888 -3.1039066 0.38182715 -0.05175917 1.9485054 -2.7695453 0.00039610037 0.3125217 2.5961056 1.0259329 1.9278097 2.2852955 1.3435088 1.2084671 1.7418151 -1.0464909 -1.2877133 3.184474 0.29309776 -1.0307456 2.0615823 4.63368 1.8728321 -2.8419063 2.0734987 2.9308476 2.3110425 1.228413 -2.5922918 3.8499079 2.648563 -0.12918404 2.4619563 1.2042207 2.7521229 2.1495652 -0.42179334 -0.19790217 1.6877507 -0.2703464 -3.3713381 -1.5222815 -1.0408459 3.366327 -4.083688 -3.4413118 3.6467936 2.8963523 3.6692114 2.047851 3.2898686 -1.3992842 3.446771 -1.1634324 0.95708686 -2.258239 1.7151003 0.5505493 -1.8491787 0.14162208 -3.383828 0.50852346 -2.21892 4.027646 -4.368105 -0.92391145 1.9545798 -1.5954958 0.075451106 -2.5168204 7.003407 0.25168297 0.73821294 0.09281121 -1.3460134 1.1803844 1.2055147 -3.2590358 2.147053 0.8564234 0.5853276 -2.0058222 -1.5862105 0.1454255 -0.064672545 -3.0803068 -3.6620147 1.5616429 0.39690763 -0.60027254 1.3086998 0.19909343 2.838692 3.7984276 -0.37766004 1.2777728 -0.69978446 -2.1265476 -0.29968846 -0.59913653
