487 300
， 0.087188 -0.083633 0.10721 -0.1263 -0.046998 -0.041653 0.15713 0.21235 -0.099492 -0.027298 0.028807 0.14327 0.11107 -0.037373 -0.16636 -0.025241 -0.17596 0.049852 -0.088232 -0.080853 -0.10898 -0.41022 -0.005747 -0.020225 0.056626 -0.16833 0.096035 -0.043822 0.25335 0.04752 -0.12077 -0.0092408 -0.19673 0.086733 -0.058786 -0.22801 -0.040046 -0.022707 0.012567 -0.052396 -0.11283 -0.043414 0.02315 -0.057644 -0.10252 0.063352 -0.10178 -0.016612 0.045331 -0.12003 0.0011353 0.018533 0.16633 0.22029 0.14322 -0.026684 0.0079168 -0.19609 -0.11757 -0.165 0.19967 -0.01709 0.022053 0.13579 0.046656 0.085157 -0.094184 -0.088329 -0.19565 0.040091 0.12929 -0.01354 -0.16607 -0.15628 0.13578 0.070737 -0.12885 -0.047442 0.21969 0.007846 -0.16163 0.082341 -0.078695 -0.13869 -0.013303 -0.066916 -0.037013 -0.065904 0.02231 -0.11065 0.041565 -0.041096 -0.11025 -0.13112 -0.22904 -0.11283 0.056704 0.16388 -0.18429 -0.15595 0.065536 0.098473 -0.083382 0.2049 0.30578 -0.18089 -0.18997 -0.20322 0.034237 0.048737 -0.22447 -0.21836 -0.013264 -0.10066 -0.12627 -0.11161 0.13748 -0.14806 -0.094078 -0.12181 0.22517 -0.10815 0.116 0.16188 -0.10141 0.045965 -0.016177 0.066342 -0.29428 0.17682 0.093068 -0.06831 0.058439 0.080243 -0.00050077 0.27978 -0.12215 -0.012384 -0.19905 0.1071 0.15464 0.18576 0.1135 0.024976 -0.19228 -0.13303 -0.018223 -0.19485 -0.22976 0.079473 -0.17292 -0.2103 0.0071927 -0.015708 0.059403 0.13246 0.29884 -0.21617 -0.16781 -0.0036345 0.033223 -0.15193 0.067433 0.21702 0.1327 0.10584 0.095269 0.11284 0.13819 -0.29833 0.00088324 0.18725 0.061047 0.18071 0.13678 -0.25826 0.17611 -0.043901 0.13687 0.026833 -0.11483 0.20347 -0.18671 0.16991 0.024801 -0.019276 -0.052316 -0.30121 -0.13202 0.0011303 -0.036497 0.1179 0.20197 0.032697 -0.23436 -0.23403 -0.012816 0.11505 -0.1324 -0.20325 0.26693 0.010037 0.14164 0.014389 0.14208 -0.051864 -0.14433 -0.081847 -0.29573 0.08641 0.088925 0.092212 0.11223 0.30153 -0.012918 -0.077554 -0.015188 -0.0050336 0.18066 0.043527 -0.10362 0.051071 0.097742 0.059896 -0.11409 0.069284 0.056753 -0.13267 0.017119 0.22852 -0.17614 0.26966 -0.076472 -0.16898 0.002778 0.22424 0.061711 -0.12062 -0.13527 0.13634 -0.054786 -0.031323 0.2788 0.048347 0.20897 0.081706 0.017459 -0.11513 -0.057035 0.34437 -0.31864 0.097666 0.020299 0.18652 -0.11768 0.13932 -0.081849 0.10061 -0.036858 0.18016 0.07921 0.24619 0.29003 -0.021711 0.1509 0.22991 -0.11666 -0.029129 0.061056 0.080412 -0.25558 0.15543 0.0016098 -0.17344 0.043706 0.10861 0.052582 -0.10653 -0.090735 0.11542 0.15504 0.072663 -0.24235 0.25298 0.06613 0.13049 0.051127 0.048883 -0.13861 -0.0022634 0.15148 0.29339 -0.071283 0.0038238 0.09187 -0.1032 -0.16815 -0.15108 -0.10571 -0.13116
</s> 0.26994 -0.14759 -0.036558 0.25671 0.12735 -0.050535 0.20692 0.54221 -0.30085 -0.077477 -0.23781 0.070006 0.12188 -0.066862 -0.20254 -0.16917 -0.16153 0.10631 0.1897 -0.021792 0.025288 -0.055112 -0.24596 -0.33619 -0.15868 -0.075984 -0.0023834 0.13124 0.30963 0.19278 -0.17354 -0.09657 -0.19493 0.21372 -0.1688 -0.41306 -0.22352 0.13574 -0.15694 -0.017538 -0.16121 0.13372 0.044712 -0.023439 -0.0040478 -0.26758 -0.1591 -0.030528 0.12775 -0.13402 -0.11096 0.31352 0.29506 0.32873 0.34699 0.15227 0.040775 -0.21013 0.12833 -0.26662 0.1808 0.055101 0.067926 0.37397 0.037553 0.01806 0.12237 -0.2687 -0.30526 -0.10095 -0.038254 -0.16758 -0.29726 -0.19909 0.062002 0.039899 -0.024547 0.19595 0.20035 0.14231 -0.22928 0.34388 0.032253 -0.38752 0.071674 -0.14768 -0.062836 -0.016484 0.012545 -0.057069 -0.061279 -0.12372 -0.050088 -0.17935 -0.19231 -0.10898 0.12526 0.15868 0.089619 -0.11453 -0.050855 0.12196 0.10524 0.17126 0.30419 0.11991 -0.15905 -0.30893 -0.011497 0.23032 -0.24119 -0.45907 -0.21713 -0.15003 0.1056 -0.12839 -0.060079 -0.23488 -0.1288 0.1113 0.28483 -0.05958 0.31617 -0.0089198 -0.39883 0.030636 -0.11944 0.055794 -0.34783 0.41162 0.015525 -0.088896 -0.046715 0.36469 -0.24054 0.35633 0.1386 -0.026365 -0.49178 0.24753 0.0098983 0.12315 -0.21237 0.053127 0.12318 -0.11909 -0.01272 -0.45003 0.05938 -0.13544 -0.35921 -0.022963 -0.15372 0.36305 0.074592 0.026936 0.39569 0.17888 -0.3623 0.089032 0.028663 -0.035505 0.41664 -0.015226 0.29692 -0.24013 -0.081306 0.042784 0.26681 -0.39935 0.15593 0.032678 -0.0077476 0.20493 0.051579 -0.29955 -0.075929 -0.16488 -0.15386 -0.065333 -0.20187 0.19811 -0.29519 0.21554 0.028121 0.12343 -0.0018809 -0.13514 -0.063456 -0.11216 0.012685 -0.043859 0.1705 -0.2775 -0.11568 -0.21139 -0.20001 0.22345 -0.014952 -0.4026 0.1683 0.0034989 0.16004 -0.070586 0.18441 0.088379 0.22691 0.16018 -0.14036 0.1217 -0.12655 0.2669 -0.046466 0.42976 0.1224 -0.14744 -0.095444 0.019149 0.17022 0.0074445 0.018483 0.04121 -0.13109 0.15416 -0.28766 0.24848 0.11654 0.29762 0.058613 -0.0076445 -0.19167 -0.091238 -0.037641 -0.076629 -0.17348 0.13378 -0.14103 0.1184 -0.11565 -0.14631 0.035501 -0.034725 0.1628 -0.020962 0.40133 0.4313 -0.046318 0.31161 0.14991 0.58357 -0.26765 0.3621 -0.3931 0.31406 -0.068267 0.025441 -0.20881 0.079337 -0.04606 -0.070766 0.074661 -0.11789 0.32255 0.017052 0.045345 0.056216 -0.23465 -0.18563 -0.035002 0.011015 -0.049673 0.15311 0.067894 -0.017347 -0.15538 0.23589 -0.11582 -0.028789 0.40584 0.21159 0.11949 0.38393 -0.22797 0.62354 0.020045 0.20904 0.1823 0.12337 -0.1244 0.16482 0.027795 0.15512 0.026378 0.11012 -0.084151 -0.36784 -0.6073 0.084624 -0.23875 0.25016
的 -0.11463 0.0019777 -0.047054 0.0011646 -0.13761 -0.042965 0.14379 0.33211 -0.0032885 -0.027554 -0.064878 -0.13278 0.16561 -0.098097 -0.09685 -0.091594 -0.24489 -0.12541 0.069333 -0.05262 -0.057513 -0.23111 -0.15945 -0.045469 -0.048683 -0.075584 0.016213 0.10915 0.31165 0.048399 -0.14724 -0.14504 -0.22719 0.12798 -0.10924 -0.041088 -0.058998 -0.17637 -0.073748 -0.088698 0.11059 0.025447 0.095104 -0.068454 0.019715 0.086752 -0.24629 -0.033597 0.021329 -0.1451 -0.063623 0.098691 0.3105 0.24933 0.25337 0.11453 -0.059668 -0.24536 0.0025928 -0.055854 0.202 -0.061643 -0.026946 0.10178 0.056866 0.1594 -0.067243 -0.12468 -0.19265 -0.035817 0.087144 0.17759 -0.30303 -0.15003 -0.046525 0.23265 -0.14009 -0.10784 0.16871 0.051353 -0.1694 0.068811 0.11987 -0.14252 -0.005846 -0.11979 -0.10102 -0.18037 -0.011229 0.0011549 -0.053415 -0.12977 -0.092038 -0.07467 -0.19707 -0.091482 0.26479 0.10196 0.052605 -0.13705 0.11219 0.08995 -0.032288 -0.020057 0.22039 -0.058337 -0.14717 -0.20719 0.0004735 0.036763 -0.14094 -0.24468 0.053961 -0.079236 -0.0169 -0.079725 0.16686 -0.2138 -0.16936 -0.14191 0.16973 -0.018341 0.30769 0.16054 -0.24183 0.071303 -0.25475 0.017656 -0.20871 0.19683 0.054389 -0.086324 0.12625 0.24604 -0.005585 0.19344 -0.12669 0.056838 -0.2178 0.070892 0.12142 0.086402 0.080696 0.054677 -0.082671 -0.22123 -0.037673 -0.32565 -0.11099 0.076527 -0.041276 -0.32302 -0.061715 0.073964 0.086151 0.20798 0.40458 -0.07077 -0.10773 0.076649 0.064062 -0.09999 0.16565 0.081562 0.18083 -0.004728 -0.0070155 0.077167 -0.032328 -0.40146 -0.079204 0.17689 0.062759 0.22591 0.082773 -0.25743 0.15765 -0.17826 0.070946 0.0045158 -0.15027 0.16486 -0.20765 0.19572 0.24225 0.067303 -0.098504 -0.12309 -0.1134 0.043628 -0.0080476 0.069131 0.16663 -0.014941 -0.14832 -0.28226 0.017698 0.11774 -0.073764 -0.36037 0.17413 0.24665 0.25888 0.078778 0.14702 0.0036886 0.039121 0.10487 -0.29791 0.16909 -0.071627 0.32513 0.025104 0.33672 -0.035754 -0.085045 0.0044763 -0.059294 0.098629 -0.018023 -0.026847 0.050309 0.025056 0.11357 -0.2321 0.28681 0.13717 -0.015848 0.029172 0.2221 -0.28589 0.22354 -0.14862 -0.55595 0.048323 0.18341 -0.031529 -0.073209 -0.05658 0.18707 0.054704 0.0093212 0.28988 0.072235 0.30345 0.12557 0.14063 -0.056277 0.21524 0.45391 -0.33868 0.12571 0.0040288 0.28528 -0.02341 0.10566 -0.079678 0.055125 -0.083524 0.16551 0.087189 0.29925 0.26108 -0.039056 0.22387 0.087009 -0.096204 -0.15888 0.066753 -0.03333 0.042924 0.16997 0.063443 -0.10902 -0.15668 0.25225 0.0073712 -0.15613 0.018704 0.1087 0.098007 0.049883 -0.2904 0.27725 0.0072497 0.16602 0.025012 0.026752 -0.28935 0.069333 -0.012273 0.17503 -0.078031 -0.052336 -0.00080372 0.11056 -0.17787 -0.16307 -0.05695 0.0924
。 0.081827 -0.016241 0.13489 0.11825 -0.099274 -0.018717 0.23737 0.26307 -0.098893 -0.037606 -0.04331 0.039333 0.15297 -0.077214 -0.25 -0.037806 -0.30813 0.0097702 -0.01261 -0.10902 -0.13906 -0.27096 -0.076769 -0.096313 0.073838 -0.16169 0.026717 0.026694 0.31878 0.19823 -0.11545 0.075546 -0.1842 0.17233 -0.090665 -0.27956 -0.16512 0.030772 -0.021656 0.015571 -0.09035 0.027343 0.022153 -0.061552 -0.032574 -0.074302 -0.11116 -0.017996 0.074066 -0.10432 -0.0094168 0.061623 0.25387 0.13027 0.21503 0.021395 0.036269 -0.21279 0.10905 -0.11619 0.31183 0.04664 -0.0054013 0.27678 0.081399 -0.012862 -0.0094375 -0.075739 -0.21034 0.10468 0.064127 0.046819 -0.15597 -0.12182 0.042799 0.12128 -0.20802 0.008499 0.20706 -0.0095125 -0.14373 0.11131 -0.057694 -0.21403 -0.071232 -0.09036 -0.084441 -0.061071 -0.043502 -0.049441 -0.022869 -0.11911 -0.084564 -0.11965 -0.33859 -0.17831 0.085989 0.14132 0.028566 -0.20465 0.10166 0.038967 0.026676 0.18723 0.2976 0.062824 -0.1633 -0.14036 0.02704 0.11978 -0.19271 -0.29722 0.068235 -0.22012 -0.085977 -0.063602 0.00061014 -0.20962 -0.17729 -0.13779 0.25249 -0.035137 0.18165 0.1603 -0.26037 0.055748 -0.087458 0.093392 -0.33753 0.26354 0.086238 -0.027219 0.1084 0.23259 -0.016491 0.24959 -0.12317 0.10538 -0.30197 0.088636 -0.028853 0.16246 -0.079573 0.058121 -0.070492 -0.072776 0.028835 -0.21118 -0.12422 0.0031348 -0.11238 -0.087238 -0.083632 -0.0052913 0.06046 0.10025 0.29693 -0.064994 -0.13694 0.12801 0.044309 -0.1159 0.11924 0.12014 0.15383 0.1366 0.11462 0.13049 0.029571 -0.35902 0.069142 0.10465 0.086318 0.10524 0.15448 -0.20621 0.049185 -0.060025 0.043461 -0.023467 -0.074871 0.17745 -0.24193 0.18614 0.10129 -0.07038 -0.055216 -0.22697 -0.15887 0.076064 0.0208 0.023124 0.14785 -0.078741 -0.17488 -0.1739 -0.08995 0.17809 -0.10026 -0.40793 0.21383 0.017869 0.087943 -0.042498 0.16143 -0.040442 -0.062968 0.023661 -0.36203 0.17017 0.012027 0.10075 -0.095162 0.43375 0.052961 -0.157 0.014252 0.030533 0.11522 0.10097 0.048537 0.08886 0.03529 0.13274 -0.033763 0.15155 0.11083 -0.03144 0.070624 0.13538 -0.23836 0.20907 -0.15795 -0.12302 -0.075356 0.11781 0.015835 -0.13909 -0.14302 0.061066 -0.021186 0.10944 0.19627 0.054053 0.20607 0.21892 0.098322 -0.071182 0.023802 0.46556 -0.37352 0.12199 -0.13069 0.24181 -0.166 -0.0032243 -0.096409 0.088166 -0.036142 0.1578 0.15325 0.13874 0.27793 -0.039927 0.13782 0.1031 -0.086245 0.050342 0.059118 0.031218 -0.19392 0.075399 0.027509 -0.11781 -0.032363 0.15347 0.065539 0.013716 0.061009 0.14962 0.11385 0.051967 -0.22031 0.35668 -0.025899 0.070919 0.12477 0.031208 -0.23648 0.066516 0.14208 0.29845 -0.12474 -0.035738 -0.020334 -0.23868 -0.24429 -0.060776 -0.034697 0.029484
" 0.32669 -0.2312 0.068258 -0.15694 0.27862 0.16091 0.31257 0.56239 -0.38881 -0.29589 -0.39269 -0.026085 0.084733 0.0073104 -0.14774 -0.15747 0.51612 0.29553 0.46292 0.17604 0.12939 -0.16401 -0.15936 -0.48979 -0.46943 -0.1861 -0.22783 0.092009 0.19453 0.09732 -0.24103 -0.23759 -0.25964 0.025726 -0.12214 -0.4375 -0.1173 -0.11839 -0.40542 -0.32715 0.039519 -0.10235 0.04518 0.14123 0.020415 0.1427 -0.38304 -0.25162 0.16897 -0.085735 -0.28476 0.57784 0.48335 0.22025 0.36476 -0.054584 -0.069572 -0.44213 -0.12882 -0.2891 0.11765 0.053433 0.092079 0.25749 0.081253 0.26402 0.14627 -0.27027 -0.039923 -0.29884 0.015307 -0.46147 -0.28474 -0.6185 -0.18747 -0.19976 0.17881 0.1622 0.060908 0.30207 -0.12753 0.41524 -0.16593 -0.46179 0.10172 0.16484 -0.2089 -0.018235 0.39575 0.14718 0.2029 -0.19584 -0.071942 -0.14029 -0.076903 -0.041562 0.028589 -0.095298 0.03747 -0.00072551 0.076426 0.15345 -0.060926 0.38022 0.25267 0.20801 -0.32859 -0.43226 -0.072459 0.23327 -0.12944 -0.14254 -0.085911 -0.14102 -0.092243 -0.35256 -0.32131 -0.51086 -0.042109 0.32553 0.33438 -0.081726 0.077355 -0.10956 0.0082736 0.32929 -0.012243 -0.016684 -0.21845 0.56882 -0.26872 0.15793 -0.40029 0.19421 -0.29215 0.1501 0.33797 0.20638 -0.6809 0.45943 0.16454 -0.18855 -0.077813 -0.053771 -0.023175 -0.26559 -0.29273 -0.22374 -0.066023 0.034006 -0.43474 -0.54205 0.28351 0.4736 -0.065394 -0.28066 0.35241 0.30027 -0.34781 0.10733 -0.27586 0.17506 0.88792 0.15591 0.1871 -0.62902 -0.40541 -0.095691 0.24223 -0.55233 -0.23079 0.10388 0.18747 0.5822 -0.13043 -0.35052 0.31252 -0.51849 -0.084489 -0.20199 -0.31167 0.16543 -0.027618 0.32545 -0.077767 0.395 -0.26932 -0.30933 -0.0069882 -0.46693 -0.10704 0.07174 0.54736 -0.090304 -0.28475 -0.44374 -0.070171 0.43019 0.14439 -0.90224 0.14699 -0.26992 0.16537 0.30739 0.15532 0.19106 0.44606 0.29655 -0.24361 -0.006327 -0.41819 0.27491 0.0064095 0.3569 -0.055053 0.16837 -0.29698 0.026057 0.073679 0.052846 0.18989 0.36649 -0.12282 0.038218 -0.76837 0.44771 -0.044803 0.27967 0.15541 -0.23941 -0.11234 -0.8471 0.3622 -0.49515 -0.13508 0.34502 -0.37949 0.32723 -0.31806 -0.18689 0.029434 -0.15202 0.27638 -0.10783 0.46738 0.42956 0.10053 0.74646 -0.16945 0.51656 -0.12571 0.73563 -0.3015 0.20081 -0.12235 0.018463 -0.18711 0.18195 -0.022803 -0.090018 0.36895 0.091983 0.086455 0.10087 -0.061127 -0.26384 -0.43759 -0.16433 0.06021 -0.49098 0.029223 0.11714 0.16185 -0.14161 -0.087136 0.34452 -0.28868 -0.28373 0.45046 0.51016 0.018528 0.4357 -0.30322 0.31138 0.0066676 0.30394 -0.10261 0.18035 -0.075852 0.095924 -0.11768 0.15565 0.25129 0.27798 -0.265 -0.55585 -0.43737 0.44105 -0.10862 -0.10411
/ 0.39167 -0.3092 0.13861 -0.014564 0.25254 0.30144 0.30644 0.7911 -0.32842 -0.39867 -0.28303 0.048902 -0.025001 0.0088011 -0.16239 -0.28557 0.47604 0.051345 0.50597 -0.010319 0.059462 -0.14238 -0.0024213 -0.47674 -0.38203 0.0065385 -0.2273 0.043041 0.067154 0.14593 -0.22449 -0.043886 -0.26925 0.29076 0.00077061 -0.53135 -0.13856 -0.044168 -0.16282 -0.19108 0.069938 -0.0019855 0.12449 0.18594 0.11017 0.0746 -0.20765 -0.22034 0.19708 -0.026789 -0.25549 0.3501 0.43762 0.44856 0.39637 -0.044843 0.18444 -0.33793 -0.07142 -0.30772 0.1307 0.10981 0.10152 0.32758 0.13177 0.1924 0.25907 -0.2117 -0.236 -0.20392 0.054349 -0.34401 -0.2619 -0.63861 -0.18272 -0.34586 0.13775 -0.084962 0.27671 0.28587 -0.16402 0.37653 0.0034895 -0.64676 0.033123 0.062294 -0.22206 -0.098367 0.38973 0.069257 0.10202 -0.15564 -0.13218 -0.076831 -0.039595 0.033193 -0.023258 -0.10303 0.1757 -0.099373 0.019886 0.2161 0.057639 0.42854 0.29553 0.26595 -0.40862 -0.32329 -0.069281 0.16596 -0.27495 0.089906 -0.13732 -0.26431 0.25639 -0.34527 -0.38972 -0.63451 -0.093664 0.33954 0.45147 -0.059366 0.04347 -0.045651 -0.10577 0.25326 -0.1006 -0.11171 -0.20641 0.46399 -0.22339 0.22411 -0.38252 0.072184 -0.30056 -0.011247 0.55258 0.35111 -0.57687 0.46928 0.32334 -0.24943 -0.096585 0.010742 0.15896 -0.078872 -0.30786 -0.085768 -0.1755 -0.10309 -0.52269 -0.4587 0.42555 0.43129 -0.18807 -0.28297 0.24612 0.21042 -0.35034 -0.026271 -0.27161 0.26515 0.81013 0.10936 0.24232 -0.60958 -0.57131 -0.01577 0.13042 -0.67183 -0.089309 0.03801 0.25722 0.70955 -0.10431 -0.42142 0.27508 -0.38999 -0.10342 -0.31467 -0.3391 0.098055 -0.16568 0.286 -0.29748 0.47901 -0.21317 -0.31472 0.082247 -0.5795 -0.019916 0.10506 0.52401 -0.03888 -0.29258 -0.49091 0.02138 0.45598 0.16259 -0.90784 -0.076484 -0.26391 0.11667 0.40836 0.029188 0.22232 0.35863 0.13842 -0.30784 -0.051268 -0.37895 0.14323 -0.03078 0.32249 -0.1617 -0.049426 -0.29027 -0.12836 0.15264 0.103 0.25389 0.17258 -0.16736 -0.009172 -0.80659 0.39828 0.12752 0.15394 -0.07251 -0.3024 -0.018533 -0.82046 0.4245 -0.59498 -0.16476 0.29238 -0.23439 0.42965 -0.35697 -0.38124 0.10383 -0.10561 0.31608 -0.035677 0.73009 0.341 -0.047667 0.83666 -0.26477 0.74903 -0.34501 0.70563 -0.29285 0.040859 -0.20922 -0.060853 -0.30227 0.39371 0.12553 -0.035802 0.24871 0.10674 0.23564 0.21371 0.15128 -0.29176 -0.46692 -0.28564 0.17435 -0.37064 0.12807 0.19902 -0.019676 -0.19615 -0.059927 0.11482 -0.36406 -0.18714 0.45777 0.46675 0.12407 0.53537 -0.21341 0.56308 -0.037089 0.29692 -0.044345 0.11445 0.037035 0.26067 0.065932 0.24161 0.45131 0.34232 -0.35859 -0.52066 -0.56419 0.59215 -0.20284 -0.01537
= 0.52859 -0.29518 0.080752 -0.094673 0.23496 0.34121 0.39641 0.48409 -0.37743 -0.40285 -0.53408 0.15878 0.12267 0.0084586 -0.1303 -0.38392 0.56763 0.17705 0.55175 0.083852 0.19682 -0.15989 -0.16212 -0.58567 -0.48392 -0.093405 -0.30882 0.094553 0.20569 0.22363 -0.27408 -0.32301 -0.26027 0.14278 0.04104 -0.47229 -0.10526 -0.12057 -0.30879 -0.3259 0.21424 -0.15424 0.0092612 0.094018 0.026418 0.16339 -0.28096 -0.21388 0.18215 -0.057965 -0.4122 0.46359 0.49535 0.28413 0.27564 -0.1391 -0.017161 -0.50802 -0.215 -0.44866 0.067962 0.006398 0.17662 0.25851 0.035355 0.23096 0.14864 -0.39916 -0.15702 -0.35466 0.031444 -0.42509 -0.23921 -0.63245 -0.26218 -0.18851 0.21222 0.0026329 0.036341 0.30189 -0.10411 0.44746 -0.1321 -0.67259 0.024386 0.26037 -0.22981 0.060247 0.48109 0.090358 0.16495 -0.1539 -0.20533 -0.096107 0.035357 0.0244 0.025987 -0.10956 0.10944 -0.015391 0.059222 0.21577 -0.0031703 0.37606 0.25592 0.20762 -0.40886 -0.34435 -0.044758 0.21349 -0.17759 -0.014568 -0.049634 -0.17701 0.044507 -0.33192 -0.4903 -0.63991 -0.10297 0.4382 0.42743 -0.067386 0.096015 -0.12046 -0.012345 0.38193 -0.063551 0.016885 -0.19567 0.61325 -0.32925 0.26181 -0.4024 0.098433 -0.20959 -0.035479 0.38522 0.37331 -0.60737 0.52515 0.098302 -0.2945 0.043766 -0.19712 -0.042815 -0.26136 -0.43307 -0.066157 -0.062565 0.08186 -0.57016 -0.69391 0.41028 0.52313 -0.16565 -0.44872 0.42096 0.32183 -0.30158 -0.0070087 -0.32248 0.10155 1.0131 0.1209 0.33477 -0.83552 -0.47935 -0.046428 0.1375 -0.61419 -0.26589 0.062375 0.3197 0.55783 -0.24678 -0.39133 0.43394 -0.63475 -0.098228 -0.28296 -0.48732 0.14944 -0.046794 0.28666 -0.27409 0.53931 -0.26973 -0.3001 0.061028 -0.61167 -0.10897 0.11 0.52117 -0.005883 -0.23556 -0.58511 0.16298 0.5076 0.082584 -0.94709 0.044776 -0.25135 0.18023 0.43423 0.09196 0.42807 0.39015 0.28367 -0.29605 0.012898 -0.55233 0.26407 -0.13929 0.29203 -0.17188 0.28034 -0.41137 -0.056443 0.11984 0.040183 0.29129 0.4219 -0.15391 0.12843 -0.86745 0.56053 -0.089119 0.32013 0.040695 -0.327 0.013607 -1.0309 0.38824 -0.56231 -0.07707 0.38654 -0.37328 0.31231 -0.19161 -0.19309 0.13272 -0.16105 0.2477 -0.055933 0.73654 0.47146 0.076065 0.94666 -0.2235 0.51718 -0.19151 0.77918 -0.28892 0.046275 -0.15707 -0.057773 -0.10942 0.26582 -0.053605 0.026511 0.41724 0.042057 0.086556 0.1104 0.024283 -0.28281 -0.5403 -0.26425 0.15582 -0.61189 0.094979 0.16627 -0.037182 -0.11795 -0.0024358 0.33683 -0.36707 -0.34259 0.46554 0.52082 0.014478 0.52144 -0.325 0.36988 -0.031162 0.31733 -0.21339 0.2007 -0.087006 0.22458 -0.12092 0.1617 0.41724 0.34635 -0.38227 -0.59349 -0.41007 0.5861 -0.20918 -0.1079
、 -0.059589 -0.28936 0.095033 -0.1442 -0.093933 0.081106 0.13371 0.39704 0.11148 -0.15151 -0.23226 0.35553 0.14374 0.1351 -0.22108 -0.068848 -0.028881 -0.12377 0.12804 -0.054904 0.010505 -0.19632 0.15038 -0.07433 0.050892 0.1317 -0.030239 -0.036336 0.19449 0.18638 -0.012197 0.097722 -0.058151 0.44349 -0.13832 -0.41787 -0.15235 0.10942 -0.092465 -0.060333 0.037384 -0.18055 -0.12009 -0.22384 0.15004 0.36969 -0.045153 0.16513 0.13429 -0.095732 -0.12544 0.2706 0.094121 -0.095019 -0.017263 0.052397 -0.072683 -0.27159 -0.12602 0.039165 0.090884 0.10783 -0.11915 0.11669 -0.19183 0.20932 0.034727 -0.27632 -0.21242 -0.035496 -0.13522 0.17531 0.012564 -0.063431 0.0029106 -0.11931 0.033826 -0.1625 0.13361 0.20202 -0.34409 0.36771 0.21348 -0.35902 -0.024372 -0.059259 0.15744 -0.061052 -0.23938 -0.19605 0.16299 -0.10699 -0.47919 -0.2131 -0.18224 -0.16508 0.11211 0.11856 -0.34541 -0.21332 0.16911 -0.04244 -0.033612 0.33201 0.113 0.026108 -0.37295 -0.36648 0.062491 -0.025518 -0.3651 -0.19226 0.063589 -0.25881 -0.38424 0.014986 -0.12054 0.13683 -0.028735 -0.037052 0.29535 -0.033238 0.13692 -0.15786 0.23529 -0.26507 -0.073196 0.072353 -0.054589 0.20289 -0.27162 0.20969 0.06578 0.13336 0.1764 0.33332 -0.10751 0.20156 -0.53681 0.27698 -0.26768 0.29176 0.099941 -0.030774 -0.038746 -0.22497 -0.23441 -0.15805 0.017677 -0.19588 -0.039439 -0.38375 0.16612 -0.012746 0.011132 -0.2427 0.1378 0.071607 -0.28327 -0.00023397 -0.14525 -0.065203 -0.24394 -0.018302 0.048465 0.38199 0.035957 0.31619 0.38479 -0.42751 -0.12063 0.13602 0.24152 0.082161 -0.049779 -0.28272 0.04598 -0.17717 0.0027627 0.0058339 -0.23932 0.062993 -0.043855 0.25494 -0.19961 0.30938 0.04333 -0.24369 -0.070817 -0.15362 -0.11584 0.036804 0.4356 -0.1879 -0.42241 0.010335 0.3027 0.12229 -0.024723 -0.088685 0.0083905 0.29116 -0.021597 -0.077715 0.19724 0.19052 -0.33921 0.24137 -0.093018 -0.1687 -0.21905 -0.035386 0.071118 -0.10593 0.032545 -0.032424 -0.005742 -0.2034 0.19188 0.20737 -0.034438 0.5181 -0.10756 -0.12321 -0.0089664 0.35905 -0.036724 0.12428 -0.063951 0.15219 -0.051279 -0.15836 -0.15221 -0.026822 -0.13724 -0.15384 -0.16966 0.080044 -0.10276 0.18821 0.11683 -0.1182 0.2969 0.15635 0.27596 0.070909 0.28091 0.29136 0.16776 0.080848 -0.49227 -0.0079849 -0.19646 0.12355 -0.22353 -0.004572 0.20294 0.22493 0.088208 0.097822 -0.061871 0.30702 -0.018368 0.14417 0.20774 -0.037152 0.10889 0.32959 -0.15784 0.03734 -0.04245 0.16495 0.12828 -0.21758 -0.12416 0.17214 0.088425 -0.21859 -0.064706 0.096468 0.46387 -0.2598 -0.27566 0.23934 -0.17515 0.15073 0.1505 0.19913 -0.075825 0.046403 -0.012853 0.0092197 0.40749 0.088393 -0.040727 -0.27959 -0.11667 -0.13372 -0.054538 0.18819
. 0.22817 -0.37059 0.15727 -0.049106 0.18423 0.16909 0.27896 0.62573 -0.34226 -0.36476 -0.25278 0.091909 0.099701 -0.0175 -0.16622 -0.29565 0.47239 0.20319 0.35454 0.16361 -0.014134 -0.068615 -0.20676 -0.50945 -0.68559 0.069869 -0.38192 -0.016521 0.20175 0.068857 -0.21552 -0.15832 -0.26404 0.15318 0.0033611 -0.44986 -0.019736 0.03695 -0.44785 -0.21821 0.1254 -0.01131 0.082733 0.11205 0.0010298 0.021531 -0.38391 -0.019831 0.096027 -0.067014 -0.24544 0.33667 0.35009 0.24706 0.31697 -0.050064 -0.044836 -0.41181 -0.21661 -0.33434 0.12152 0.052025 0.1481 0.17552 0.071056 0.23435 0.075476 -0.13929 -0.14473 -0.36928 -0.020813 -0.36573 -0.20741 -0.6119 -0.15735 -0.30257 0.19997 0.1074 0.17018 0.2638 -0.34154 0.4659 -0.11002 -0.48763 0.16174 0.22992 -0.12158 0.0084505 0.44331 0.12399 0.19667 -0.078401 -0.018693 -0.13724 -0.049944 0.11166 0.038291 -0.22293 0.072837 -0.087873 0.18478 0.16293 0.028753 0.40409 0.19492 0.20966 -0.40428 -0.36707 -0.12028 0.28481 -0.14117 0.097165 -0.10949 -0.2129 0.15573 -0.32707 -0.38539 -0.43519 -0.025548 0.33681 0.29638 -0.0034103 0.085208 0.01575 -0.071753 0.26933 -0.0074195 -0.039643 -0.17654 0.55048 -0.18613 -0.0046086 -0.31819 0.11777 -0.35202 -0.0022143 0.51975 0.34379 -0.71745 0.29341 0.28732 -0.23602 -0.1171 -0.050697 -0.012819 -0.26663 -0.20504 -0.28187 -0.11884 -0.023745 -0.50649 -0.53803 0.28586 0.44603 -0.1884 -0.22804 0.22843 0.34926 -0.38318 0.06819 -0.39593 0.10072 0.68567 -0.0064746 0.11882 -0.61844 -0.37066 0.0086072 0.10142 -0.55648 -0.15817 0.031979 0.19192 0.68743 -0.16499 -0.42146 0.39327 -0.453 -0.085541 -0.30602 -0.36423 0.11274 -0.037815 0.24984 -0.29321 0.47182 -0.3052 -0.35984 -0.038197 -0.41389 0.025608 0.1755 0.42481 -0.016285 -0.33464 -0.59584 -0.023786 0.49127 0.15907 -0.88566 0.077895 -0.19547 0.056225 0.37415 0.047303 0.16613 0.42158 0.15865 -0.19832 -0.13748 -0.39878 0.15121 -0.0071031 0.22278 -0.30656 0.082462 -0.31175 -0.18102 0.061138 0.15326 0.23955 0.26282 -0.067694 0.18237 -0.72225 0.36889 -0.04221 0.19543 0.067112 -0.085403 -0.12422 -0.80085 0.32704 -0.47379 -0.19212 0.34296 -0.17708 0.45186 -0.29022 -0.29178 0.081088 -0.13076 0.3593 -0.15306 0.67408 0.40279 0.17104 0.63632 -0.16117 0.44111 -0.30974 0.76078 -0.36908 0.26844 -0.10133 0.054928 -0.074092 0.23836 0.012385 0.023282 0.24217 0.060427 0.17582 0.16194 -0.021086 -0.34344 -0.43026 -0.37597 0.21309 -0.42531 0.060405 0.15233 0.15221 -0.19507 0.041207 0.2611 -0.31909 -0.1398 0.3443 0.31437 0.00044836 0.26977 -0.28252 0.38849 0.033769 0.37806 -0.073897 0.23158 -0.19347 0.19366 0.12986 0.15106 0.21912 0.28991 -0.31739 -0.47913 -0.43936 0.44771 -0.14448 -0.029453
年 0.15236 0.040314 0.063196 0.0041466 0.046387 0.2797 0.1085 0.067443 -0.28785 -0.1023 -0.20589 0.18655 0.069655 0.085208 -0.088562 0.08889 -0.22454 -0.22262 -0.014027 0.029262 -0.32999 -0.37522 -0.037245 -0.055246 -0.070967 0.031863 0.37638 0.1392 0.018606 0.033692 -0.22004 0.069481 -0.081656 0.12313 -0.13723 -0.4 -0.027924 0.043944 -0.1152 0.013055 -0.176 -0.28274 0.060543 0.027629 0.13539 -0.081303 -0.16575 0.060222 0.21232 -0.23146 -0.20211 0.5594 0.081837 0.029752 0.14701 0.030809 0.019287 0.0033684 -0.20041 -0.13539 0.28625 0.11369 -0.12224 0.3666 0.37243 -0.0049157 -0.0086033 0.06848 -0.34043 -0.035152 0.31154 0.080115 -0.027445 -0.060886 0.075415 0.11163 0.10025 -0.156 0.1392 -0.25246 -0.18775 0.078159 -0.33355 -0.4297 -0.19634 -0.08356 -0.37303 -0.023429 0.12454 -0.071897 0.22622 0.029352 -0.31543 -0.22436 0.052147 0.16702 -0.22908 0.0023892 0.078621 -0.26093 -0.10719 -0.056152 -0.017776 0.3683 0.21219 -0.047236 -0.49964 -0.42237 0.030725 0.10935 -0.10794 -0.07804 0.26785 -0.19198 0.25565 -0.018044 0.11967 -0.50582 -0.16559 0.085462 0.6132 0.10914 0.18754 0.22537 -0.2158 0.30873 0.15798 0.24127 -0.23978 0.19278 0.46316 -0.26294 0.0895 0.030303 -0.24754 0.15362 -0.12166 0.067796 -0.18752 0.039239 0.0033998 -0.0038092 0.085698 0.045845 -0.29528 -0.27451 -0.17719 -0.055871 -0.29415 -0.17433 -0.1561 -0.39149 0.12791 -0.047466 -0.16421 -0.0097837 0.1496 0.044276 -0.35288 0.28526 0.032104 0.010157 0.015998 -0.042721 0.080551 0.10898 -0.22518 0.47613 0.030701 -0.23369 0.12527 0.31149 -0.0021627 0.19062 -0.050529 -0.50265 0.090438 -0.035771 0.060221 0.019681 -0.012816 0.36843 -0.34645 0.31753 0.0036086 -0.037516 0.14165 -0.32689 -0.18489 0.080009 0.030031 -0.11474 0.26041 -0.0058486 -0.086301 -0.21029 -0.090838 0.0099617 0.027386 -0.38867 0.1425 -0.15103 0.22923 0.077997 -0.10958 -0.19987 -0.07809 -0.22485 -0.17267 0.036032 -0.060778 -0.14141 -0.19438 0.12422 -0.044169 0.021818 0.075104 -0.19738 0.090748 0.31535 0.066209 0.12453 0.031058 0.1277 -0.15225 0.084004 -0.061709 -0.027752 -0.03155 0.023571 -0.16758 0.14779 -0.091679 0.060642 0.019829 0.43689 0.030123 -0.3368 -0.05627 0.24157 0.073247 0.42547 0.15317 -0.094015 -0.0060003 -0.013671 -0.0079536 -0.13857 -0.21726 0.47061 -0.53932 0.25386 -0.2627 0.065794 -0.11055 -0.084867 -0.21029 0.035119 -0.084391 0.22726 -0.14973 0.33738 0.20393 -0.069579 0.22027 0.15903 -0.27656 -0.16074 0.31843 -0.27521 -0.34827 0.49087 -0.054065 0.079635 0.056122 0.16654 0.38495 -0.19352 -0.025213 0.069205 0.015739 0.10466 -0.11467 0.32733 -0.066655 0.034367 0.10773 -0.15914 -0.48293 0.063561 0.21927 0.16196 -0.17065 -0.015596 0.034183 -0.53123 -0.010118 0.15581 -0.15189 -0.31526
> 0.51685 -0.20085 -0.15538 0.18567 0.34994 0.19328 0.21973 0.47052 -0.31813 -0.41211 -0.32704 0.35058 0.2685 0.047019 -0.18712 -0.56682 0.21387 -0.13539 0.50485 -0.073713 0.15248 -0.23104 -0.3169 -0.47837 -0.41388 -0.20508 -0.25802 0.18739 0.12534 0.37804 -0.41124 -0.28638 -0.051774 0.25885 0.04138 -0.56409 -0.41519 -0.048793 -0.3491 -0.059917 -0.099477 0.19971 0.11885 0.16954 0.031594 -0.12975 -0.22014 -0.19437 0.1687 -0.065553 -0.24338 0.59554 0.52455 0.31248 0.40115 -0.016056 0.1287 -0.46664 -0.10966 -0.47821 0.03765 0.2073 0.28428 0.22026 0.096933 0.10778 0.10171 -0.40189 -0.21429 -0.23388 -0.035789 -0.14973 -0.46671 -0.35616 -0.23399 -0.098087 0.26451 0.027072 0.15499 0.17675 -0.17478 0.6475 -0.087749 -0.72718 0.1719 0.020119 -0.44105 0.08314 0.065881 0.15489 0.22003 -0.26958 -0.37488 -0.2254 0.039045 0.028005 0.19782 -0.10957 0.28051 -0.062608 0.075677 0.32886 0.1661 0.39878 0.27386 0.26001 -0.3253 -0.27312 -0.076665 0.2241 -0.24794 -0.26988 0.098457 -0.33663 0.13568 -0.21809 -0.26469 -0.39634 -0.23144 0.2941 0.37433 0.022729 0.37503 -0.094249 -0.40659 0.025406 -0.075074 -0.02585 -0.38058 0.5047 -0.074951 -0.11486 -0.14912 0.23541 -0.18341 0.25105 0.19588 0.23231 -0.5877 0.56073 -0.0077024 -0.11495 -0.067605 -0.021109 0.16419 -0.28636 -0.25694 -0.23344 -0.066356 -0.18409 -0.70644 -0.41852 0.1351 0.46407 -0.085628 -0.29684 0.2113 0.37992 -0.34318 0.11155 -0.15033 0.036953 0.76798 0.057982 0.33343 -0.80658 -0.18053 -0.21462 0.029087 -0.63819 -0.069825 0.13579 0.31112 0.50369 -0.18218 -0.24922 0.14938 -0.28834 -0.24468 -0.311 -0.38223 0.075455 -0.082401 0.35949 -0.365 0.43283 -0.21042 -0.25212 0.17196 -0.58209 -0.16109 0.0013545 0.40923 0.011891 -0.16531 -0.41546 -0.011942 0.49371 0.17113 -0.69635 -0.013564 -0.089912 0.018029 0.1506 0.1675 0.46289 0.36483 0.26318 -0.15773 0.087757 -0.62737 0.052594 -0.17432 0.31839 -0.15376 0.078058 -0.34614 -0.14317 0.1265 0.10664 0.07974 0.30268 -0.27385 0.06463 -0.5564 0.6473 0.067564 0.21247 0.026908 -0.30394 0.18582 -0.66659 0.12833 -0.44933 -0.20267 0.28572 -0.45352 0.42476 -0.12157 -0.16726 0.12774 -0.014591 0.31163 -0.2786 0.71654 0.6059 -0.11105 0.68462 -0.10476 0.59865 -0.1434 0.79344 -0.42726 0.0034621 -0.193 -0.016722 -0.17392 0.34387 0.19551 -0.05522 0.27924 0.044653 0.19815 0.14591 0.10465 -0.25214 -0.4548 -0.2528 0.026008 -0.27288 0.04141 0.0061316 -0.032265 -0.13134 -0.0797 0.23148 -0.32963 -0.17036 0.6194 0.40707 0.043544 0.53955 -0.3001 0.55143 -5.7968e-05 0.26284 0.06555 0.09925 -0.19924 0.22581 -0.033633 0.14434 0.39044 0.16255 -0.44091 -0.46697 -0.49905 0.2179 -0.14765 0.16145
< 0.50507 -0.22948 -0.13393 0.18061 0.061486 0.42331 0.18467 0.29787 -0.12129 -0.22462 -0.53013 0.27848 0.27516 0.1306 -0.11526 -0.50384 0.37785 -0.23787 0.60438 -0.039465 -0.045908 -0.26769 -0.14032 -0.46842 -0.43346 0.036952 -0.22002 0.18127 0.026744 0.17382 -0.28695 -0.21939 -0.049493 0.1373 -0.036305 -0.52082 -0.32029 -0.021778 -0.20641 -0.10776 -0.023895 0.10072 0.095427 0.21905 0.0015666 -0.0071268 -0.086461 -0.041537 0.36863 -0.1281 -0.29832 0.45708 0.23044 0.34818 0.15874 -0.26922 0.25848 -0.41343 -0.14754 -0.5555 -0.063413 0.21649 0.19653 0.32623 0.047144 0.21061 0.093928 -0.20923 -0.17338 -0.18267 0.18028 -0.12795 -0.20752 -0.53389 -0.35747 -0.16779 0.18614 -0.13112 0.023392 0.13798 -0.17923 0.49298 -0.040745 -0.6691 0.32954 0.15793 -0.53694 -0.098777 0.27643 0.17267 0.1651 -0.20705 -0.31974 -0.33252 -0.030924 0.069403 0.099662 -0.16037 0.21369 0.0147 0.098464 0.12514 0.050248 0.52036 0.24705 0.13487 -0.43115 -0.19518 -0.073681 0.30715 0.050763 -0.027256 0.17464 -0.27898 0.014188 -0.15353 -0.21716 -0.46616 -0.0905 0.30522 0.20167 0.0816 0.25872 -0.092244 -0.11509 0.094625 -0.072042 -0.017559 -0.2093 0.39071 -0.20445 -0.044569 -0.21268 0.15834 -0.25525 0.062475 0.22192 0.39786 -0.59881 0.50138 0.1078 -0.44385 -0.03627 -0.13651 0.4237 -0.047958 -0.26448 -0.11162 -0.066149 -0.19403 -0.52535 -0.46615 0.24911 0.30772 -0.042705 -0.31979 0.2251 0.13982 -0.41393 0.13693 -0.23646 0.15999 0.63774 -0.17214 0.45881 -0.74257 -0.081941 0.087302 -0.15696 -0.39234 -0.23174 -0.03722 -0.010977 0.55912 -0.2919 -0.12352 0.13491 -0.36575 -0.18309 -0.17641 -0.41567 0.028672 -0.050757 0.28466 -0.28459 0.40879 -0.25149 -0.04819 0.33044 -0.66532 -0.012648 -0.13517 0.3588 0.049859 0.10087 -0.45604 0.19703 0.42705 0.14001 -0.79652 -0.068336 -0.24279 0.080398 0.35946 -0.088262 0.40111 0.37182 0.24322 -0.16754 -0.10386 -0.46773 0.23818 -0.1091 -0.024387 -0.26179 0.087102 -0.53048 -0.0085184 0.067242 0.24462 0.15492 0.29275 -0.44632 0.23587 -0.70646 0.4603 -0.050057 -0.050205 -0.093621 -0.58529 0.31197 -0.68522 0.22037 -0.44568 -0.069017 0.3848 -0.48355 0.49596 -0.39367 -0.21312 0.25101 0.059714 0.41396 -0.056697 0.73789 0.59473 -0.041837 0.72822 -0.2505 0.36185 -0.10809 0.80364 -0.25102 -0.13616 -0.28781 -0.13388 0.092734 0.43091 0.21843 -0.14037 0.50016 0.0057603 0.21105 0.095586 0.12444 -0.39783 -0.46822 -0.13899 0.20305 -0.27038 0.094914 0.18281 -0.22533 -0.010615 -0.12387 0.14588 -0.27347 -0.27336 0.44932 0.26323 -0.12223 0.21971 -0.21582 0.44189 -0.058627 0.29425 0.046382 0.06852 -0.22001 0.152 0.046036 0.099391 0.56682 0.34577 -0.31085 -0.51713 -0.36432 0.25275 0.013003 0.045702
doc 0.43858 -0.17051 0.0036309 0.021334 -0.10301 0.63876 0.23281 0.25107 -0.22128 -0.28361 -0.61169 0.31473 0.38631 0.029366 -0.037283 -0.63931 0.39679 -0.1465 0.46348 -0.18754 0.014029 -0.31824 -0.16562 -0.47025 -0.46118 0.051783 -0.27948 0.083626 0.1101 0.1549 -0.13485 -0.25424 -0.12917 0.21115 0.16261 -0.58925 -0.17987 -0.17008 0.03806 -0.081701 -0.025117 0.04329 0.063596 0.016904 -0.061507 0.21057 -0.19291 -0.037265 0.3919 -0.018902 -0.42915 0.36251 0.23437 0.24068 0.25181 -0.24847 0.17358 -0.56412 -0.16425 -0.42574 0.14272 0.13123 0.012439 0.3978 0.17096 0.09342 0.11828 -0.11808 -0.21729 -0.14262 0.18138 -0.16097 -0.041873 -0.69062 -0.3625 -0.17471 0.23627 -0.097039 -0.15529 0.0031169 -0.14647 0.46811 -0.085819 -0.75179 0.064074 0.37615 -0.61554 -0.098651 0.33491 0.12661 0.40136 -0.29207 -0.37822 -0.29731 0.13188 -0.03153 0.14943 -0.20801 0.33064 -0.13526 0.16651 0.21696 0.021763 0.43713 0.1221 0.1023 -0.43135 -0.20315 -0.13021 0.18909 -0.017094 0.25141 0.21671 -0.38525 0.21892 -0.33974 -0.2882 -0.56736 -0.04248 0.36669 0.2861 0.070406 0.19269 -0.095418 -0.041648 0.14216 -0.097773 0.11079 -0.18716 0.40449 -0.17999 0.11168 -0.3412 0.18129 -0.32603 -0.039212 0.2725 0.50555 -0.65096 0.54607 0.060045 -0.58718 -0.063428 -0.080806 0.25361 -0.20811 -0.31394 -0.016967 -0.024662 -0.15868 -0.59856 -0.60143 0.3215 0.3325 -0.16217 -0.46973 0.30928 0.26611 -0.20929 0.18832 -0.55111 0.038133 0.83161 -0.19806 0.31116 -0.77445 -0.17382 -0.027808 -0.24877 -0.39902 -0.44879 0.092726 0.27261 0.66684 -0.30401 -0.19341 0.48262 -0.51098 -0.091122 -0.21373 -0.47403 0.07176 -0.055222 0.11508 -0.40086 0.37519 -0.34832 0.0547 0.3824 -0.88599 -0.22379 -0.045816 0.34679 0.10903 -0.025486 -0.48864 0.18868 0.47552 0.24507 -0.78815 -0.0946 -0.24579 -0.01534 0.41918 -0.064403 0.51397 0.28584 0.18361 -0.32913 -0.087667 -0.5404 0.20015 -0.23614 0.12513 -0.43473 0.22958 -0.6206 -0.091366 0.018499 0.29783 0.25446 0.55101 -0.34807 0.2178 -0.72348 0.57904 -0.12231 -0.03091 -0.2111 -0.42647 0.30442 -0.87566 0.27009 -0.58128 0.0058728 0.43747 -0.40753 0.45808 -0.30578 -0.2507 0.267 0.0066515 0.3904 -0.1357 0.77688 0.4164 -0.00031798 0.93618 -0.17292 0.37194 -0.047727 0.85363 -0.04551 -0.22954 -0.15339 -0.12927 -0.0609 0.49594 0.080928 -0.061341 0.4779 0.036997 0.19384 0.19078 0.21371 -0.40573 -0.56357 -0.09853 0.23271 -0.43479 0.10865 0.20842 -0.25218 -0.13131 -0.12351 0.21008 -0.36849 -0.34812 0.26331 0.18533 -0.14266 0.25378 -0.28507 0.38127 -0.25189 0.33867 0.10469 -0.047684 -0.13948 0.34841 -0.14839 0.12775 0.51436 0.36169 -0.56468 -0.54131 -0.32492 0.28431 -0.016975 0.015343
在 0.090424 -0.018441 -0.044802 -0.087148 -0.014605 0.031396 0.10907 0.151 0.057624 -0.038293 0.12686 0.05622 -0.10535 -0.04766 -0.2041 -0.20778 -0.03017 0.010037 -0.069385 -0.046756 -0.069367 -0.071694 -0.048221 -0.15874 -0.052564 -0.011779 -0.10086 0.14404 0.30218 -0.13617 -0.19775 -0.13612 -0.23667 0.047819 -0.17425 -0.23947 -0.17354 -0.12876 -0.03786 -0.17958 -0.099547 -0.045659 0.15219 -0.037478 0.083702 -0.049442 -0.032207 -0.048734 -0.051958 -0.057264 -0.094921 0.06584 0.28574 0.2061 0.10512 -0.19155 -0.061816 -0.1969 -0.24418 -0.14056 0.25391 -0.038077 0.1618 0.18061 0.33059 0.2221 -0.12934 -0.043919 -0.12125 -0.12499 0.24332 0.16373 -0.11345 -0.16886 -0.31966 0.075144 -0.14478 -0.12664 0.26596 -0.29211 -0.0048972 -0.0071302 -0.022233 -0.19975 0.08325 -0.052224 -0.20607 -0.23665 0.1258 0.071467 -0.027968 -0.12713 -0.13451 -0.16255 -0.2225 -0.057032 0.062675 0.072394 0.056389 -0.24165 0.078178 0.089386 0.041147 0.039417 0.33822 0.040607 -0.082705 0.12567 0.13979 0.1394 -0.33507 -0.087325 0.21988 -0.16503 0.064999 -0.13091 0.14059 -0.26532 -0.19379 -0.16572 0.15506 0.063037 0.28383 0.10566 -0.14525 0.14421 -0.020684 0.19634 -0.099086 0.20309 0.082152 -0.10301 0.075976 -0.028786 0.10998 0.30718 -0.12236 -0.077968 -0.17356 -0.019783 0.11545 0.02284 -0.14147 0.018013 -0.22874 -0.22797 -0.075653 -0.1231 -0.17835 0.18014 -0.15647 -0.26955 -0.0033317 0.11643 0.11122 0.19217 0.13935 -0.058378 -0.23069 0.28826 0.0067436 0.05127 -0.0041692 0.13535 -0.046909 0.21985 0.091254 0.01631 -0.031151 -0.17015 0.10242 0.29275 0.12949 0.29964 -0.077716 -0.25273 0.17075 -0.1354 0.14698 -0.17973 -0.20396 0.19558 -0.15474 0.018675 0.18293 -0.065219 -0.069522 -0.27582 -0.20686 0.11794 -0.04104 -0.019817 0.24647 0.030331 -0.14389 -0.21571 0.029533 0.074645 -0.094389 -0.40535 0.16337 0.10823 0.037735 -0.0027382 -0.043899 -0.13375 -0.11263 0.068976 -0.28542 0.011172 0.025142 -0.065316 -0.038085 0.2444 -0.09059 0.052331 -0.015106 -0.022586 0.017506 0.1112 -0.1796 0.27311 -0.030559 -0.062514 -0.085507 0.28478 -0.088943 -0.17278 -0.0032583 0.18056 -0.066518 0.19854 -0.2435 -0.25739 0.14817 0.11205 0.011766 -0.26517 -0.06142 0.35448 0.11472 0.12309 0.29485 -0.0085438 0.24704 -0.11098 0.1018 -0.1526 0.042839 0.49048 -0.45393 0.028105 -0.050793 0.1513 -0.17931 0.19219 -0.10646 0.12733 0.078642 0.11119 0.29806 0.29992 0.22345 0.051404 0.29111 0.15573 -0.019983 0.017668 0.15612 -0.11537 -0.16382 0.10374 -0.028477 -0.14979 0.019043 0.18254 0.14189 -0.2656 -0.124 0.021878 0.24139 -0.1111 -0.2401 0.11863 -0.025584 0.14906 -0.01682 0.062897 -0.26443 0.14278 0.048959 0.25401 -0.037449 -0.071198 -0.042688 -0.023585 -0.11437 -0.079704 -0.10339 0.014753
: 0.29846 -0.20885 0.15489 -0.11918 0.25987 0.060625 0.35123 0.52699 -0.46175 -0.51303 -0.2662 -0.089604 -0.10338 0.076111 0.12156 -0.38887 0.38965 -0.14966 0.43723 0.071907 0.13286 -0.23933 -0.33457 -0.35608 -0.29438 0.021461 -0.16657 0.0095124 0.14292 0.17428 -0.27269 -0.017838 -0.096213 0.2249 0.0018655 -0.57954 -0.32531 0.16673 -0.43592 -0.37927 -0.2997 -0.045041 -0.083115 0.26401 0.11911 -0.1015 -0.14432 -0.26657 -0.10149 0.16591 -0.51877 0.47197 0.62248 0.32895 0.24291 0.078656 -0.013508 -0.34254 -0.16792 -0.45183 0.11713 0.084995 0.25198 0.11884 -0.032833 0.17772 0.19852 -0.27623 -0.32333 -0.2079 0.053232 -0.26237 -0.12566 -0.79018 -0.095491 -0.19337 0.3102 0.19602 -0.011523 0.24816 -0.24409 0.44626 -0.14049 -0.44997 0.075704 0.17046 -0.28467 -0.0076602 0.33632 -0.012801 0.13348 -0.065859 -0.42194 -0.50198 -0.11872 -0.01206 0.1947 -0.11551 0.18106 -0.079916 0.14111 0.30869 0.15392 0.58854 0.18708 0.07631 -0.3356 -0.19192 -0.10696 0.36246 -0.079991 -0.12021 0.099778 -0.10379 0.28914 -0.38986 -0.25127 -0.72914 -0.27989 0.23891 0.71623 -0.083651 0.34932 0.021921 -0.17711 0.048394 -0.12123 -0.14118 -0.26632 0.42821 -0.10024 0.065531 -0.45795 0.051789 -0.37237 0.040493 0.36604 0.35495 -0.73734 0.37293 0.35924 -0.030731 -0.028544 -0.0248 0.082247 -0.22889 -0.13379 -0.11351 -0.050117 -0.039131 -0.8712 -0.48457 0.26411 0.64271 -0.039725 -0.076644 0.064354 0.28582 -0.12888 -0.067087 -0.22782 0.31541 0.51643 -0.082501 0.16281 -0.59867 -0.20736 -0.027425 -0.072321 -0.56371 -0.15948 0.18303 0.32528 0.57934 0.0077969 -0.59087 0.57128 -0.32272 0.084878 -0.2119 -0.39788 0.01393 0.013133 0.25919 -0.26626 0.43424 0.11143 -0.41525 0.18337 -0.21764 -0.058576 0.15671 0.51889 -0.11798 -0.2942 -0.54893 0.15798 0.31035 0.0938 -0.85646 0.33275 -0.096197 -0.11164 0.20207 0.028661 0.060751 0.25801 0.31621 -0.12342 -0.09856 -0.28133 0.15163 -0.0027349 0.14504 -0.071406 0.37281 -0.29427 -0.0038405 0.30672 0.14474 0.39623 0.17666 0.058641 -0.069239 -0.57763 0.29775 -0.17895 0.37952 -0.11599 -0.075194 -0.011077 -0.74122 0.2986 -0.25227 -0.011282 0.57411 -0.3547 0.43251 -0.060125 0.055052 0.10946 0.00061237 0.43976 0.043089 0.75761 0.55523 0.043798 0.82823 -0.11151 0.37572 -0.30418 0.89566 -0.2337 0.15556 -0.15085 0.075315 -0.14129 0.41107 0.10338 -0.058158 0.089321 0.11996 0.044861 0.1121 0.15422 -0.28491 -0.42396 -0.62738 0.10194 -0.3775 0.013681 0.44028 -0.067148 0.035621 0.23667 0.25024 -0.32943 -0.10366 0.56644 0.49081 0.15763 0.49025 -0.37707 0.29113 0.19506 0.20254 0.21453 -0.026821 -0.078669 0.08701 0.17506 0.098752 0.53825 0.45019 -0.24149 -0.53085 -0.28011 0.42705 -0.48576 0.1238
（ -0.096809 -0.22787 0.08349 -0.08903 0.14754 -0.13775 0.18226 0.6014 -0.18321 -0.20205 -0.07935 -0.34415 0.18787 0.33283 -0.37882 -0.0030844 -0.0099396 0.10211 0.19365 -0.067182 -0.15928 -0.3575 -0.31928 -0.12577 -0.27974 0.0046013 0.16077 -0.10147 0.10616 0.27722 -0.15874 0.16399 -0.20183 0.16264 -0.26261 -0.48275 -0.10173 -0.094422 -0.24391 -0.089733 -0.0042766 -0.12347 0.18233 0.10547 0.091084 0.027398 -0.46999 0.11607 0.17048 -0.00028864 -0.094034 0.27811 0.25163 -0.038798 0.038607 0.3868 0.026502 -0.36356 -0.12173 -0.041075 0.15179 -0.072749 0.2339 0.16494 0.25609 0.22088 0.005212 0.10597 -0.25943 -0.22636 0.046459 -0.078889 -0.33183 -0.17987 0.1506 -0.0053862 -0.051394 0.046502 0.34469 0.30097 -0.11779 -0.00020338 -0.17696 -0.041966 -0.056552 0.0016042 -0.1266 -0.1495 -0.10689 -0.0075715 -0.022359 -0.14303 -0.18813 -0.14758 -0.39184 0.11737 0.23642 -0.11639 -0.15813 -0.10808 0.17607 -0.23588 0.15291 0.37703 0.48437 0.09152 -0.33001 -0.13939 0.058764 0.17936 -0.080346 -0.31125 0.0015957 -0.34531 -0.10719 0.044896 -0.13482 -0.25551 -0.23804 0.12026 0.44061 -0.15847 0.020267 -0.11926 0.0070095 0.052817 -0.10999 0.045058 0.017734 0.25193 -0.16181 0.17951 -0.08623 0.19685 0.20273 0.35429 0.08004 0.16599 -0.42141 -0.037163 0.13343 0.24899 0.037894 0.051287 0.0010962 -0.21539 0.10337 -0.25489 -0.22577 -0.21664 -0.15958 -0.3733 -0.11048 0.11126 0.22961 0.11768 0.34237 -0.1712 -0.22878 0.019097 -0.067806 -0.0069649 -0.029515 0.084968 -0.11509 0.222 -0.059187 0.13367 0.22374 -0.6815 0.18794 0.028077 0.084702 0.16046 0.16688 -0.12223 0.29873 -0.2648 0.12662 -0.081399 -0.31865 0.12691 -0.00045311 0.37039 -0.21567 0.25323 0.019992 -0.28488 -0.27789 -0.11564 0.077381 0.12003 0.15616 -0.26946 -0.13447 -0.53205 0.0054599 0.21607 0.006004 -0.49071 0.079624 0.010507 0.11631 0.27379 0.22086 -0.20111 0.097466 0.16157 -0.0016543 0.18681 -0.13269 0.10254 0.13049 0.27868 -0.081336 -0.12791 0.059731 0.05937 0.13649 0.16104 0.12716 0.16306 -0.21913 -0.095969 0.018226 0.30802 0.067535 0.088453 0.28557 0.13239 -0.041928 -0.06129 -0.12667 -0.50708 -0.066099 0.10054 0.037412 -0.11755 0.020677 -0.048799 -0.17358 -0.036763 0.056104 -0.14868 0.131 0.19793 0.13621 -0.063705 0.13263 0.16866 -0.25374 0.36941 -0.31418 0.33016 -0.13167 0.018251 -0.11695 -0.092443 -0.03572 0.099699 0.0025383 0.10694 0.38511 0.028796 0.17115 0.17998 -0.23656 -0.070814 0.015977 -0.46187 -0.26357 0.081677 0.19463 -0.22004 -0.15323 0.37435 -0.021142 0.080687 0.21522 0.51673 0.15236 -0.064194 -0.18117 0.21311 0.033205 0.023806 0.21364 0.2211 -0.35874 -0.045354 -0.072444 0.34147 -0.19264 -0.11668 -0.20785 -0.39454 -0.12998 0.15488 0.19142 -0.13214
） -0.16527 -0.16118 0.038363 -0.039759 0.073556 -0.10096 0.20887 0.58234 -0.20416 -0.15806 -0.070919 -0.35816 0.1832 0.34723 -0.33904 -0.046021 -0.1132 0.077064 0.16203 -0.017582 -0.23149 -0.35307 -0.34796 -0.13738 -0.30851 -0.039399 0.16558 -0.066874 0.16484 0.30634 -0.12932 0.12692 -0.12721 0.12565 -0.2146 -0.45704 -0.10355 -0.11177 -0.26781 -0.073489 -0.026372 -0.12977 0.1526 0.053417 0.14065 0.023141 -0.39695 0.17535 0.13343 -0.05801 -0.072924 0.24436 0.21962 -0.072702 0.066492 0.35893 0.019907 -0.38476 -0.10731 -0.0086034 0.11914 -0.0594 0.23609 0.23211 0.21557 0.22216 0.057069 0.11586 -0.25373 -0.1835 0.015 -0.064668 -0.35402 -0.18698 0.19405 0.038032 -0.02693 0.073865 0.38958 0.27257 -0.17145 -0.018613 -0.13647 -0.064239 -0.08907 0.042526 -0.052852 -0.13901 -0.096721 -0.007988 0.012791 -0.097031 -0.15502 -0.1893 -0.4501 0.11224 0.24632 -0.13482 -0.21647 -0.13 0.18814 -0.28852 0.12118 0.36175 0.44273 0.10812 -0.29329 -0.15507 0.033676 0.16581 -0.01749 -0.2809 0.059521 -0.34486 -0.10916 0.061815 -0.025102 -0.28808 -0.2727 0.11886 0.45927 -0.20135 0.091022 -0.10499 -0.070204 0.013127 -0.12148 0.020559 0.019106 0.2268 -0.11789 0.0949 0.031575 0.19924 0.18192 0.35687 0.051293 0.17817 -0.38592 -0.070216 0.12119 0.23486 0.033295 0.045 -0.037875 -0.20911 0.10549 -0.25704 -0.19275 -0.22763 -0.095639 -0.2709 -0.13229 0.08776 0.19267 0.16797 0.38134 -0.1828 -0.20067 0.020048 -0.069054 -0.00077468 -0.0065963 0.079058 -0.05117 0.17722 -0.068046 0.12907 0.24123 -0.69485 0.12704 0.088452 0.070127 0.10787 0.20147 -0.075699 0.31898 -0.22982 0.14784 -0.040139 -0.2676 0.12673 -0.036379 0.38579 -0.16363 0.20078 0.013901 -0.25682 -0.22559 -0.044475 0.091054 0.092609 0.16707 -0.25909 -0.12516 -0.49853 -0.003899 0.25643 0.067626 -0.50398 0.13207 -0.0027561 0.17544 0.24518 0.24937 -0.21405 0.092516 0.18547 0.009447 0.21612 -0.10002 0.12694 0.061536 0.2722 -0.087811 -0.088905 0.13172 0.077075 0.14796 0.12731 0.097416 0.12969 -0.20967 -0.051235 0.042147 0.29876 0.059865 0.027028 0.23161 0.21259 -0.067379 -0.013024 -0.15318 -0.46646 -0.082195 0.14332 0.021973 -0.094618 0.013041 -0.019598 -0.16355 0.0083198 0.048884 -0.14575 0.10566 0.26811 0.11673 -0.14483 0.17404 0.18179 -0.33669 0.37806 -0.35065 0.32086 -0.13432 0.09443 -0.1379 -0.07153 -0.021987 0.12867 0.0056846 0.1243 0.38055 0.090835 0.17988 0.19807 -0.3043 -0.053076 0.014235 -0.41813 -0.19781 0.04521 0.15051 -0.19721 -0.23662 0.37849 -0.06786 0.051948 0.14954 0.46583 0.12353 -0.057078 -0.21375 0.23474 0.06347 0.034656 0.21125 0.27086 -0.39654 -0.022677 -0.0573 0.31066 -0.25493 -0.10421 -0.20762 -0.35076 -0.082757 0.091709 0.19948 -0.11119
是 0.027665 -0.29551 0.075518 -0.16361 -0.036561 0.069142 0.032322 0.47247 -0.15548 -0.13651 -0.14634 -0.16315 -0.012205 -0.31657 -0.05139 -0.27679 0.031039 -0.041895 0.056191 -0.32489 0.016513 -0.19089 -0.30446 0.082436 0.0033571 -0.21155 -0.15944 0.079949 0.28576 0.11004 -0.18983 -0.23246 -0.043708 -0.0035114 -0.36051 -0.21906 -0.0072335 -0.2555 -0.20455 -0.13175 0.062267 0.060961 -0.069218 -0.10329 -0.13293 -0.038779 -0.16845 -0.059951 0.079134 -0.12649 0.05365 0.14013 0.17594 0.22321 0.38361 0.060541 -0.080742 -0.23307 -0.098986 -0.15899 -0.037702 -0.045104 0.00019011 0.078714 -0.0024536 0.17071 -0.12738 0.0084177 -0.033561 -0.23847 0.14166 0.032155 -0.19826 -0.17466 -0.030251 0.1341 -0.069806 0.016265 0.044329 0.09031 -0.085789 0.15135 0.22763 -0.26589 -0.0073189 0.079252 -0.24665 -0.12011 -0.031665 -0.0053194 -0.052262 -0.16002 -0.046824 -0.17624 -0.33175 -0.017371 0.15049 0.11473 -0.12702 -0.21749 0.086604 0.00089738 -0.10253 0.25801 0.32919 -0.12368 -0.37265 -0.16941 -0.0070863 -0.12107 -0.14458 -0.30927 0.079235 -0.11313 0.0046338 -0.20085 0.14052 -0.12275 -0.17791 -0.070826 0.32056 0.10565 0.28293 -0.14105 -0.31535 0.1369 -0.085056 0.1434 0.10312 0.046668 0.045722 -0.12732 -0.0062211 0.22647 0.19705 0.29451 -0.17255 -0.10313 -0.24806 0.094164 0.24719 -0.033804 0.04814 0.0057338 -0.12495 -0.17352 -0.033548 -0.36287 -0.082533 -0.012231 0.025159 -0.27424 0.028683 0.23033 0.12685 0.061109 0.31094 -0.18351 -0.04299 0.081098 0.14397 -0.066989 0.14607 0.15173 0.020443 -0.11451 0.090546 0.19145 0.038079 -0.42544 -0.1172 0.25262 -0.082948 0.38472 0.29043 -0.20505 0.040958 -0.19291 0.10843 0.032291 -0.2045 0.12283 -0.14001 0.18605 0.10329 0.049813 -0.10777 -0.085479 -0.026967 0.082752 0.1948 0.18844 0.24787 0.13366 -0.26961 -0.13621 -0.094064 0.24331 0.12979 -0.28544 0.24273 0.082843 0.19151 0.24666 0.34358 0.024742 -0.11252 0.17777 -0.19639 -0.063765 -0.10656 0.24931 0.15339 0.23278 -0.24929 -0.050539 0.029794 0.11086 0.08981 -0.12466 -0.027965 0.20078 -0.031057 -0.092006 -0.25576 0.14162 0.079258 -0.057364 0.15563 0.27722 -0.38392 0.33785 -0.092182 -0.58474 0.037937 0.099472 0.054153 -0.20034 0.0071796 0.28033 -0.16653 0.011029 0.46454 -0.087978 0.31372 0.25095 0.23711 -0.12387 0.11519 0.32963 -0.33385 0.10622 -0.12928 0.23905 0.10642 0.1922 -0.021788 0.15499 0.025727 0.23168 0.16058 0.32836 0.29456 0.031225 0.26694 0.12081 -0.065911 -0.1997 -0.12262 -0.04376 -0.11228 0.15151 0.105 0.15634 -0.22104 0.20126 -0.087855 -0.1857 0.087483 0.28117 0.11665 -0.034004 -0.277 0.1252 -0.010159 0.25208 -0.068283 -0.053243 -0.36512 0.23496 -0.014344 0.19762 -0.23386 -0.099907 -0.034679 -0.11127 -0.086662 -0.022123 0.12388 -0.011656
为 0.12193 -0.045622 0.20754 0.018909 0.10324 0.04265 0.51627 0.45159 -0.01736 -0.090646 -0.05368 -0.059998 0.30405 0.035031 -0.22847 0.0043773 -0.11744 -0.0020886 0.15352 -0.044662 0.15557 -0.48824 -0.21318 -0.22701 -0.0035299 -0.17601 0.12268 -0.094841 0.39593 0.32269 -0.12164 0.0077457 0.14238 0.1906 -0.10546 -0.11021 0.098387 -0.041376 0.12119 -0.05803 -0.0061112 0.027887 0.26871 -0.12518 -0.36579 -0.17226 -0.17739 0.17416 -0.056236 0.057346 0.17476 0.082926 0.187 0.25454 0.32853 0.17206 -0.086892 -0.33152 0.018773 -0.008508 0.38501 0.14652 0.069662 0.21662 0.16315 0.13812 0.021661 -0.14209 -0.17068 0.027478 0.12656 0.04327 -0.30698 -0.13659 0.12687 0.097587 -0.31053 0.040602 0.2005 -0.099181 -0.22916 -0.032119 -0.13048 -0.19516 -0.015743 -0.024137 -0.081643 -0.43032 -0.24028 -0.24105 0.11416 -0.29562 -0.10754 -0.15067 -0.47376 -0.19627 0.33177 -0.11104 -0.033498 -0.049681 0.10777 -0.018558 -0.25967 0.10792 0.22373 0.036604 -0.15892 -0.14137 0.14421 0.26472 -0.16952 -0.30434 0.154 -0.29017 0.060276 0.10526 -0.073766 -0.26972 -0.19172 -0.27749 0.10726 -0.016486 0.0016004 0.056964 -0.2943 -0.057583 -0.26036 -0.12319 -0.19294 0.26763 -0.14415 0.020555 0.080571 0.43432 -0.0022066 0.34701 0.021214 0.176 -0.33765 0.0041376 0.12616 0.37273 0.095963 0.10185 0.016097 -0.1186 -0.0012458 -0.060133 -0.0081784 0.096849 0.077109 -0.36186 -0.13634 -0.16549 -0.016721 0.086533 0.41737 -0.077583 -0.0063885 -0.065112 0.06241 -0.27072 0.226 0.15141 0.39307 -0.065143 -0.28752 0.020087 0.31369 -0.5521 -0.18375 0.31213 0.05094 0.085057 0.32016 -0.019241 0.34139 -0.34469 0.002356 -0.055792 -0.10551 0.068319 -0.14255 0.52874 -0.048682 0.21918 -0.15463 -0.21036 -0.0067627 0.016299 0.054838 0.12287 0.16377 -0.022706 -0.21731 -0.47614 0.092536 0.11694 -0.13941 -0.26247 0.3561 -0.037247 0.21585 0.28553 0.11534 -0.040632 0.11787 0.013782 -0.23306 0.043262 0.093392 0.41188 -0.043689 0.45809 0.065745 -0.26271 0.12944 0.0088379 0.087081 0.2281 0.24969 0.14164 -0.17406 0.067004 0.022938 0.11501 -0.10731 0.1676 0.065487 0.17115 -0.14574 0.28498 0.18285 -0.23659 -0.021008 0.25324 -0.0011758 0.085317 -0.19182 -0.20476 -0.05916 -0.11542 0.14015 -0.23246 0.2308 0.10657 -0.13261 -0.18081 0.25606 0.50352 -0.40096 0.20823 0.016858 0.10222 -0.14026 0.066604 -0.43371 0.018101 -0.20843 0.24027 0.12224 0.24662 0.3772 -0.16763 0.13634 0.04136 -0.25265 0.1593 -0.20896 -0.18418 -0.20701 0.35755 0.2561 -0.1789 -0.1633 0.23675 -0.0033401 0.02984 -0.00054385 0.45286 -0.12592 -0.032691 -0.020618 0.45094 -0.070636 -0.1818 0.049867 -0.014031 -0.33143 0.014705 0.20642 0.087983 -0.21498 -0.013858 -0.38289 -0.39495 -0.29444 -0.099669 -0.064144 0.13624
于 0.14162 -0.0026976 -0.006946 -0.19115 0.21922 0.28481 -0.016834 0.32967 -0.13019 -0.01634 0.098509 0.12231 0.10227 -0.091072 0.14999 -0.17825 -0.012828 0.093997 -0.081237 0.06102 0.022246 -0.34112 0.15685 0.15212 -0.29331 -0.055341 -0.085555 -0.046223 0.3742 0.013173 -0.25769 -0.22867 -0.38265 0.091747 -0.039887 -0.28512 -0.023157 -0.21636 -0.10011 -0.040338 -0.14064 -0.17238 0.17686 -0.12137 -0.17976 -0.12857 0.10166 0.14495 -0.11636 -0.33419 -0.011746 0.27982 0.17622 -0.0028027 0.2279 -0.12083 -0.13035 -0.13554 -0.34004 -0.068534 0.083034 -0.086659 0.094085 0.24745 0.14082 0.09245 -0.13081 -0.16922 -0.015537 -0.067231 0.19352 0.15962 -0.094062 -0.050444 -0.18693 0.28228 -0.036942 -0.23211 0.20121 -0.15878 0.11015 0.072543 -0.18482 -0.37289 0.15116 0.016786 -0.24824 -0.0083395 0.22187 -0.20749 -0.06504 0.054779 -0.1873 -0.35004 -0.35922 -0.028423 -0.014855 0.17056 -0.37989 -0.28935 0.020781 0.096985 -0.088085 0.25485 0.35045 -0.075144 -0.2937 -0.047507 0.25215 0.084852 -0.068749 -0.25122 0.40687 -0.29842 0.041083 -0.20197 0.34504 -0.21131 -0.12086 -0.39514 0.39285 -0.12656 0.29189 0.21759 0.040487 0.28544 -0.01652 0.12803 -0.12998 0.069965 0.12491 -0.29671 0.21247 -0.096544 0.1371 0.24628 -0.18023 0.10119 -0.16785 -0.001891 0.21886 0.034168 0.050614 0.14684 -0.16022 -0.36502 -0.22821 -0.36509 -0.11197 0.14254 -0.34144 -0.17703 -0.0073451 0.30479 -0.15026 0.35287 0.26723 -0.28173 -0.2833 0.04976 0.25655 0.014508 0.068836 0.11776 0.014201 -0.20437 0.22887 0.12164 -0.02484 -0.33014 -0.084202 0.49997 -0.022922 0.22733 0.14748 -0.38541 0.17502 -0.16107 0.14299 -0.085229 -0.17753 -0.038492 -0.1531 0.23866 -0.17812 -0.166 0.22229 -0.33554 -0.23084 -0.21262 -0.16943 0.2225 0.19616 0.23287 -0.10343 -0.099007 -0.15712 0.086586 0.16357 -0.25774 0.18195 -0.050333 0.20251 -0.013653 0.11087 0.078177 -0.1061 -0.14286 -0.12202 -0.19763 0.10741 -0.085621 0.01866 0.28831 -0.32289 -0.040742 -0.044471 -0.29702 0.099274 -0.10127 -0.26713 0.12926 0.23287 -0.20107 -0.11739 0.22483 0.06322 -0.027956 0.20515 0.25309 0.058909 0.34882 -0.18325 -0.40488 -0.061808 0.13189 -0.022308 -0.4979 -0.15315 0.28639 -0.14246 0.078725 0.43389 -0.095362 0.22941 0.15096 0.040858 -0.17371 0.031307 0.24536 -0.38824 0.087208 0.058183 0.18435 -0.20903 0.38298 -0.22707 0.34419 -0.03511 0.16822 0.21647 0.33484 0.3944 0.064874 0.074927 0.32272 -0.3567 -0.14895 0.16267 0.067351 -0.21876 -0.11546 -0.30129 0.0032528 -0.091871 0.2154 0.19096 -0.12872 -0.14855 -0.078051 0.073867 0.17194 -0.39899 0.18662 0.1476 0.27431 -0.0044218 -0.12837 -0.25534 0.0025395 -0.061603 0.27945 0.075927 0.1177 0.2697 -0.11048 -0.23134 -0.24408 -0.083953 -0.33014
zh 0.43982 -0.35962 0.27077 -0.23799 0.11488 0.22049 0.28232 0.35886 -0.37377 -0.25179 -0.63966 0.038628 0.10978 -0.048645 0.031989 -0.44355 0.47294 -0.098169 0.34708 -0.007464 0.16854 -0.26089 -0.059376 -0.43978 -0.51702 -0.1566 -0.41686 -0.054891 0.20986 0.20929 -0.21054 -0.2396 -0.18254 0.14066 0.070396 -0.58818 -0.21919 -0.20655 -0.13221 -0.082197 0.062617 -0.033589 -0.15664 0.00049011 -0.094836 0.053046 -0.18316 -0.26113 0.1219 -0.094916 -0.49587 0.44028 0.47232 0.29826 0.29901 -0.10722 0.12826 -0.33801 -0.080376 -0.47673 0.15973 0.15114 0.18632 0.18643 0.07215 0.26643 0.019381 -0.4446 -0.36042 -0.26036 0.094432 -0.37613 -0.092153 -0.66537 -0.22111 -0.1035 0.23339 0.12438 -0.064693 0.27937 -0.074955 0.41339 -0.13364 -0.50406 0.040052 0.17115 -0.18908 -0.052168 0.44633 0.057881 0.23899 -0.057874 -0.25636 -0.37125 0.11264 -0.037424 0.083268 -0.37315 0.091652 -0.12595 0.15496 0.38142 0.018284 0.38243 0.18326 0.10958 -0.28947 -0.16157 -0.018994 0.19035 -0.19778 -0.0059175 0.10259 0.063414 0.224 -0.40725 -0.27435 -0.59985 -0.17355 0.30988 0.55786 0.066278 0.16184 -0.17779 -0.011323 0.2308 -0.24007 -0.096759 -0.18417 0.60939 -0.23648 0.1058 -0.37098 0.1302 -0.25876 0.13313 0.4162 0.25967 -0.68619 0.55825 0.18494 -0.55307 -0.12882 -0.029414 0.098325 -0.21891 -0.28564 -0.087747 -0.02738 -0.038343 -0.66435 -0.75055 0.24884 0.4269 -0.091119 -0.31771 0.31038 0.25776 -0.34108 0.0087396 -0.48784 0.10317 0.72702 0.073117 0.19403 -0.653 -0.3878 -0.019901 -0.12496 -0.54248 -0.3632 0.10101 0.23587 0.66287 -0.14589 -0.36838 0.6152 -0.53601 0.062973 -0.31451 -0.57553 0.13262 -0.014908 0.21388 -0.31263 0.48278 -0.11899 -0.14844 0.12967 -0.54255 -0.030664 0.094309 0.48906 -0.004794 -0.15715 -0.71246 0.25607 0.30492 0.2009 -0.74663 0.0028296 -0.049904 0.076965 0.26359 0.030298 0.30775 0.34239 0.017482 -0.1711 -0.087728 -0.44391 0.31509 -0.13483 0.056766 -0.2109 0.16041 -0.35364 -0.087718 0.14382 0.29044 0.30441 0.38549 -0.19966 0.057246 -0.67232 0.41472 -0.20739 0.23226 -0.0093277 -0.27441 0.01993 -0.98477 0.25001 -0.41003 -0.017829 0.46435 -0.27884 0.41402 -0.11066 -0.22033 0.15006 -0.11332 0.37973 0.10059 0.82721 0.40287 0.24388 0.82175 -0.25778 0.36924 -0.3944 0.78388 -0.0074817 0.095918 -0.29662 -0.089978 -0.15513 0.33844 0.01662 -0.018341 0.37554 0.060817 0.0067628 0.054423 0.20591 -0.39636 -0.45173 -0.41114 0.051369 -0.36297 0.15744 0.25915 -0.1228 -0.049968 0.20829 0.28615 -0.44255 -0.15119 0.43644 0.69651 0.0059759 0.35256 -0.27146 0.2989 -0.098609 0.25905 -0.014344 -0.11242 -0.16487 0.082804 -0.011202 0.016426 0.63509 0.37461 -0.27537 -0.3552 -0.24505 0.40631 -0.13973 -0.063538
和 -0.040306 -0.28253 0.024328 0.07486 -0.088291 0.022698 0.10747 0.20648 -0.026762 0.0021395 -0.16636 0.11435 0.21432 0.087194 -0.13991 -0.17982 0.017285 -0.29482 0.059743 0.084677 -0.091219 -0.10825 -0.10649 -0.034959 0.067618 0.13923 -0.010599 0.10878 0.35333 0.035993 -0.0060801 -0.041041 -0.17475 0.31514 -0.15888 -0.21042 -0.1337 -0.072458 -0.043524 -0.14737 -0.0042243 -0.084905 -0.084531 -0.086011 0.097697 0.19049 -0.16638 0.039087 0.058824 -0.097418 -0.039182 0.15765 0.22444 0.085494 0.014955 0.011808 -0.074495 -0.19654 -0.15605 0.03312 0.18418 0.17163 -0.14254 0.19095 0.12646 0.19848 -0.032654 -0.10398 -0.15489 -0.21597 0.020989 0.16194 -0.111 0.019319 -0.18509 0.099849 0.071431 -0.27786 0.16468 0.041775 -0.25479 0.19314 0.1759 -0.093254 -0.043216 -0.13194 0.01927 -0.12731 -0.16768 0.00052721 0.030342 -0.12169 -0.22885 -0.10855 -0.11975 -0.12832 0.13845 0.12046 -0.058546 -0.23919 0.24785 0.077517 0.066006 0.067127 0.25501 -0.1671 -0.27083 -0.26415 0.017637 0.15571 -0.21935 -0.1617 0.10611 -0.26805 -0.24587 -0.11271 0.10002 -0.069403 -0.16035 -0.10896 0.19236 0.053448 0.43864 0.069379 0.0018862 0.098899 -0.12717 0.13829 -0.10621 0.11833 -0.10005 -0.095511 0.025273 0.099365 0.16417 0.22033 -0.24609 0.11997 -0.22072 0.17543 0.04199 0.039404 0.092509 -0.023873 -0.22043 -0.28807 -0.18472 -0.25501 -0.027964 -0.045399 -0.271 -0.42105 0.10189 0.078279 -0.07741 -0.092249 0.35396 -0.047354 -0.18509 0.040493 -0.071798 -0.03004 -0.028846 0.075636 0.07458 0.19721 0.064278 0.057438 0.027881 -0.42922 -0.12939 0.23702 0.13615 0.18553 0.050774 -0.2455 0.1561 -0.103 -0.019168 -0.083105 -0.25993 0.20288 -0.073228 0.16035 0.2842 0.11905 -0.022154 -0.20939 -0.23161 0.030333 0.060862 0.095726 0.34043 0.064946 -0.2303 -0.095493 0.11799 0.13052 -0.073456 -0.25873 -0.021905 0.3464 0.077515 0.0011658 0.060011 0.026115 -0.1815 0.10974 -0.15718 0.060852 -0.19851 0.11149 0.078523 0.028615 0.00071261 -0.077093 0.014978 -0.1756 0.12359 0.18193 -0.10366 0.22514 -0.056516 -0.011828 -0.0037957 0.30355 0.13662 -0.035612 -0.11512 0.17048 -0.22007 0.15518 -0.25451 -0.18962 -0.1194 -0.053033 -0.030185 0.048086 -0.083867 0.21502 0.0036309 0.048297 0.28917 0.30365 0.28638 0.12789 0.1033 0.047219 0.0068838 0.3338 -0.30616 -0.0083996 -0.0095706 0.10735 -0.0024409 0.067982 0.18033 0.10934 0.0058513 0.2288 -0.018722 0.25874 0.047737 0.2171 0.3142 -0.034132 0.054395 0.022292 0.13982 -0.022588 -0.041813 0.24695 0.19907 -0.089757 -0.12649 0.16699 0.0085034 -0.13634 -0.063413 -0.039043 0.31579 -0.084576 -0.40362 0.044965 -0.1044 0.13039 0.047413 0.0076041 -0.18872 0.1241 -0.15432 0.18055 0.073139 0.023928 0.12678 -0.1009 -0.14083 0.018523 -0.0017778 0.22745
月 0.24981 -0.12628 0.11869 -0.15706 0.084685 0.4046 0.24796 0.006606 -0.17523 -0.072929 -0.11753 0.17889 -0.066159 0.061142 -0.0044793 -0.030752 -0.29467 -0.24974 0.25362 -0.059587 -0.20368 -0.42455 -0.24095 0.049747 -0.080126 0.139 0.52053 0.12418 -0.11978 -0.091639 -0.18755 -0.05245 -0.20449 0.22681 0.10505 -0.36393 -0.2482 -0.10753 -0.23446 -0.11473 0.0031976 -0.36669 0.042776 0.027242 0.37073 0.10476 0.024842 -0.18438 0.32008 -0.070965 -0.15774 0.55935 0.081021 0.35469 0.14809 0.064875 -0.13485 -0.17699 -0.25318 -0.093063 0.18917 -0.095542 -0.11557 0.39254 0.26295 -0.12604 -0.10412 -0.22126 -0.21279 -0.061595 0.50589 0.095882 0.21047 -0.13714 -0.080263 -0.020802 -0.059459 -0.16275 -0.020556 -0.41767 -0.21582 -0.030165 -0.1546 -0.47697 0.043282 0.037827 -0.45477 0.15394 0.040569 -0.26983 0.15828 -0.027413 -0.2192 -0.16931 -0.12819 0.029516 -0.32913 -0.005707 0.095795 -0.037973 -0.18187 -0.094027 0.01132 0.24284 0.19763 -0.037775 -0.40585 -0.14628 0.1738 0.36506 -0.26783 -0.23868 0.22918 -0.16011 0.23163 -0.16506 0.14707 -0.33593 -0.22169 0.1329 0.5808 0.15565 0.24053 0.13233 -0.18896 -0.00084687 0.27561 0.10349 -0.12839 0.14684 0.31566 -0.064461 0.13461 -0.2311 -0.060789 -0.046301 0.09875 0.257 -0.25618 0.10878 -0.049714 -0.079881 -0.21204 0.02497 -0.22634 -0.3575 -0.1996 -0.18528 -0.26566 -0.39468 0.062841 -0.23675 0.017789 -0.013297 -0.31439 -0.078619 0.14189 -0.0095742 -0.16696 0.45873 0.12181 0.28231 -0.098938 -0.24908 0.30321 -0.13661 -0.095914 0.60908 0.017143 -0.10099 -0.062707 0.45018 0.031073 0.21548 -0.083714 -0.60646 0.21677 -0.19586 0.060285 -0.09975 -0.008748 0.38909 -0.19473 0.022169 0.39669 -0.056536 0.17236 -0.58357 -0.14954 0.070365 0.059825 0.052917 0.0020941 -0.14836 -0.012902 -0.39252 0.063898 -0.004964 0.29057 -0.49836 0.21576 -0.11431 0.30962 0.020881 -0.026187 -0.09667 -0.21381 -0.1301 -0.16422 -0.050507 0.072169 -0.13112 -0.20411 0.21201 0.068032 0.05653 0.18907 -0.45261 0.17258 0.3202 -0.038083 0.14092 -0.132 0.025413 -0.15962 0.12185 -0.2214 0.068453 0.074879 -0.13748 -0.15717 0.25072 -0.44077 0.11356 0.048992 0.26567 -0.10395 -0.20028 -0.13616 0.35077 0.10164 0.34553 0.29834 -0.077092 -0.055768 0.05554 -0.1569 -0.21048 -0.045189 0.44904 -0.44551 0.41011 -0.20513 0.10769 -0.16061 0.047505 -0.4448 0.11776 -0.06873 0.14807 -0.025811 0.31274 -0.050097 -0.13468 0.36118 0.16081 -0.32076 -0.17093 0.31767 -0.12042 -0.184 0.52321 0.071126 0.083395 0.1913 0.32106 0.48449 -0.16266 0.059949 -0.12372 -0.04573 0.019098 -0.19451 0.29811 -0.040234 0.14844 0.28232 -0.22002 -0.49719 0.174 0.038354 0.10179 -0.15355 0.061472 -0.077526 -0.58218 -0.06319 0.062803 -0.09609 -0.02557
? 0.40207 -0.35046 0.075077 -0.14941 0.23945 0.36067 0.35367 0.55019 -0.328 -0.49505 -0.52991 0.22492 0.20643 -0.013014 -0.16999 -0.44251 0.53818 0.065154 0.46219 -0.047244 0.048567 -0.19082 -0.23781 -0.51592 -0.49731 -0.13271 -0.35999 0.076877 0.14594 0.18278 -0.26936 -0.30217 -0.24191 0.13291 0.025146 -0.55164 -0.090509 -0.20751 -0.26197 -0.13718 0.18394 -0.041005 0.0081384 0.088199 -0.042439 0.14099 -0.27009 -0.14664 0.1695 -0.0043676 -0.3336 0.39486 0.46076 0.2819 0.32232 -0.11083 -0.007345 -0.47905 -0.23012 -0.43256 0.046642 0.050773 0.092617 0.27618 0.041522 0.18858 0.15859 -0.25759 -0.23956 -0.30407 0.035445 -0.32806 -0.20506 -0.60296 -0.17913 -0.29177 0.24711 0.057808 0.0095231 0.18413 -0.091794 0.48234 -0.092728 -0.64787 -0.029142 0.25876 -0.29877 0.050584 0.40423 0.14635 0.19021 -0.18065 -0.26857 -0.047382 0.10542 -0.0034731 0.057748 -0.14312 0.15751 -0.084528 0.079 0.25085 0.0014607 0.4467 0.1939 0.23395 -0.39764 -0.2347 -0.086098 0.15362 -0.19917 -0.071371 -0.027858 -0.20171 0.20619 -0.32844 -0.41925 -0.55989 -0.10723 0.33019 0.43061 -0.012867 0.09427 -0.10822 -0.085086 0.25891 0.039858 0.043506 -0.23462 0.52424 -0.31767 0.17319 -0.29111 0.092479 -0.2921 0.017743 0.31963 0.3497 -0.6855 0.48495 0.147 -0.29971 0.021962 -0.096441 0.01199 -0.37771 -0.3808 -0.14212 -0.098452 -0.057488 -0.55896 -0.63752 0.32432 0.51176 -0.12824 -0.38936 0.27215 0.28901 -0.33432 0.068128 -0.36578 0.12556 0.79955 0.11824 0.30589 -0.7875 -0.42626 -0.089066 0.050608 -0.5879 -0.33973 0.11229 0.32193 0.63418 -0.22773 -0.36213 0.4218 -0.58592 -0.10543 -0.32265 -0.49612 0.14071 -0.03094 0.26594 -0.38269 0.46341 -0.25437 -0.2679 0.050018 -0.67775 -0.13661 0.1283 0.40199 0.069638 -0.23831 -0.5551 0.15385 0.40703 0.12971 -0.79325 0.0458 -0.14561 0.11747 0.33589 0.10942 0.33181 0.39312 0.21168 -0.19697 -0.040799 -0.52302 0.17745 -0.12925 0.20844 -0.30669 0.24631 -0.36153 -0.068905 0.040734 0.098267 0.26381 0.47244 -0.1897 0.014747 -0.82166 0.54637 -0.081094 0.25917 0.066879 -0.28977 0.017835 -0.8617 0.34317 -0.59535 -0.10446 0.38936 -0.33436 0.38441 -0.16867 -0.15153 0.14938 -0.083845 0.32575 -0.071496 0.75756 0.44376 0.072799 0.84787 -0.1591 0.50877 -0.19 0.74433 -0.23469 0.076728 -0.12136 -0.013928 -0.17253 0.33355 -0.020949 -0.0064034 0.4126 0.011164 0.16384 0.10416 0.11374 -0.30868 -0.54233 -0.35146 0.15491 -0.49122 0.13535 0.10612 -0.047681 -0.11252 -0.00042523 0.31968 -0.38929 -0.31854 0.38015 0.45865 0.0069469 0.40635 -0.39417 0.42451 -0.11432 0.33436 -0.088015 0.13365 -0.14183 0.23409 -0.061994 0.16494 0.4366 0.36184 -0.45029 -0.51158 -0.44708 0.49362 -0.20095 0.016648
id 0.51221 -0.31802 0.071297 -0.0949 0.070655 0.46237 0.32424 0.33134 -0.38103 -0.43688 -0.56552 0.24539 0.26951 0.063196 -0.0078778 -0.47544 0.60621 -0.0044305 0.5335 -0.031158 0.098389 -0.17471 -0.080145 -0.60525 -0.45602 -0.021876 -0.38825 0.17477 0.026889 0.14289 -0.24642 -0.2413 -0.20807 0.13221 0.0178 -0.51983 -0.11761 -0.21712 -0.23941 -0.18137 0.083695 -0.10524 -0.046778 -0.012306 -0.089386 0.21274 -0.17794 -0.17561 0.2261 -0.10971 -0.4147 0.45271 0.43265 0.35503 0.28993 -0.21101 -0.0070057 -0.43373 -0.20627 -0.44481 0.10351 0.12166 0.16495 0.25724 0.050153 0.32201 0.11635 -0.29092 -0.28033 -0.26267 0.037551 -0.3004 -0.087814 -0.70426 -0.27762 -0.24349 0.27413 -0.075658 -0.032617 0.13719 -0.058521 0.41971 -0.13967 -0.70583 -0.001254 0.2374 -0.36201 -0.068147 0.45787 0.069447 0.25583 -0.13614 -0.21714 -0.12739 0.078455 0.028704 0.15554 -0.15399 0.20397 -0.12536 0.12977 0.21244 -0.0081591 0.47 0.14536 0.17319 -0.3885 -0.24939 -0.14837 0.22608 -0.16488 0.1115 0.15495 -0.21724 0.090948 -0.35368 -0.38038 -0.69271 -0.090911 0.41338 0.3143 0.054345 0.09419 -0.16159 0.052966 0.3681 -0.13593 0.14223 -0.16706 0.50046 -0.25502 0.18924 -0.43901 0.091251 -0.25526 -0.051228 0.34475 0.40905 -0.66013 0.46569 0.092679 -0.60095 -0.0012042 -0.14372 0.049491 -0.256 -0.46265 0.028066 -0.08999 0.0033232 -0.57911 -0.66543 0.41147 0.42193 -0.046876 -0.43726 0.34174 0.25621 -0.33172 0.10224 -0.48535 0.10279 0.89317 0.017966 0.29934 -0.82382 -0.36664 -0.076404 -0.083079 -0.54057 -0.45726 0.048526 0.34528 0.65915 -0.26317 -0.35919 0.61111 -0.63521 -0.087199 -0.26681 -0.5001 0.14221 0.023212 0.29001 -0.36936 0.58033 -0.29564 -0.12025 0.051701 -0.7885 -0.16345 0.076964 0.37284 0.064474 -0.15269 -0.61344 0.22213 0.44885 0.23493 -0.81432 -0.022708 -0.32695 0.17281 0.37631 0.14432 0.48794 0.40634 0.18954 -0.26706 -0.12226 -0.58207 0.30652 -0.21454 0.068277 -0.36585 0.40583 -0.55022 -0.058562 0.063606 0.18782 0.33357 0.48184 -0.1964 0.14356 -0.88107 0.65123 -0.13975 0.10056 0.083228 -0.39805 0.054635 -1.0097 0.40368 -0.54258 0.0077627 0.40904 -0.37583 0.42358 -0.25948 -0.2414 0.30775 -0.11282 0.43372 -0.054499 0.816 0.3672 0.083668 0.95887 -0.22649 0.45892 -0.18693 0.86765 -0.21201 -0.038297 -0.155 -0.08417 -0.067834 0.3934 0.010571 0.015892 0.44137 0.070229 0.044458 0.13431 0.1082 -0.34929 -0.58826 -0.20531 0.23874 -0.4551 0.17452 0.24845 -0.072795 -0.12335 0.0022445 0.23591 -0.32134 -0.35839 0.3243 0.47125 0.024474 0.34039 -0.29984 0.32053 -0.13081 0.33361 -0.082777 0.02587 -0.080661 0.30494 -0.03725 0.1212 0.57383 0.45606 -0.47772 -0.519 -0.31956 0.42366 -0.06378 -0.049269
org 0.44942 -0.24141 0.064705 -0.13272 0.17281 0.39751 0.35097 0.48397 -0.36825 -0.46262 -0.52188 0.23067 0.23302 -0.017197 -0.15168 -0.49379 0.54082 0.067571 0.42313 -0.073187 0.10612 -0.23053 -0.12654 -0.59756 -0.51007 -0.031287 -0.34556 0.051808 0.1539 0.17306 -0.1923 -0.25634 -0.25841 0.17736 0.076317 -0.55465 -0.156 -0.23066 -0.20461 -0.10987 0.14998 -0.098221 0.032071 0.023289 -0.020386 0.12931 -0.27773 -0.15967 0.094695 -0.064259 -0.40999 0.3938 0.43762 0.25317 0.36774 -0.12674 0.0051481 -0.44657 -0.15532 -0.41114 0.10036 0.075684 0.12739 0.27029 0.12389 0.21178 0.092713 -0.30945 -0.28114 -0.35215 0.088053 -0.3001 -0.175 -0.62886 -0.24119 -0.26867 0.19591 -0.014555 0.025599 0.18092 -0.091249 0.49262 -0.092627 -0.71369 -0.04449 0.17638 -0.31999 -0.027956 0.47209 0.15473 0.24602 -0.1492 -0.31768 -0.097194 0.14789 0.04295 0.11452 -0.20198 0.18116 -0.093249 0.16721 0.26346 0.040279 0.43063 0.19962 0.23331 -0.4387 -0.225 -0.04528 0.16052 -0.18476 0.013454 0.024281 -0.25184 0.17463 -0.33759 -0.39197 -0.6273 -0.12407 0.42983 0.40242 0.00013707 0.1343 -0.1489 -0.020971 0.27537 -0.013511 0.048406 -0.24464 0.50241 -0.31719 0.21837 -0.33938 0.13225 -0.29705 -0.073434 0.35284 0.40074 -0.57979 0.48326 0.1631 -0.3686 -0.030456 -0.16715 0.023226 -0.36027 -0.40191 -0.13023 -0.068063 -0.03916 -0.63213 -0.67892 0.36254 0.44876 -0.12562 -0.44719 0.24558 0.23565 -0.28828 0.076599 -0.44527 0.10645 0.90691 0.09386 0.32934 -0.82627 -0.44622 -0.042411 -0.031471 -0.55418 -0.36859 0.12261 0.38391 0.65278 -0.23902 -0.37396 0.45548 -0.57495 -0.037801 -0.30803 -0.51266 0.11959 -0.058965 0.28136 -0.40452 0.52621 -0.3009 -0.2491 0.024975 -0.76079 -0.1367 0.090173 0.41691 0.056216 -0.21014 -0.59943 0.16072 0.45827 0.16007 -0.84424 0.018675 -0.17705 0.12884 0.40161 0.11968 0.39519 0.34126 0.18341 -0.28592 -0.035105 -0.58148 0.20874 -0.16005 0.20829 -0.3462 0.28166 -0.46209 -0.122 0.054016 0.16349 0.29468 0.42047 -0.18195 0.092724 -0.83971 0.58643 -0.068229 0.22526 0.029755 -0.30363 -0.019692 -0.91527 0.38539 -0.57289 -0.081026 0.42393 -0.35039 0.42966 -0.19176 -0.2132 0.18447 -0.092728 0.29028 -0.09897 0.78958 0.37309 0.10576 0.9289 -0.11033 0.52165 -0.29655 0.79106 -0.22591 0.028115 -0.14614 -0.0078847 -0.20012 0.3487 -0.021667 0.096732 0.40863 0.054325 0.092418 0.1563 0.11398 -0.34378 -0.53266 -0.34089 0.16929 -0.47533 0.1777 0.14709 -0.050199 -0.18308 0.0074665 0.27503 -0.41787 -0.28084 0.37945 0.50328 -0.012342 0.34504 -0.38128 0.39153 -0.14107 0.26886 -0.092297 0.075039 -0.1459 0.28619 -0.068274 0.1747 0.52378 0.35988 -0.53142 -0.49651 -0.35981 0.44977 -0.14073 -0.040666
wiki 0.43289 -0.2689 0.15757 -0.14325 0.23794 0.41462 0.37588 0.58627 -0.36932 -0.46337 -0.51939 0.17883 0.17505 -0.02538 -0.1501 -0.3663 0.577 0.12443 0.51943 -0.021472 0.11033 -0.16646 -0.20944 -0.58795 -0.51028 -0.13339 -0.35914 0.028404 0.24393 0.18152 -0.24512 -0.31445 -0.33021 0.10655 0.045791 -0.54098 -0.066491 -0.13757 -0.23607 -0.25708 0.26488 -0.13131 -0.095276 -0.018144 -0.016921 0.2288 -0.35285 -0.23881 0.13181 -0.029614 -0.35765 0.42439 0.55768 0.23349 0.37036 -0.095226 -0.070918 -0.509 -0.17299 -0.39421 0.10183 0.0045683 0.08371 0.30254 0.041207 0.23208 0.1765 -0.37151 -0.129 -0.34124 0.01826 -0.37198 -0.17307 -0.6737 -0.31323 -0.31326 0.17825 0.092052 0.076767 0.31072 -0.049833 0.46521 -0.15851 -0.70008 -0.048458 0.21471 -0.22057 -0.0037125 0.51908 0.14794 0.15559 -0.20309 -0.19238 -0.029334 0.12373 -0.0034818 0.023041 -0.14217 0.13128 -0.09132 0.10038 0.27719 0.0079415 0.39739 0.23411 0.28363 -0.45746 -0.33456 -0.080669 0.1823 -0.17099 -0.052508 -0.048078 -0.1935 0.19263 -0.34496 -0.54789 -0.62627 -0.14785 0.4242 0.45985 -0.055504 0.089738 -0.12853 -0.035794 0.34322 -0.10591 0.034336 -0.21598 0.59135 -0.35527 0.32572 -0.39154 0.14034 -0.30672 -0.052136 0.36954 0.37023 -0.62282 0.48779 0.14309 -0.29886 -0.037949 -0.17938 -0.058824 -0.29996 -0.48635 -0.066934 -0.046493 0.0090878 -0.51793 -0.64078 0.37632 0.51241 -0.15925 -0.43025 0.32339 0.3005 -0.29747 0.025516 -0.4236 0.16923 1.022 0.13039 0.31679 -0.83424 -0.49552 -0.090091 0.15324 -0.55572 -0.31781 0.09637 0.42994 0.60314 -0.22906 -0.35852 0.44868 -0.60614 0.0077041 -0.40965 -0.508 0.16856 -0.048419 0.34786 -0.35881 0.51495 -0.30823 -0.3043 -0.040658 -0.68623 -0.1548 0.1335 0.48326 -0.0064367 -0.32154 -0.53165 0.11781 0.41558 0.079765 -0.89108 0.072279 -0.15273 0.14946 0.39864 0.095025 0.45276 0.30589 0.20776 -0.31792 -0.048033 -0.58121 0.18738 -0.13298 0.30653 -0.28522 0.29214 -0.45594 -0.12147 0.044949 0.12594 0.35404 0.45959 -0.056443 0.086285 -0.85954 0.52278 -0.080066 0.29782 0.048318 -0.29413 -0.085246 -1.0018 0.37517 -0.60793 -0.1277 0.33841 -0.32309 0.37512 -0.24372 -0.22617 0.15977 -0.18313 0.23148 -0.043906 0.75365 0.40742 0.083175 0.93193 -0.17457 0.5878 -0.26925 0.80313 -0.20259 0.081753 -0.098115 -0.097609 -0.18864 0.33713 -0.048034 0.052502 0.42689 0.049405 0.10033 0.14494 0.053455 -0.34655 -0.57204 -0.32901 0.15975 -0.53575 0.15391 0.075247 -0.014469 -0.19826 -0.0149 0.32887 -0.32845 -0.32156 0.39878 0.52115 0.085597 0.47398 -0.36353 0.36967 -0.17787 0.28317 -0.17094 0.18873 -0.10914 0.25074 -0.072681 0.22506 0.37639 0.32105 -0.47955 -0.55377 -0.45396 0.54003 -0.17351 -0.10745
wikipedia 0.40976 -0.3424 0.12082 -0.12469 0.16829 0.41563 0.35466 0.52573 -0.36812 -0.4101 -0.57776 0.20216 0.21297 -0.0039379 -0.12266 -0.44018 0.52292 0.052617 0.46096 -0.075785 0.12549 -0.20896 -0.18538 -0.585 -0.48349 -0.042149 -0.37681 0.033626 0.1019 0.2129 -0.19976 -0.34421 -0.20415 0.14774 0.10182 -0.56073 -0.17039 -0.20979 -0.28385 -0.18862 0.1385 -0.1077 -0.035651 0.0032765 -0.075378 0.18192 -0.29768 -0.15739 0.18703 -0.050385 -0.40167 0.39603 0.51096 0.2823 0.32398 -0.12962 -0.04851 -0.44283 -0.18298 -0.38576 0.095817 0.062668 0.079301 0.24132 0.084471 0.22995 0.14968 -0.3216 -0.18824 -0.33569 0.054069 -0.32708 -0.1492 -0.72919 -0.26088 -0.26805 0.22238 0.012179 0.030218 0.21504 -0.10061 0.48424 -0.14703 -0.72928 -0.019817 0.21725 -0.26144 -0.014012 0.47429 0.1648 0.25488 -0.18379 -0.26452 -0.10694 0.13591 0.039328 0.057308 -0.10956 0.19748 -0.12592 0.14145 0.28178 -0.00051506 0.42575 0.13512 0.22907 -0.48024 -0.27897 -0.069052 0.2531 -0.16986 0.01221 0.04671 -0.25896 0.20799 -0.40993 -0.47119 -0.56752 -0.10605 0.40422 0.43115 -0.018661 0.1618 -0.16196 -0.0043047 0.26493 -0.072214 0.098367 -0.1796 0.55675 -0.31695 0.21762 -0.41977 0.14765 -0.31942 -0.058063 0.41394 0.41338 -0.61328 0.49699 0.17798 -0.42972 0.025768 -0.092576 0.055888 -0.33008 -0.45717 -0.084484 -0.067323 0.013658 -0.60206 -0.68299 0.38407 0.46223 -0.13168 -0.44384 0.31221 0.24543 -0.32289 0.03102 -0.42465 0.11345 0.90905 0.10426 0.28114 -0.80164 -0.49657 -0.072529 0.058905 -0.60121 -0.35079 0.062303 0.44228 0.6523 -0.25974 -0.3813 0.46478 -0.5934 -0.015177 -0.33117 -0.51322 0.1456 -0.026079 0.31382 -0.36244 0.52726 -0.27305 -0.21757 0.042759 -0.71682 -0.13539 0.11781 0.42392 0.032275 -0.27621 -0.62695 0.17284 0.3931 0.069446 -0.75851 0.033274 -0.17378 0.19867 0.4115 0.056931 0.45192 0.36116 0.22832 -0.28117 -0.033435 -0.58663 0.17802 -0.19724 0.17625 -0.40588 0.37567 -0.49602 -0.069197 0.07205 0.1953 0.3498 0.46928 -0.1361 0.11754 -0.8905 0.56758 -0.078193 0.275 0.078524 -0.30035 0.017785 -0.94641 0.37607 -0.61717 -0.080727 0.35183 -0.33847 0.4587 -0.22248 -0.23473 0.14014 -0.12402 0.30783 -0.05842 0.74774 0.43157 0.074066 0.96277 -0.17702 0.49542 -0.23586 0.76632 -0.21436 0.033727 -0.11918 -0.043203 -0.19865 0.33934 -0.046433 0.026592 0.39892 0.057837 0.13188 0.1393 0.17417 -0.34602 -0.566 -0.30559 0.18955 -0.50575 0.12568 0.11734 -0.042526 -0.22131 0.046469 0.2463 -0.36507 -0.25112 0.31571 0.43311 0.01624 0.36553 -0.34047 0.40713 -0.18769 0.3065 -0.16143 0.14284 -0.052515 0.27438 -0.050131 0.17878 0.48984 0.37331 -0.46114 -0.5099 -0.40124 0.51892 -0.18726 -0.065299
https 0.46173 -0.25184 0.080001 -0.14801 0.04946 0.51523 0.36017 0.37958 -0.32498 -0.43139 -0.60918 0.25353 0.25027 -0.046074 -0.13681 -0.49163 0.56825 0.010199 0.48741 -0.12973 0.039164 -0.23389 -0.095433 -0.62653 -0.50383 -0.026091 -0.37243 0.062326 0.081449 0.15297 -0.16916 -0.28738 -0.17053 0.20784 0.13275 -0.53218 -0.14915 -0.25205 -0.2404 -0.070357 0.13791 -0.029772 -0.039583 -0.0089948 -0.060089 0.14811 -0.23518 -0.092599 0.22365 -0.089525 -0.44392 0.39041 0.45464 0.29042 0.29686 -0.14951 0.025001 -0.50317 -0.23374 -0.4271 0.070367 0.091509 0.14948 0.32652 0.12263 0.22462 0.15036 -0.33656 -0.23178 -0.28427 0.12117 -0.23955 -0.12427 -0.69977 -0.25603 -0.22141 0.23105 -0.060587 -0.05636 0.18323 -0.10473 0.50949 -0.10889 -0.68797 -0.01234 0.22799 -0.38113 -0.040879 0.42573 0.051604 0.30937 -0.12933 -0.32868 -0.16054 0.12653 0.058767 0.10044 -0.14721 0.19834 -0.18801 0.21348 0.30199 6.0117e-05 0.47749 0.1514 0.21597 -0.42891 -0.19626 -0.13577 0.20333 -0.15676 0.13278 0.10707 -0.26573 0.16526 -0.39305 -0.40923 -0.61702 -0.091524 0.42394 0.36549 0.03327 0.092088 -0.14948 -0.037481 0.28416 -0.045665 0.048674 -0.17174 0.51132 -0.31992 0.17029 -0.39417 0.14081 -0.26494 -0.022678 0.34919 0.45199 -0.58847 0.52739 0.12136 -0.50006 -0.0033769 -0.13037 0.12644 -0.34317 -0.38422 -0.073139 -0.052458 0.0060735 -0.57611 -0.68573 0.42113 0.40258 -0.16435 -0.40885 0.2728 0.26463 -0.28686 0.097423 -0.44776 0.086822 0.93858 -0.012204 0.31051 -0.85111 -0.44702 -0.11854 -0.070186 -0.56783 -0.38685 0.080305 0.38207 0.70983 -0.26445 -0.35903 0.53641 -0.55716 -0.062534 -0.2991 -0.58531 0.15487 -0.02392 0.25249 -0.37252 0.52544 -0.35514 -0.14738 0.062354 -0.77715 -0.13841 0.049578 0.34986 0.065804 -0.14191 -0.66113 0.23986 0.47225 0.11714 -0.74378 -0.023062 -0.22317 0.14985 0.43126 0.046803 0.39564 0.30532 0.16356 -0.31731 -0.073848 -0.60824 0.18475 -0.17807 0.15966 -0.41258 0.30777 -0.52177 -0.049514 0.01977 0.20712 0.30923 0.48527 -0.19516 0.099783 -0.86229 0.56413 -0.10814 0.16831 0.035965 -0.35545 0.038743 -0.93141 0.38127 -0.55841 -0.047429 0.36126 -0.39128 0.41336 -0.21979 -0.22929 0.21886 -0.1091 0.42903 -0.051682 0.83147 0.37085 -0.0025135 0.8981 -0.20162 0.45439 -0.24407 0.7896 -0.17516 0.0062743 -0.065061 -0.053085 -0.1406 0.43303 0.0095093 0.042907 0.44507 -0.0064866 0.13265 0.18207 0.13531 -0.35651 -0.53871 -0.21459 0.24251 -0.41557 0.17275 0.19066 -0.085232 -0.15104 -0.054624 0.23987 -0.42162 -0.2993 0.28958 0.41686 -0.048477 0.33131 -0.27593 0.35901 -0.15688 0.35559 -0.096652 0.044791 -0.12867 0.24891 -0.040551 0.14542 0.54329 0.46648 -0.49617 -0.46635 -0.32437 0.45277 -0.063694 -0.02941
title 0.45663 -0.29928 0.098789 -0.079762 0.25966 0.32709 0.35984 0.51668 -0.38289 -0.47887 -0.48716 0.27608 0.20427 -0.022448 -0.10443 -0.46134 0.54006 0.058193 0.44298 -0.07098 0.16018 -0.18129 -0.30775 -0.57608 -0.43915 -0.12367 -0.33133 0.029074 0.11538 0.20254 -0.29665 -0.34478 -0.27881 0.17902 0.038632 -0.57016 -0.13418 -0.20865 -0.24522 -0.21037 0.19974 -0.074472 -0.0084777 0.04328 0.0098345 0.14817 -0.31003 -0.19036 0.15786 -0.083377 -0.38756 0.44755 0.53116 0.27031 0.39578 -0.06505 -0.037996 -0.47928 -0.1408 -0.38533 0.080553 0.061816 0.12127 0.29171 0.08502 0.20324 0.14038 -0.34636 -0.19483 -0.30087 0.059313 -0.33262 -0.21529 -0.61478 -0.26647 -0.20288 0.19255 0.091069 0.038047 0.26227 -0.074195 0.51932 -0.093133 -0.73037 -0.080792 0.12864 -0.32838 0.0094539 0.45296 0.15066 0.25396 -0.19616 -0.27052 -0.13821 0.11958 -0.0056283 0.098784 -0.14181 0.17086 -0.087213 0.11017 0.33223 0.021479 0.38574 0.21704 0.2221 -0.44024 -0.24032 0.0045719 0.21922 -0.23517 -0.025383 0.020575 -0.24433 0.1844 -0.33654 -0.39909 -0.58765 -0.16693 0.39429 0.41324 0.0073911 0.092497 -0.13373 -0.13671 0.20468 0.011114 0.14533 -0.25229 0.63667 -0.25884 0.15811 -0.35615 0.13439 -0.26319 -0.031074 0.32296 0.35634 -0.65153 0.48709 0.11341 -0.26716 0.0012824 -0.069912 -0.017118 -0.39866 -0.37681 -0.15033 -0.083915 -0.037236 -0.65735 -0.64309 0.37908 0.4994 -0.11987 -0.39291 0.27931 0.25291 -0.2728 -0.00092461 -0.38299 0.10968 0.93324 0.072965 0.34497 -0.75957 -0.44932 -0.10305 0.04304 -0.55634 -0.29988 0.08749 0.42511 0.61958 -0.29073 -0.36322 0.4421 -0.58318 -0.025804 -0.33171 -0.51706 0.18996 -0.093933 0.28066 -0.35464 0.44303 -0.30755 -0.27555 0.042871 -0.74015 -0.15492 0.13778 0.44486 0.022906 -0.25104 -0.48206 0.12152 0.42741 0.13674 -0.82296 0.044885 -0.12884 0.087759 0.34661 0.12279 0.39942 0.34226 0.22443 -0.27864 -0.00077888 -0.5832 0.21389 -0.2057 0.2504 -0.32723 0.23256 -0.41911 -0.11189 0.024377 0.075821 0.28018 0.4844 -0.11367 0.053742 -0.78863 0.61368 -0.10015 0.26113 0.062345 -0.30047 0.033114 -0.91645 0.33355 -0.55932 -0.16164 0.36043 -0.39063 0.39503 -0.18908 -0.13864 0.10521 -0.091015 0.30483 -0.097485 0.6996 0.4282 0.10033 0.92398 -0.10991 0.53612 -0.21437 0.75008 -0.2436 0.058414 -0.11237 -0.0069478 -0.20523 0.32596 -0.048604 0.017668 0.42439 0.025871 0.15584 0.12748 0.091923 -0.2749 -0.59481 -0.32165 0.1251 -0.53015 0.12137 0.078216 -0.025914 -0.17895 -0.04327 0.31082 -0.40513 -0.30602 0.42546 0.47998 0.023787 0.38979 -0.36352 0.43508 -0.13424 0.30666 -0.10862 0.11519 -0.1742 0.28402 -0.089008 0.23223 0.41021 0.32953 -0.49979 -0.57398 -0.40077 0.50092 -0.15435 -0.046419
url 0.48348 -0.227 0.072943 -0.058944 0.077657 0.47687 0.32968 0.3951 -0.32867 -0.42231 -0.61711 0.26174 0.32208 0.0096497 -0.012476 -0.5258 0.58324 -0.063844 0.51946 -0.12626 0.078051 -0.26711 -0.133 -0.61299 -0.51796 0.0052563 -0.38531 0.10647 0.0545 0.11957 -0.12474 -0.24427 -0.17889 0.15994 0.08905 -0.53269 -0.12131 -0.28626 -0.15034 -0.10839 0.12237 -0.040832 -0.073513 -0.040434 -0.070294 0.16504 -0.22703 -0.13564 0.2233 -0.064124 -0.42108 0.3947 0.41109 0.32239 0.27702 -0.13044 0.033897 -0.43649 -0.26331 -0.44036 0.063072 0.11702 0.055094 0.26133 0.13975 0.24676 0.12331 -0.31307 -0.29316 -0.33224 0.040749 -0.2581 -0.11146 -0.6872 -0.22416 -0.19759 0.22789 -0.059318 -0.045048 0.15465 -0.088597 0.47729 -0.14115 -0.70663 -0.104 0.24041 -0.38779 -0.0072605 0.4853 0.053208 0.31969 -0.13613 -0.29604 -0.19063 0.14247 0.050084 0.1556 -0.10087 0.20398 -0.16393 0.17553 0.25812 -0.061866 0.47156 0.1176 0.159 -0.37474 -0.26568 -0.11881 0.18534 -0.17743 0.11297 0.20062 -0.29551 0.17747 -0.38604 -0.36023 -0.63305 -0.11263 0.39599 0.34355 0.031928 0.10814 -0.1698 -0.031974 0.28665 -0.043538 0.055137 -0.18904 0.46653 -0.26911 0.1884 -0.37783 0.15542 -0.28001 -0.013655 0.35685 0.43355 -0.59486 0.4284 0.11978 -0.56836 0.047134 -0.12888 0.083814 -0.32882 -0.40278 -0.021826 -0.020196 0.033229 -0.61034 -0.68162 0.43734 0.40262 -0.040218 -0.50028 0.28686 0.24819 -0.31368 0.14369 -0.48073 0.096606 0.83779 0.01911 0.3263 -0.83838 -0.33645 -0.017495 -0.13229 -0.44637 -0.4212 0.11607 0.39169 0.69663 -0.24717 -0.31874 0.4941 -0.55024 -0.088831 -0.24338 -0.56267 0.14291 -0.083759 0.25134 -0.39608 0.52428 -0.29493 -0.095844 0.025716 -0.85738 -0.1404 0.043027 0.38606 0.050573 -0.14582 -0.65335 0.19822 0.46016 0.16383 -0.78259 -0.032816 -0.23507 0.18843 0.42801 0.025017 0.45794 0.35785 0.099685 -0.23575 -0.094637 -0.65804 0.15956 -0.22304 0.096689 -0.48287 0.32949 -0.57669 -0.089961 0.01961 0.22321 0.37844 0.45985 -0.219 0.095399 -0.84438 0.59889 -0.10275 0.14974 0.014036 -0.33131 0.063941 -0.92366 0.3659 -0.53306 -0.065562 0.35465 -0.41654 0.42893 -0.27537 -0.26132 0.24022 -0.072368 0.43842 -0.021356 0.76292 0.40259 0.10074 0.98485 -0.1586 0.49326 -0.2674 0.8107 -0.17277 -0.0027926 -0.15564 -0.099416 -0.10226 0.41488 0.032543 0.024081 0.48077 0.060066 0.14452 0.23084 0.21957 -0.34568 -0.57041 -0.27195 0.26108 -0.43013 0.21828 0.21654 -0.10713 -0.14287 -0.038537 0.2132 -0.41493 -0.35486 0.27923 0.42656 -0.072547 0.2873 -0.26759 0.36161 -0.19502 0.33759 -0.037907 0.035144 -0.15323 0.27608 -0.073341 0.18462 0.60066 0.45869 -0.55202 -0.52177 -0.36011 0.41793 -0.066955 -0.018525
curid 0.45556 -0.27119 0.070664 -0.12169 0.20468 0.41336 0.38287 0.4638 -0.38109 -0.47662 -0.55164 0.2633 0.20134 -0.030323 -0.11328 -0.42572 0.59607 0.086235 0.49966 -0.055381 0.10676 -0.19986 -0.24097 -0.57554 -0.43233 -0.094334 -0.36216 0.0085361 0.10771 0.2282 -0.21711 -0.28364 -0.27906 0.20146 0.084901 -0.55358 -0.17278 -0.21659 -0.2003 -0.15536 0.17456 -0.047436 1.4814e-05 0.03829 -0.036162 0.14673 -0.29025 -0.17726 0.14203 -0.019886 -0.37157 0.4525 0.48083 0.26821 0.39663 -0.072975 -0.01357 -0.48747 -0.15661 -0.40825 0.083144 0.070927 0.091692 0.28068 0.038833 0.20113 0.18642 -0.36248 -0.26843 -0.35224 0.058571 -0.34127 -0.2705 -0.60352 -0.25718 -0.19837 0.18367 0.070215 0.042972 0.19509 -0.13039 0.47733 -0.080052 -0.68877 -0.098151 0.14814 -0.30068 0.020348 0.43988 0.14019 0.27332 -0.21148 -0.24285 -0.091851 0.10155 -0.00086404 0.073339 -0.12704 0.14972 -0.079258 0.085602 0.26732 0.040315 0.38692 0.22111 0.2309 -0.41691 -0.26301 -0.042322 0.22058 -0.24075 0.002089 0.030778 -0.24853 0.13406 -0.34164 -0.42518 -0.63329 -0.10981 0.42694 0.38112 0.010353 0.087528 -0.12422 -0.087202 0.25109 -0.026444 0.087678 -0.20696 0.54925 -0.26264 0.23041 -0.38271 0.15395 -0.26491 -0.01629 0.32814 0.38703 -0.66432 0.47175 0.14189 -0.32681 0.01568 -0.09668 -0.027299 -0.39127 -0.44334 -0.14621 -0.10094 -0.04263 -0.60063 -0.64118 0.40059 0.53066 -0.11362 -0.4451 0.28704 0.29401 -0.28599 0.020193 -0.43645 0.11555 0.92047 0.083069 0.34356 -0.80814 -0.44431 -0.089345 0.060774 -0.56027 -0.30853 0.090585 0.4172 0.61326 -0.2355 -0.34654 0.43023 -0.61551 -0.036222 -0.33764 -0.56695 0.14772 -0.092416 0.26951 -0.36422 0.48295 -0.32644 -0.28173 0.035984 -0.7118 -0.139 0.11456 0.4108 0.075463 -0.2642 -0.51798 0.11491 0.42859 0.1477 -0.84132 0.0087126 -0.16192 0.11028 0.3506 0.092027 0.4169 0.33619 0.22559 -0.24745 -0.022676 -0.61297 0.17358 -0.19069 0.26421 -0.36748 0.28858 -0.46149 -0.11229 0.019555 0.14069 0.27932 0.45846 -0.10808 0.023397 -0.84373 0.59867 -0.075653 0.2783 0.11745 -0.28307 0.02781 -0.94162 0.33957 -0.55363 -0.12451 0.38568 -0.36654 0.40545 -0.19604 -0.18297 0.19949 -0.11129 0.28282 -0.083319 0.6976 0.40483 0.096181 0.95517 -0.12701 0.56211 -0.20237 0.77975 -0.20664 0.068817 -0.11806 -0.059434 -0.2064 0.29478 -0.0055834 0.00075432 0.41127 0.025645 0.14512 0.097851 0.10259 -0.31755 -0.63595 -0.30109 0.14764 -0.51744 0.11035 0.10398 -0.05288 -0.18841 -0.023468 0.28032 -0.38252 -0.25784 0.42937 0.52262 0.037989 0.41031 -0.34177 0.40885 -0.14521 0.2683 -0.11603 0.085479 -0.15299 0.25767 -0.11763 0.16295 0.39775 0.39559 -0.48555 -0.53686 -0.44434 0.46799 -0.13495 -0.025516
了 0.01597 -0.098657 0.093188 0.11981 -0.16428 0.012269 0.28647 0.21009 -0.12552 0.064841 -0.11149 0.17842 0.27965 -0.084537 -0.2785 0.15034 -0.1134 -0.26927 -0.16253 0.09498 -0.22249 -0.19618 -0.126 -0.18061 0.034509 0.12228 -0.022688 0.20763 0.083616 0.0089973 0.057998 -0.002813 -0.29757 0.18263 -0.14688 0.035658 -0.26255 -0.22833 0.047023 -0.13651 0.086049 0.026932 0.09571 -0.023207 -0.011172 0.032228 -0.15678 -0.097865 -0.097724 0.01851 -0.089872 0.018671 0.12065 0.33061 0.070428 -0.2339 -0.13239 -0.15331 -0.19247 -0.19575 0.31874 0.046776 0.030337 0.14223 0.22644 -0.061416 -0.078946 -0.027283 -0.45849 -0.082751 -0.10234 0.31968 -0.19533 -0.16498 -0.20047 -0.046603 0.0014583 -0.13637 -0.042065 -0.14341 -0.090857 0.089048 0.10925 -0.033595 -0.037275 -0.20431 -0.16048 -0.080981 -0.011017 0.21429 -0.031742 -0.044988 -0.12274 -0.096157 -0.092372 -0.1738 0.11481 0.12284 0.1763 -0.20056 0.034212 0.23486 0.10884 -0.1735 0.13088 -0.15415 -0.29307 -0.1261 -0.03254 0.099317 -0.38273 -0.18223 0.157 -0.21176 0.099936 -0.13448 0.13484 -0.12608 -0.13554 -0.021357 0.22423 0.075901 0.34637 0.1996 -0.18773 0.052532 -0.10846 0.12017 -0.32254 0.17501 0.046508 -0.14634 0.10159 0.16518 0.10045 0.21063 -0.11368 -0.18793 -0.34339 0.043088 0.2267 0.084072 -0.13198 0.0099003 -0.23335 -0.32929 -0.087818 -0.13499 -0.15466 -0.16691 -0.16113 -0.34836 -0.099586 0.011118 0.16535 0.14708 0.14346 -0.097847 0.041305 0.38394 -0.13653 0.013967 0.011272 0.15389 0.40759 0.26948 -0.11438 0.18997 -0.089298 -0.24828 -0.20235 0.032511 0.034887 0.36727 -0.14739 -0.18368 0.24793 -0.015384 -0.10671 0.033594 -0.17189 0.25399 -0.30585 0.13591 0.12539 0.13457 -0.097497 0.051292 -0.37833 0.24783 -0.10917 -0.070723 0.071228 0.12656 -0.15178 -0.36572 0.08438 -0.018523 0.01563 -0.354 0.1166 0.29269 0.27471 0.024399 -0.10624 -0.12155 0.13629 -0.0061094 -0.067057 -0.15338 0.057397 0.011271 0.070976 0.13883 -0.14234 0.018159 -0.025313 -0.093667 0.014851 -0.0019663 -0.23876 -0.033359 -0.037691 -0.09494 -0.080782 0.20439 0.19186 -0.1846 -0.10178 0.028567 -0.30307 0.15231 -0.39621 -0.1359 0.10745 0.20611 -0.15072 -0.055622 -0.11118 0.24948 0.2668 0.078202 0.19837 -0.084241 0.16846 0.040995 0.12014 -0.22229 0.024978 0.39422 -0.31738 0.13829 0.093477 -0.015262 -0.18556 0.18543 0.11342 -0.1454 -0.0060944 0.20313 0.14231 0.3905 -0.048141 0.096688 0.2859 0.071727 -0.083503 -0.12215 0.26695 -0.1222 0.12413 0.3079 -0.1403 -0.13041 0.031377 -0.016293 -0.0076942 -0.17537 -0.23629 -0.12568 0.14571 -0.29589 -0.31414 0.10945 -0.1386 0.12966 -0.025508 -0.063172 -0.46679 0.13557 0.19208 0.33294 -0.20084 -0.018823 -0.13809 0.18664 0.0066459 0.003532 -0.0031406 0.2107
“ 0.093524 -0.18064 0.17192 -0.071035 -0.0014614 -0.013735 0.15417 0.36555 0.15982 -0.28185 -0.074565 0.069845 0.28019 -0.12321 -0.54705 0.032066 0.13569 -0.12731 0.048987 -0.001256 -0.12459 -0.35002 -0.14526 -0.19078 0.12972 0.037067 -0.065798 0.17633 0.12306 0.12281 -0.016921 -0.099709 -0.11194 0.25805 -0.022658 -0.11801 -0.17205 0.0056281 -0.17475 0.011561 0.24757 0.19021 0.011073 -0.031056 -0.239 0.017086 -0.20579 -0.26097 -0.035966 0.20157 0.0469 0.17896 -0.014326 0.27333 0.019937 -0.044057 -0.12115 -0.42151 -0.23018 -0.15107 0.18814 -0.17542 0.068409 0.10747 0.22055 0.23641 0.030503 -0.15203 -0.20165 0.15955 0.24183 -0.029502 -0.27654 0.020249 -0.12253 0.015807 -0.088231 -0.046164 0.18481 -0.13619 -0.056536 0.32305 0.010988 -0.056962 0.013805 0.044062 -0.26082 -0.1835 -0.30718 0.050126 0.084176 -0.18478 -0.091876 -0.17843 -0.13663 -0.13774 0.18044 -0.025848 -0.17681 0.024041 0.024566 0.072804 -0.26569 0.31415 0.13401 0.16984 -0.39804 0.20749 0.09694 0.03389 -0.34015 -0.2606 0.31815 -0.29494 -0.10936 -0.023866 0.039729 0.11313 0.15057 -0.078732 0.22982 0.25813 0.098301 0.17287 0.019794 -0.078083 0.15629 -0.057973 -0.13269 0.15944 -0.058775 -0.27431 -0.074863 0.26447 0.097451 0.23154 -0.030066 -0.10123 -0.45186 -0.017871 0.34662 -0.036896 -0.16832 0.17893 0.084014 -0.090386 0.028447 -0.25356 -0.19129 -0.19079 0.097022 -0.28056 -0.1484 -0.38766 0.14418 -0.07792 0.18058 -0.0092923 -0.040911 0.14804 -0.088569 -0.0002341 0.05146 0.41071 -0.0091764 0.043441 0.068769 0.22691 0.026188 -0.14498 0.040805 0.041968 -0.13743 0.32911 0.010155 -0.25847 0.14642 0.038633 -0.17792 0.00019848 -0.10622 0.44924 -0.10596 0.20339 -0.21087 -0.06595 0.067276 -0.21005 0.12882 0.020432 0.21101 0.29724 0.39849 -0.0088796 -0.53018 -0.20371 0.0081279 0.22633 -0.16871 -0.13059 0.09332 0.27565 0.25636 -0.1356 0.10672 0.1164 -0.27336 0.19141 -0.1561 -0.16829 0.069509 0.057579 -0.0219 0.27658 -0.25957 -0.10624 -0.03053 -0.33574 0.26305 0.099583 0.048487 0.065888 0.010532 -0.21315 0.11147 0.20526 -0.13603 -0.097318 0.20445 0.034964 -0.29909 0.012847 -0.17924 -0.29864 -0.14919 0.090609 0.070688 -0.11479 -0.21531 0.053043 0.040982 0.20164 0.31692 -0.13381 -0.058026 0.099491 0.24387 0.034431 0.14734 0.067414 -0.10243 0.0016387 0.14464 0.35644 -0.23486 0.061502 -0.10223 -0.10208 0.0045569 -0.051812 -0.092912 0.36512 -0.060629 -0.18471 0.075487 -0.036418 -0.18274 0.12591 0.11816 -0.072624 -0.24226 0.28967 0.37062 -0.2489 0.25013 0.04343 0.11464 -0.062546 0.098001 0.37139 -0.072972 -0.095541 -0.036941 0.061884 0.078333 0.024279 0.062719 -0.06489 -0.32339 0.077512 -0.072459 0.11053 -0.1503 0.02711 -0.03537 0.21031 0.13321 -0.080552 -0.045158 -0.15441
” 0.065612 -0.25744 0.19066 -0.022927 -0.026836 -0.0031928 0.21654 0.39264 0.12689 -0.19049 -0.07154 0.069775 0.28922 -0.158 -0.46332 -0.026786 0.15421 -0.11957 0.051704 0.0059142 -0.16182 -0.29762 -0.18497 -0.18368 0.10054 -0.0057877 -0.038477 0.2047 0.18401 0.23086 -0.023754 -0.16888 -0.17196 0.30986 -0.063354 -0.1195 -0.16393 0.01419 -0.19071 0.047768 0.20905 0.20274 0.032345 -0.056191 -0.14669 0.028044 -0.21772 -0.24678 -0.0672 0.17134 0.057199 0.21069 0.037975 0.20701 -0.0026314 -0.01522 -0.12419 -0.41535 -0.13992 -0.14576 0.25435 -0.18281 0.049277 0.10194 0.23007 0.21382 -0.030922 -0.14492 -0.1898 0.18909 0.19172 -0.025319 -0.22344 0.070432 -0.14636 -0.055703 -0.085544 -0.032658 0.20289 -0.15023 -0.04652 0.38765 -0.0020165 -0.058775 -0.028007 0.081075 -0.19342 -0.18102 -0.36022 0.15275 0.11468 -0.15179 -0.14001 -0.16881 -0.16659 -0.18192 0.17024 0.041357 -0.16582 0.073942 -0.019377 0.022487 -0.28124 0.36046 0.15239 0.17476 -0.45306 0.24493 0.050756 0.042119 -0.22999 -0.22942 0.33144 -0.37782 -0.038539 0.032267 0.079189 0.13724 0.16597 -0.084345 0.19848 0.22912 0.10362 0.12984 -0.0206 0.024878 0.23609 -0.016295 -0.13408 0.125 -0.065124 -0.18213 -0.089997 0.2065 0.067801 0.28791 -0.092335 -0.081747 -0.54905 0.024342 0.32959 0.069721 -0.24548 0.18681 0.07959 -0.058318 0.064974 -0.26551 -0.26396 -0.21285 0.057701 -0.17126 -0.11951 -0.31638 0.17008 -0.025784 0.1913 -0.044155 -0.025451 0.1584 -0.07192 0.0093586 0.051283 0.41312 0.014938 0.031713 0.051836 0.20172 0.037897 -0.12837 0.064128 0.046448 -0.1272 0.25529 -0.020349 -0.20862 0.15053 0.090886 -0.20218 0.022189 -0.075902 0.43859 -0.1374 0.10859 -0.15443 -0.039109 0.10257 -0.21487 0.11065 0.030228 0.16709 0.29706 0.49358 0.039029 -0.60786 -0.1568 0.0047709 0.20549 -0.11089 -0.22784 0.0226 0.2046 0.25645 -0.14992 0.093503 0.11524 -0.304 0.15891 -0.15634 -0.10632 0.087137 0.080591 -0.010792 0.32854 -0.21043 -0.10185 -0.033115 -0.28407 0.19786 0.13903 0.049346 0.025795 0.075673 -0.093753 0.1547 0.22248 -0.13758 -0.044174 0.23171 -0.018302 -0.27894 0.082413 -0.173 -0.26375 -0.18902 0.057627 0.12338 -0.15339 -0.16272 0.049317 0.041377 0.19218 0.31979 -0.14321 0.0040393 0.18712 0.20694 0.015873 0.1113 0.06807 -0.080797 0.0041647 0.17523 0.3652 -0.21574 0.04865 -0.055478 -0.072054 -0.00054432 -0.075793 0.0096585 0.26798 -0.069189 -0.16612 0.039898 -0.05604 -0.10286 0.088025 0.1182 -0.028649 -0.24565 0.21126 0.27582 -0.21579 0.21068 0.03354 0.094209 -0.074923 0.12346 0.28612 -0.13103 -0.042519 -0.04991 0.031335 0.11761 -0.0092364 0.09558 -0.029546 -0.3135 0.042493 -0.057354 0.13076 -0.17079 -0.059079 -0.062215 0.17043 0.089126 -0.038136 -0.082753 -0.11078
- 0.30487 -0.25142 0.10214 0.10155 0.14526 -0.18585 0.056713 0.21052 -0.35022 -0.020983 -0.45832 0.010736 -0.12973 0.10359 0.27919 -0.15153 -0.27773 -0.22254 0.25714 0.35585 0.084413 -0.45892 -0.1305 0.22084 -0.47838 -0.011555 0.2001 0.1881 0.36573 0.37157 -0.2167 -0.14375 -0.30324 0.0059939 -0.26172 -0.34494 0.046745 0.008545 -0.061754 -0.48884 -0.49021 -0.073191 0.0404 0.39623 -0.10725 -0.22375 -0.0035536 -0.26805 -0.18048 0.0011809 -0.22508 0.23429 0.077832 0.24428 0.22369 0.1612 0.37587 -0.38299 -0.6259 -0.019077 0.0034956 0.33302 0.30879 -0.0069674 0.1527 0.23263 -0.26428 0.10526 -0.26215 0.025605 0.10251 -0.077253 0.041696 -0.03471 0.11223 0.10175 -0.096104 -0.016205 0.040565 0.2968 -0.22816 0.13736 -0.097131 -0.0049705 0.21342 0.021958 -0.13645 -0.10379 -0.15306 0.17053 -0.15596 0.26882 -0.31802 -0.78223 -0.0020425 0.052945 0.1238 -0.048721 -0.24426 -0.080354 -0.1137 -0.15854 0.30043 0.3281 0.4561 -0.30584 0.14909 -0.016133 0.19268 0.2942 -0.35606 0.17824 0.046371 -0.21637 0.25936 -0.088462 0.12144 -0.26832 -0.039915 0.030301 0.55769 0.071498 0.25515 0.09013 -0.16957 0.1387 0.097727 -0.045259 0.32043 0.29439 0.06525 0.054391 -0.03018 0.096145 -0.1535 0.26732 -0.036712 -0.28359 -0.18449 0.31205 0.43817 0.10315 -0.39973 0.22443 -0.037053 0.044315 0.03366 -0.30723 0.23118 -0.076314 -0.29071 -0.4751 0.2739 0.73329 -0.32378 0.28389 0.21721 -0.20239 -0.21845 0.10043 -0.31223 0.14469 -0.16821 0.38824 -0.097178 -0.14383 -0.093291 0.27932 -0.27309 -0.12763 -0.20723 0.17914 -0.33928 0.48177 0.33673 -0.30846 0.62439 -0.34556 -0.28553 -0.12481 -0.24126 0.58585 -0.35629 -0.0090854 0.039829 -0.1953 -0.062069 -0.44728 0.04445 0.45873 0.25585 0.013612 0.43012 0.085802 -0.20087 -0.80649 0.21413 -0.26535 0.28329 -0.61719 -0.23459 0.26712 0.055948 -0.14118 -0.032451 -0.1001 -0.10334 -0.075246 0.17586 -0.10232 0.093074 0.12558 0.17742 0.037973 0.031682 -0.28895 0.005068 0.091183 0.34199 0.23107 -0.29636 -0.21461 0.037206 -0.15358 -0.1473 0.18838 -0.40755 0.13546 0.021664 0.17847 0.19858 -0.22316 -0.4297 -0.13506 -0.39727 -0.0061078 0.029772 -0.0059964 0.35498 -0.017855 0.017561 0.027965 0.24327 -0.1068 0.28743 0.46604 0.23178 0.25913 -0.069309 0.27336 -0.62034 0.22408 0.037155 0.22889 -0.18988 0.021578 -0.0441 0.145 0.44031 -0.078407 0.00058647 0.3038 0.13441 0.17985 0.43516 0.05248 0.31495 -0.48263 -0.031374 -0.1264 -0.18848 0.45249 -0.045848 -0.31197 0.30181 -0.045244 -0.34468 -0.033984 0.63446 0.45103 0.27949 0.10846 -0.32864 -0.30881 0.1626 0.094036 0.17995 -0.071296 -0.54034 -0.21576 0.56384 0.025273 0.13248 0.26489 -0.10222 -0.22925 -0.22369 0.249 -0.33734 0.28453
与 0.11186 -0.10665 0.099248 0.018482 -0.19994 -0.091962 0.23166 0.18963 0.022237 -0.18895 -0.066227 0.15528 0.25182 0.026075 -0.19446 -0.31536 -0.04984 -0.25819 0.10495 -0.0652 -0.035447 -0.16393 -0.12357 -0.11452 -0.071271 0.12207 -0.13338 0.15007 0.40553 0.095037 0.039621 0.0065483 -0.14516 0.22304 -0.048912 -0.25392 -0.074759 -0.15163 -0.031027 -0.088394 -0.029024 -0.26361 -0.15604 -0.059295 0.004067 0.16922 -0.15522 -0.042693 -0.050528 -0.088818 0.010195 0.27331 0.17303 -0.037849 0.027227 0.092615 -0.077643 -0.26555 -0.17516 0.11725 0.24552 0.084347 -0.20527 0.080193 0.1211 -0.019959 -0.1783 -0.12074 -0.085252 -0.13071 0.16685 0.08831 -0.043166 0.064059 -0.050644 0.10141 0.030812 -0.037334 0.29017 -0.0921 -0.2402 0.38889 0.22276 0.0062542 -0.048978 -0.14602 0.10158 -0.22954 -0.051407 -0.034799 0.11075 0.030293 -0.0086629 -0.11332 -0.0056218 -0.18556 0.13602 0.18178 0.12388 -0.2275 0.18008 0.10809 0.006112 0.13393 0.35094 -0.11999 -0.36095 -0.13503 0.22371 0.03297 -0.15092 -0.2165 0.30804 -0.3514 -0.17876 -0.11758 -0.13206 -0.15741 -0.21878 -0.062503 0.0014964 -0.10575 0.42066 0.023143 -0.13377 0.19948 -0.12594 0.23105 0.00031839 0.15107 -0.033054 -0.26347 -0.0041086 0.15646 0.075845 0.35762 -0.08296 0.027165 -0.18447 0.2339 0.0094915 -0.087374 0.14019 -0.00093671 0.052422 -0.27658 -0.13289 -0.12791 -0.017112 -0.091563 -0.13852 -0.44942 0.21353 0.16887 -0.14537 -0.052639 0.39411 -0.098226 -0.30854 -0.0089935 -0.090749 -0.18867 0.14648 0.068184 0.011639 0.23619 0.23623 -0.13015 0.18183 -0.38618 -0.11727 0.32242 0.074101 0.2489 0.13148 -0.13404 0.31788 -0.12101 0.133 -0.081517 -0.20234 0.15721 -0.067757 0.17669 0.16648 -0.031307 0.071659 -0.33144 -0.22535 0.095655 -0.14206 0.10693 0.53401 -0.075944 -0.1019 -0.15813 -0.014975 0.10162 0.0063405 -0.19343 0.0082127 0.31412 0.025354 -0.071252 0.048609 0.08707 -0.079978 0.095858 -0.22613 0.14062 -0.15378 0.086103 -0.032639 -0.085973 -0.24764 0.053393 0.15443 -0.21934 0.19222 0.073543 -0.29136 -0.012651 0.02976 0.12294 0.14712 0.38021 0.014726 -0.18015 0.12988 0.01377 -0.078767 0.13281 -0.31625 -0.30181 0.011384 -0.039035 0.024049 0.017427 -0.13511 0.1885 0.01692 0.17569 0.27909 0.15715 0.27574 0.037657 -0.043303 -0.097129 -0.078894 0.24518 -0.41021 -0.082092 0.022463 0.11055 -0.22461 0.30988 -0.02639 0.23466 -0.041458 0.41326 0.18988 0.25334 0.15172 0.035138 0.35312 0.014055 0.060165 0.11394 0.24024 0.096635 -0.15639 0.039636 -0.042937 -0.05921 0.15099 0.011658 0.14782 -0.084154 -0.19662 0.014059 0.22108 0.044206 -0.27248 -0.051857 0.026093 0.19336 0.071147 -0.0058222 -0.14698 0.09114 -0.16598 0.21576 0.10819 -0.0001154 -0.099143 -0.013572 0.0061961 0.0016099 0.024786 0.21579
日 0.2656 -0.21567 0.20654 -0.17532 0.034889 0.61197 0.26977 0.071751 -0.059271 -0.042879 -0.036933 0.12076 -0.16341 0.0042866 0.090913 -0.13092 -0.17292 -0.34272 0.366 0.010569 -0.24151 -0.4327 -0.20041 0.051464 -0.11278 0.18687 0.41861 0.10966 -0.045283 -0.18004 -0.20621 0.21559 -0.18806 0.31292 -0.014376 -0.27813 -0.24935 -0.21679 -0.22044 -0.13883 -0.09451 -0.33328 0.15831 0.11592 0.31481 0.15111 -0.013213 -0.21333 0.36844 0.041396 -0.10732 0.45303 -0.073655 0.4434 0.2414 0.12008 -0.14579 -0.11717 -0.32701 0.008375 0.075751 -0.060208 -0.065329 0.37555 0.31803 -0.023384 -0.10182 -0.30929 -0.19529 -0.057096 0.60733 0.017284 0.19406 -0.1404 -0.074581 -0.019456 -0.090787 -0.064811 -0.069165 -0.39753 -0.26198 -0.018809 -0.078279 -0.61733 0.20672 0.014975 -0.53033 0.16887 -0.042648 -0.11658 0.26745 -0.15942 -0.087399 -0.17919 -0.38053 0.081728 -0.218 0.063831 0.085941 -0.046688 -0.10991 -0.26896 -0.085709 0.063341 0.2113 -0.14861 -0.27359 -0.037341 0.040795 0.34736 -0.34141 -0.34062 0.27774 -0.045113 0.37292 -0.14694 0.0927 -0.45958 -0.18407 0.17935 0.61114 0.058257 0.2514 -0.068664 -0.13369 -0.08578 0.21834 0.11438 -0.032468 0.14644 0.40314 -0.16371 0.13395 -0.10138 -0.053009 -0.056337 0.050375 0.32088 -0.22381 0.083367 -0.090813 -0.26707 -0.071618 0.022427 -0.18135 -0.35761 -0.28629 -0.13977 -0.19314 -0.41984 -0.038103 -0.26179 -0.029799 -0.058462 -0.36438 -0.14689 0.22062 0.0055942 -0.33086 0.39052 0.06374 0.31644 -0.049074 -0.17298 0.41809 -0.21733 0.056694 0.59692 0.036979 0.011865 -0.10388 0.48863 0.024976 0.33864 -0.16738 -0.57874 0.29971 -0.1265 -0.095152 -0.15778 -0.0933 0.32185 -0.20062 0.014157 0.22075 -0.07593 0.029874 -0.67356 -0.075799 0.072631 0.08734 0.0081537 -0.069673 -0.18665 0.041692 -0.37406 -0.03566 -0.084977 0.29842 -0.43089 0.19238 0.071523 0.31909 0.15066 0.023798 -0.028067 -0.47576 -0.072461 -0.15944 -0.032544 0.070773 -0.23625 -0.046414 0.22465 0.036962 0.13822 0.13445 -0.44449 0.1158 0.29171 0.032741 0.16975 -0.18228 -0.047122 -0.074842 0.13693 -0.17501 -0.037698 0.047874 -0.12596 -0.21298 0.28152 -0.5393 0.091811 0.17032 0.24935 -0.16724 -0.33631 -0.11149 0.30563 0.22486 0.2875 0.25455 -0.036878 0.03945 0.061474 -0.14086 -0.28086 0.21228 0.278 -0.34713 0.44828 -0.16882 -0.044581 -0.22648 0.058887 -0.3601 0.15167 0.018146 0.02725 0.069123 0.13445 0.0051649 0.030894 0.4608 0.06539 -0.33001 -0.07347 0.23998 -0.1211 -0.21905 0.55917 -0.11743 0.11419 0.35911 0.33219 0.52826 -0.07719 -0.015933 -0.19683 -0.18484 -0.025336 -0.21169 0.26666 0.031695 0.16048 0.33259 -0.14909 -0.45106 0.34049 0.1283 0.10808 -0.19908 0.11816 -0.11479 -0.4028 -0.020013 -0.029357 -0.19251 -0.0024147
